tree
version=v4
num_class=1
num_tree_per_iteration=1
label_index=0
max_feature_idx=14
objective=regression
feature_names=hour day dayofweek month lag1 rolling_mean_24 is_open sun_up fermeture_exceptionnelle ouverture_exceptionnelle Gazole Sans_plomb_98 SP_95_E10 Superéthanol_E85 weather
feature_infos=-1:23:0:1:2:3:4:5:6:7:8:9:10:11:12:13:14:15:16:17:18:19:20:21:22 [1:31] -1:0:1:2:3:6:5:4 -1:3:1:5:7:8:10:4:6:9:2:12:11 [0:4369] [0:1508.6666666666667] -1:0:1 -1:1:0 -1:0 -1:0 [1.613:1.825] [1.7490000000000001:1.9790000000000001] [1.6870000000000001:1.869] [0.76900000000000002:1.0489999999999999] -1:1:3
tree_sizes=2827 2809 2811 2804 2807 2801 2783 2820 2770 2749 2800 2773 2819 2794 2786 2791 2777 2768 2764 2767 2783 2755 2774 2726 2769 2782 2768 2749 2754 2788 2780 2806 2765 2747 2724 2762 2840 2747 2768 2795 2774 2758 2789 2775 2770 2827 2759 2805 2733 2709 2784 2756 2788 2758 2756 2665 2752 2712 2644 2768 2713 2683 2787 2651 2606 2689 2593 2647 2699 2645 2619 2635 2746 2679 2640 2638 2680 2639 2709 2609 2665 2528 2744 2630 2702 2588 2599 2681 2616 2600 2651 2604 2597 2622 2614 2554 2722 2675 2638 2624 2655 2644 2657 2624 2636 2615 2629 2584 2648 2655 2654 2591 2680 2661 2600 2557 2658 2621 2652 2588 2646 2650 2611 2681 2561 2678 2607 2585 2631 2565 2683 2636 2593 2629 2714 2593 2631 2635 2703 2589 2620 2647 2673 2612 2610 2628 2666 2706 2645 2588 2589 2575 2687 2610 2631 2720 2647 2640 2673 2629 2602 2598 2650 2644 2593 2653 2598 2651 2623 2676 2647 2616 2662 2663 2622 2632 2697 2624 2581 2647 2580 2585 2618 2692 2664 2647 2593 2566 2674 2618 2635 2661 2579 2598 2616 2656 2723 2686 2595 2685 2567 2648 2607 2609 2694 2611 2633 2598 2649 2609 2628 2639 2670 2595 2619 2567 2699 2624 2589 2657 2624 2620 2595 2573 2620 2631 2678 2621 2705 2583 2631 2622 2588 2597 2648 2649 2675 2641 2605 2639 2617 2613 2605 2598 2699 2629 2582 2638 2631 2610 2625 2690 2592 2598 2655 2672 2643 2640 2630 2610 2630 2640 2622 2621 2643 2617 2652 2593 2605 2660 2681 2641 2600 2641 2614 2636 2621 2621 2645 2628 2643 2595 2647 2670 2656 2598 2595 2691 2640 2644 2666 2592 2611 2650 2675 2606 2631 2649 2655 2628 2666 2631 2668 2632 2624 2676 2620 2656 2686 2614 2601 2632 2606 2608 2637 2614 2653 2683 2651 2679 2677 2655 2622 2568 2637 2674 2654 2568 2663 2602 2675 2631 2674 2641 2604 2670 2664 2658 2584 2658 2644 2654 2612 2647 2682 2630 2671 2651 2643 2610 2694 2670 2621 2650 2662 2637 2624 2645 2663 2665 2609 2646 2667 2689 2615 2646 2691 2654 2626 2650 2622 2653 2647 2632 2669 2608 2646 2688 2635 2656 2609 2651 2682 2624 2640 2651 2598 2612 2613 2640 2646 2652 2604 2645 2692 2664 2640 2657 2635 2654 2647 2626 2602 2628 2621 2650 2686 2692 2650 2640 2609 2652 2615 2650 2710 2681 2599 2639 2568 2664 2681 2638 2630 2596 2605 2640 2576 2659 2613 2615 2604 2652 2686 2602 2606 2626 2633 2637 2644 2669 2657 2651 2654 2643 2681 2572 2634 2617 2604 2658 2631 2639 2631 2611 2667 2644 2655 2670 2641 2656 2715 2675 2612 2652 2694 2661 2640 2636 2661 2659 2635 2654 2673 2679 2641 2637 2641 2618 2637 2659 2633 2654 2674 2655 2669 2654 2673 2636 2680 2641 2677 2643 2638 2640 2643 2661 2659 2647 2664 2714

Tree=0
num_leaves=31
num_cat=13
split_feature=4 4 0 0 4 4 4 0 0 4 4 0 0 2 10 4 0 4 0 0 4 4 10 0 0 10 4 13 10 0
split_gain=3.49271e+10 4.70998e+09 2.63438e+09 1.70885e+09 9.39313e+08 7.2672e+08 7.20364e+08 3.12043e+08 2.99293e+08 1.95647e+08 1.93227e+08 1.86372e+08 1.44957e+08 1.26874e+08 1.88382e+08 1.16134e+08 1.14644e+08 1.12062e+08 9.59797e+07 9.29528e+07 8.23575e+07 7.01527e+07 5.8722e+07 5.70184e+07 5.431e+07 5.00288e+07 4.63825e+07 4.53614e+07 4.40187e+07 4.14997e+07
threshold=596.50000000000011 1373.5000000000002 0 1 1898.5000000000002 106.50000000000001 966.50000000000011 2 3 2492.5000000000005 30.500000000000004 4 5 6 1.6425000000000003 1174.5000000000002 7 1576.5000000000002 8 9 966.50000000000011 772.50000000000011 1.6425000000000003 10 11 1.6265000000000003 917.50000000000011 0.82350000000000012 1.6425000000000003 12
decision_type=2 2 1 1 2 2 2 1 1 2 2 1 1 1 2 2 1 2 1 1 2 2 2 1 1 2 2 2 2 1
left_child=2 3 5 11 8 18 12 10 -3 23 29 20 28 19 25 24 -12 -10 22 -7 -2 -14 -1 -6 -8 -15 -13 -18 -5 -4
right_child=1 4 7 6 9 13 15 -9 17 -11 16 26 21 14 -16 -17 27 -19 -20 -21 -22 -23 -24 -25 -26 -27 -28 -29 -30 -31
leaf_value=408.61320664144546 445.14933709885935 497.55810827760456 405.93979636015126 481.73118295218705 555.45045315754089 402.60987384328246 515.12748681884477 392.52743283963378 537.6728340635608 655.79956837924317 408.78076421798244 420.74313682436821 465.04326103204198 441.2220479542965 478.99811069531489 519.04324200400868 410.40829107045937 561.8823294727847 393.25900085564535 446.37484941503004 474.14646543123234 481.06690562350252 434.30892763421105 602.87648115493221 497.48570320508503 456.78743026723299 442.42805057030341 443.95622883551005 502.44964261571556 392.37655103084421
leaf_weight=2347 1949 1486 5476 1582 624 917 2803 72917 4354 596 2648 2517 5193 5795 2271 7307 491 3409 2592 1013 1969 5766 1432 1797 7332 3208 1622 2250 2915 4232
leaf_count=2347 1949 1486 5476 1582 624 917 2803 72917 4354 596 2648 2517 5193 5795 2271 7307 491 3409 2592 1013 1969 5766 1432 1797 7332 3208 1622 2250 2915 4232
internal_value=435.402 501.664 402.624 485.384 556.023 435.814 495.485 395.247 540.218 604.475 408.399 444.053 479.784 449.198 453.245 509.433 423.566 548.159 408.076 425.519 459.66 473.439 418.395 591.84 502.505 446.768 429.256 437.937 495.029 399.953
internal_weight=0 53221 107589 40955 12266 19575 32898 88014 9249 3017 15097 8057 15456 13204 11274 17442 5389 7763 6371 1930 3918 10959 3779 2421 10135 9003 4139 2741 4497 9708
internal_count=160810 53221 107589 40955 12266 19575 32898 88014 9249 3017 15097 8057 15456 13204 11274 17442 5389 7763 6371 1930 3918 10959 3779 2421 10135 9003 4139 2741 4497 9708
cat_boundaries=0 1 2 3 4 5 6 7 8 9 10 11 12 13
cat_threshold=16256 917504 507968 393216 131072 896 64 393216 384 7168 458752 8960 64
is_linear=0
shrinkage=1


Tree=1
num_leaves=31
num_cat=15
split_feature=4 4 0 0 4 4 4 0 0 4 0 4 0 4 2 10 4 0 0 4 0 4 10 0 0 0 6 4 4 6
split_gain=2.83103e+10 3.95103e+09 1.98426e+09 1.41818e+09 8.12154e+08 6.06157e+08 5.56427e+08 2.47107e+08 2.21133e+08 1.83925e+08 1.50748e+08 1.33855e+08 1.20744e+08 1.09278e+08 1.06405e+08 1.51789e+08 8.84522e+07 8.2673e+07 7.58269e+07 6.70725e+07 6.57256e+07 5.8963e+07 5.32545e+07 5.27035e+07 4.51057e+07 4.41634e+07 4.55639e+07 4.18668e+07 4.02175e+07 3.7159e+07
threshold=575.50000000000011 1353.5000000000002 0 1 1860.5000000000002 924.50000000000011 92.500000000000014 2 3 2330.5000000000005 4 30.500000000000004 5 1135.5000000000002 6 1.6425000000000003 1529.5000000000002 7 8 938.50000000000011 9 740.50000000000011 1.6425000000000003 10 11 12 13 2739.5000000000005 877.50000000000011 14
decision_type=2 2 1 1 2 2 2 1 1 2 1 2 1 2 1 2 2 1 1 2 1 2 2 1 1 1 1 2 2 1
left_child=2 3 6 10 7 12 20 -3 11 24 19 -4 -5 23 18 -16 -9 -13 -8 -2 22 -14 -1 -7 -6 -15 -27 -11 -12 -25
right_child=1 4 8 5 9 13 14 16 -10 27 28 17 21 25 15 -17 -18 -19 -20 -21 -22 -23 -24 29 -26 26 -28 -29 -30 -31
leaf_value=-26.753493260189288 7.0804073727165688 54.53256242452575 -31.91185493946972 58.360318042551491 103.52519778104357 69.501651652222705 -30.162837239153461 89.227696018237552 -38.601366503238879 173.06166375201681 -14.952700554067787 -24.826364159100766 26.19086193126903 87.308727977709452 9.0953001208842572 38.590939784847997 110.23577542788176 0.99248928805951953 8.709772968346579 33.267584512872126 -37.98637235869402 40.119125889193512 -1.4918157684347486 10.184891168795639 144.96212768889862 17.033454182904638 69.949079733933203 219.04571962098817 4.5209487895889486 54.010316481259409
leaf_weight=2095 1884 1563 9708 2369 631 2975 963 4114 72848 598 2433 2432 5813 2019 8722 2181 3908 2527 1032 2034 2534 6370 1387 199 1811 167 6356 296 1880 6961
leaf_count=2095 1884 1563 9708 2369 631 2975 963 4114 72848 598 2433 2432 5813 2019 8722 2181 3908 2527 1032 2034 2534 6370 1387 199 1811 167 6356 296 1880 6961
internal_value=0 58.6996 -29.9905 43.6521 106.983 52.8503 -0.609377 92.1924 -36.3362 149.48 6.44645 -25.067 37.565 64.788 11.1043 14.9818 99.3382 -11.7177 -10.1112 20.6226 -25.7239 33.4459 -16.6431 57.7657 135.273 73.1199 68.4894 188.287 -6.44935 52.7186
internal_weight=0 54381 106429 41460 12921 33229 18914 9585 87515 3336 8231 14667 14552 18677 12898 10903 8022 4959 1995 3918 6016 12183 3482 10135 2442 8542 6523 894 4313 7160
internal_count=160810 54381 106429 41460 12921 33229 18914 9585 87515 3336 8231 14667 14552 18677 12898 10903 8022 4959 1995 3918 6016 12183 3482 10135 2442 8542 6523 894 4313 7160
cat_boundaries=0 1 2 3 4 5 6 7 8 9 10 11 12 13 14 15
cat_threshold=16256 917504 393216 507968 131072 384 64 393216 7168 384 8960 458752 8960 1 1
is_linear=0
shrinkage=0.1


Tree=2
num_leaves=31
num_cat=14
split_feature=4 4 0 0 4 4 4 4 0 0 5 4 4 10 2 0 4 0 4 0 0 6 0 4 10 2 0 10 0 5
split_gain=2.29577e+10 3.03239e+09 1.79988e+09 1.11477e+09 5.85486e+08 4.95968e+08 4.84487e+08 2.28955e+08 1.92534e+08 1.50501e+08 1.27162e+08 1.2518e+08 1.1473e+08 9.72936e+07 1.05406e+08 9.22487e+07 7.71501e+07 6.87227e+07 6.19594e+07 5.74111e+07 5.68167e+07 5.90912e+07 4.90821e+07 4.73289e+07 4.57635e+07 4.47845e+07 4.70107e+07 4.16051e+07 3.7171e+07 3.65338e+07
threshold=609.50000000000011 1395.5000000000002 0 1 1937.5000000000002 99.500000000000014 1040.5000000000002 407.50000000000006 2 3 409.35416666666669 1034.5000000000002 2330.5000000000005 1.6265000000000003 4 5 1630.5000000000002 6 39.500000000000007 7 8 9 10 260.50000000000006 1.6425000000000003 11 12 1.6425000000000003 13 546.72916666666686
decision_type=2 2 1 1 2 2 2 2 1 1 2 2 2 2 1 1 2 1 2 1 1 1 1 2 2 1 1 2 1 2
left_child=2 3 5 11 8 19 10 9 -3 18 24 22 -6 -7 17 -9 28 -15 -4 27 -8 -22 -2 -16 -5 26 -12 -1 -10 -23
right_child=1 4 7 6 12 13 20 15 16 -11 25 -13 -14 14 23 -17 -18 -19 -20 -21 21 29 -24 -25 -26 -27 -28 -29 -30 -31
leaf_value=-23.085220379348371 10.136852591346813 51.858367093462704 -22.776220572336559 29.676581026807703 125.70417117526955 2.5896201313280605 74.859183457418339 11.611770964939033 106.81009710500908 -34.8286965659684 -6.3456435252661727 25.506414939970199 169.45812887238711 -28.564435004813788 9.6726437569478652 -19.794103460890167 106.37664991856934 15.539195991897584 6.2067297291425518 -34.201752888423464 13.753932403481526 56.959634260531509 -9.2995717017284996 30.55291908663207 48.793388486604869 52.01654572310381 43.509780420019496 -1.0967252514261583 79.921950168842542 69.983125807350888
leaf_weight=2213 2258 1415 5851 9694 1818 6617 3585 1352 878 77304 291 2686 894 659 1446 2996 2904 740 844 2560 276 7664 3032 4355 1438 6420 541 1408 3675 2996
leaf_count=2213 2258 1415 5851 9694 1818 6617 3585 1352 878 77304 291 2686 894 659 1446 2996 2904 740 844 2560 276 7664 3032 4355 1438 6420 541 1408 3675 2996
internal_value=0 54.3013 -26.2888 41.5037 99.4649 0.809407 49.6279 -32.4191 87.0351 -33.581 38.8588 7.91527 140.127 11.3429 19.3874 -10.0473 93.5151 -5.29114 -19.094 -22.7358 63.2961 59.3828 -1.00169 25.3045 32.146 49.163 26.2041 -14.4951 85.5172 60.6199
internal_weight=0 52465 108345 40881 11584 19998 32905 88347 8872 83999 18384 7976 2712 13817 7200 4348 7457 1399 6695 6181 14521 10936 5290 5801 11132 7252 832 3621 4553 10660
internal_count=160810 52465 108345 40881 11584 19998 32905 88347 8872 83999 18384 7976 2712 13817 7200 4348 7457 1399 6695 6181 14521 10936 5290 5801 11132 7252 832 3621 4553 10660
cat_boundaries=0 1 2 3 4 5 6 7 8 9 10 11 12 13 14
cat_threshold=16256 917504 393216 64 64 114688 7168 384 8960 1 131072 64 3072 8960
is_linear=0
shrinkage=0.1


Tree=3
num_leaves=31
num_cat=16
split_feature=4 4 0 0 4 4 4 0 4 0 2 4 10 0 0 4 0 0 4 0 0 4 4 2 4 10 6 0 2 2
split_gain=1.86232e+10 2.77106e+09 1.16562e+09 8.70986e+08 7.25199e+08 3.35726e+08 3.2083e+08 2.21863e+08 1.42803e+08 1.23656e+08 1.13152e+08 9.48282e+07 9.17534e+07 8.93044e+07 7.73645e+07 7.33952e+07 7.02035e+07 6.55058e+07 5.61007e+07 5.51332e+07 5.23916e+07 4.69966e+07 4.50163e+07 3.57376e+07 3.48799e+07 2.99406e+07 2.76446e+07 2.74098e+07 2.54142e+07 2.35368e+07
threshold=547.50000000000011 1243.5000000000002 0 1 1796.5000000000002 33.500000000000007 848.50000000000011 2 2228.5000000000005 3 4 43.500000000000007 1.6425000000000003 5 6 1500.5000000000002 7 8 1046.5000000000002 9 10 351.50000000000006 2739.5000000000005 11 855.50000000000011 1.6265000000000003 12 13 14 15
decision_type=2 2 1 1 2 2 2 1 2 1 1 2 2 1 1 2 1 1 2 1 1 2 2 1 2 2 1 1 1 1
left_child=2 3 5 13 7 28 14 20 19 11 17 29 -12 24 -5 27 23 -7 -18 -6 -3 -11 -10 -8 -2 -16 -20 -9 -1 -4
right_child=1 4 9 6 8 10 16 15 22 21 12 -13 -14 -15 25 -17 18 -19 26 -21 -22 -23 -24 -25 -26 -27 -28 -29 -30 -31
leaf_value=-29.895844246915807 2.5730314145427808 52.782048201731861 -30.829656489663464 44.138455349667069 126.71148149523343 5.2638991213876274 81.044339633868404 83.616741001943083 135.22737424718775 -31.449680153089034 5.9437375032157966 5.0162490660492143 28.096905312356196 -7.4556822845810347 16.278532723673901 88.698436057219041 36.408054531183801 -26.28523078078393 11.196935048814638 91.883779652026931 18.859653641260589 -19.025071265807149 180.19532920218805 54.272613523765976 22.505767028738745 27.461985560793728 50.798485115083942 65.728633625536077 -13.569301699608872 -18.901756985738167
leaf_weight=3185 1548 3199 2596 2218 973 1192 667 1546 898 74555 8326 1435 2411 4360 3742 3420 5757 1459 181 1783 575 3174 296 4686 2028 6645 6750 4638 1445 5122
leaf_count=3185 1548 3199 2596 2218 973 1192 667 1546 898 74555 8326 1435 2411 4360 3742 3420 5757 1459 181 1783 575 3174 296 4686 2028 6645 6750 4638 1445 5122
internal_value=0 46.6193 -24.8387 31.6995 79.839 -1.68167 39.3394 68.7228 117.488 -29.6375 6.34474 -18.569 10.9081 2.14491 27.1114 76.8632 47.9047 -12.133 43.6697 104.973 47.6772 -30.9384 146.375 57.7533 13.8385 23.4105 49.7643 70.4422 -24.8943 -22.9782
internal_weight=0 55910 104900 38582 17328 18018 30646 13378 3950 86882 13388 9153 10737 7936 12605 9604 18041 2651 12688 2756 3774 77729 1194 5353 3576 10387 6931 6184 4630 7718
internal_count=160810 55910 104900 38582 17328 18018 30646 13378 3950 86882 13388 9153 10737 7936 12605 9604 18041 2651 12688 2756 3774 77729 1194 5353 3576 10387 6931 6184 4630 7718
cat_boundaries=0 1 2 3 4 5 6 7 8 9 10 11 12 13 14 15 16
cat_threshold=16256 917504 919552 49216 64 131072 384 9088 896 29184 133120 32 1 8960 65 64
is_linear=0
shrinkage=0.1


Tree=4
num_leaves=31
num_cat=15
split_feature=4 4 4 0 0 0 4 4 0 4 10 0 0 4 0 6 0 4 4 3 2 0 2 10 5 4 4 7 10 0
split_gain=1.51293e+10 1.84514e+09 1.47401e+09 6.85592e+08 3.94827e+08 3.61066e+08 3.43874e+08 2.87431e+08 1.40189e+08 1.37859e+08 1.02853e+08 8.21307e+07 7.88522e+07 6.21814e+07 4.50705e+07 4.44284e+07 4.2705e+07 4.21779e+07 4.15411e+07 3.96179e+07 3.64188e+07 3.39176e+07 2.94054e+07 2.90215e+07 2.82205e+07 2.57069e+07 2.49801e+07 2.05857e+07 1.95227e+07 1.85061e+07
threshold=660.50000000000011 1438.5000000000002 282.50000000000006 0 1 2 2032.5000000000002 1069.5000000000002 3 33.500000000000007 1.6265000000000003 4 5 2739.5000000000005 6 7 8 891.50000000000011 1693.5000000000002 9 10 11 12 1.6425000000000003 512.81250000000011 1251.5000000000002 1075.5000000000002 13 1.6395000000000002 14
decision_type=2 2 2 1 1 1 2 2 1 2 2 1 1 2 1 1 1 2 2 1 1 1 1 2 2 2 2 1 2 1
left_child=2 3 5 12 -4 9 8 11 21 23 -6 24 19 16 20 -16 -8 -13 -10 -2 -9 -3 -12 -1 -5 -17 -21 -25 -11 -24
right_child=1 6 4 7 10 -7 13 14 18 28 22 17 -14 -15 15 25 -18 -19 -20 26 -22 -23 29 27 -26 -27 -28 -29 -30 -31
leaf_value=-23.223016750836749 31.935378037261763 66.396304365297695 -18.212317872167088 38.126914029228338 5.3550930634303029 -28.339580728438239 137.48490639144356 87.753592218715411 78.295910901515583 -3.5130274520584663 47.135192352944415 22.547024157651354 -1.830571975436778 162.17579823055783 9.0764874887830427 46.619332506284763 97.242972581963457 34.848449436825661 97.307009246826169 2.1213988464934967 58.133521557059936 43.808256394002171 25.71626747192262 -7.8336112603412857 51.84883894170656 56.678688685341946 22.467734591052274 -30.23889130194982 9.0560948417645601 14.449431307373167
leaf_weight=4923 1431 2053 5494 4147 7448 78576 639 611 2970 2471 454 5563 3605 296 262 6161 1172 5586 1875 1394 2772 1286 3313 2815 2347 4323 1064 480 2472 2807
leaf_count=4923 1431 2053 5494 4147 7448 78576 639 611 2970 2471 454 5563 3605 296 262 6161 1172 5586 1875 1394 2772 1286 3313 2815 2347 4323 1064 480 2472 2807
internal_value=0 45.9656 -20.4633 36.0873 4.49242 -25.7724 83.6569 42.5001 74.3818 -10.4159 13.3919 34.0018 8.83053 119.683 53.1421 49.7045 112.738 28.6847 85.4767 18.6924 63.726 57.8534 22.5175 -18.3613 43.0199 50.7672 10.8845 -11.0975 2.77281 20.5806
internal_weight=0 49557 111253 39266 19516 91737 10291 31772 8184 13161 14022 17643 7494 2107 14129 10746 1811 11149 4845 3889 3383 3339 6574 8218 6494 10484 2458 3295 4943 6120
internal_count=160810 49557 111253 39266 19516 91737 10291 31772 8184 13161 14022 17643 7494 2107 14129 10746 1811 11149 4845 3889 3383 3339 6574 8218 6494 10484 2458 3295 4943 6120
cat_boundaries=0 1 2 3 4 5 6 7 8 9 10 11 12 13 14 15
cat_threshold=917504 1966080 448 460800 9088 131072 8960 1 29184 6158 32 67584 32 2 384
is_linear=0
shrinkage=0.1


Tree=5
num_leaves=31
num_cat=17
split_feature=4 4 0 0 4 4 0 4 4 4 0 0 0 0 10 0 4 0 10 0 0 3 7 0 4 4 0 10 3 6
split_gain=1.22713e+10 1.89598e+09 7.16988e+08 5.71717e+08 5.39417e+08 1.95337e+08 1.61159e+08 1.52169e+08 1.49924e+08 1.05666e+08 8.04982e+07 6.1815e+07 5.80781e+07 5.62744e+07 5.61117e+07 5.565e+07 5.43215e+07 5.25716e+07 3.79286e+07 3.7337e+07 3.58455e+07 2.96401e+07 2.92524e+07 2.61824e+07 2.53353e+07 2.35734e+07 2.34591e+07 2.04743e+07 2.02858e+07 2.25455e+07
threshold=528.50000000000011 1201.5000000000002 0 1 1769.5000000000002 826.50000000000011 2 351.50000000000006 39.500000000000007 2330.5000000000005 3 4 5 6 1.6265000000000003 7 1427.5000000000002 8 1.6425000000000003 9 10 11 12 13 271.50000000000006 1016.5000000000001 14 1.6265000000000003 15 16
decision_type=2 2 1 1 2 2 1 2 2 2 1 1 1 1 2 1 2 1 2 1 1 1 1 1 2 2 1 2 1 1
left_child=2 3 8 13 6 17 20 10 -1 12 18 -9 -6 21 -10 28 -8 -5 -4 -17 -3 -2 -20 -18 -16 -21 -14 -19 29 -7
right_child=1 4 7 5 9 15 16 11 14 -11 -12 -13 26 -15 24 19 23 27 22 25 -22 -23 -24 -25 -26 -27 -28 -29 -30 -31
leaf_value=-16.77718427542916 22.109677822965338 40.924971615757265 -21.509954059010123 34.876251502256238 105.26273491928521 -15.012493896484376 54.379434838178156 -18.607135825638569 -1.2053750683126332 124.66322185315808 -25.464834743380695 2.9886198919799023 48.586103232814352 -7.0258731135393155 6.7308436352047396 58.225492908477783 59.379768905216714 12.508543290571851 -2.5176410216265102 34.105157078465652 14.74533901694203 2.8221222210376018 -28.658993278987822 77.029891400476274 20.28560391523267 43.028474688848952 80.410904051444902 21.627501224497053 20.86046050273956 39.209907007664754
leaf_weight=3215 1260 3560 3350 2296 1191 81 6367 2483 3776 894 79156 2830 413 4503 2393 1190 2228 4048 2841 5453 658 2167 504 2322 3254 6477 1765 6285 2411 1439
leaf_count=3215 1260 3560 3350 2296 1191 81 6367 2483 3776 894 79156 2830 413 4503 2393 1190 2228 4048 2841 5453 658 2167 504 2322 3254 6477 1765 6285 2411 1439
internal_value=0 37.2863 -20.4609 24.1892 62.6798 30.5571 53.8296 -23.5539 1.86797 94.1006 -24.5729 -7.13343 85.9904 0.316787 8.23143 37.5492 60.2873 21.1409 -13.9679 40.7115 36.8855 9.95724 -6.45643 68.687 14.5416 38.9172 74.6258 18.0377 26.8232 36.083
internal_weight=0 57008 103802 37610 19398 29680 15135 91164 12638 4263 85851 5313 3369 7930 9423 17051 10917 12629 6695 13120 4218 3427 3345 4550 5647 11930 2178 10333 3931 1520
internal_count=160810 57008 103802 37610 19398 29680 15135 91164 12638 4263 85851 5313 3369 7930 9423 17051 10917 12629 6695 13120 4218 3427 3345 4550 5647 11930 2178 10333 3931 1520
cat_boundaries=0 1 2 3 4 5 6 7 8 9 10 11 12 13 14 15 16 17
cat_threshold=1920 1966080 919552 64 1835008 29184 131072 67584 384 256 133120 6158 2 99328 393216 6158 1
is_linear=0
shrinkage=0.1


Tree=6
num_leaves=31
num_cat=16
split_feature=4 4 4 0 0 0 4 4 4 0 10 4 5 0 6 0 2 0 0 2 3 10 0 2 4 0 2 5 4 5
split_gain=9.97358e+09 1.21536e+09 9.84295e+08 4.65357e+08 2.76083e+08 2.31345e+08 2.22936e+08 1.95637e+08 9.00954e+07 8.70242e+07 6.53197e+07 6.30447e+07 6.20822e+07 3.8154e+07 3.86293e+07 3.41812e+07 3.41474e+07 3.46617e+07 3.32545e+07 3.02337e+07 2.57888e+07 3.39414e+07 2.76165e+07 2.55663e+07 2.55558e+07 2.46005e+07 2.41793e+07 2.39876e+07 2.01047e+07 1.98868e+07
threshold=667.50000000000011 1500.5000000000002 271.50000000000006 0 1 2 1099.5000000000002 2146.5000000000005 39.500000000000007 3 1.6265000000000003 1075.5000000000002 443.14583333333343 4 5 6 7 8 9 10 11 1.6425000000000003 12 13 2492.5000000000005 14 15 571.93750000000011 1769.5000000000002 531.02083333333337
decision_type=2 2 2 1 1 1 2 2 2 1 2 2 2 1 1 1 1 1 1 1 1 2 1 1 2 1 1 2 2 2
left_child=2 3 5 11 -4 8 12 9 20 28 -6 29 25 19 -15 -11 17 -14 24 -8 22 -22 -1 -18 -9 -5 -12 -16 -3 -2
right_child=1 7 4 6 10 -7 13 18 -10 15 26 -13 16 14 27 -17 23 -19 -20 -21 21 -23 -24 -25 -26 -27 -28 -29 -30 -31
leaf_value=-10.86832422464569 5.5177358673664658 73.200003043982633 -15.083686686523908 17.502021017479834 4.4089786912467224 -22.991993958247004 75.763543807682396 104.88300958231194 2.8693217523096006 38.95428346278792 39.616322468138236 20.168547453480063 -11.162873072132232 4.5726178274721905 40.088736426156117 60.938784252819815 59.281994034602263 31.666201439322755 76.931320063696162 49.468669294274378 -15.740865300202756 3.3544949256982886 -26.750775958146182 35.762087238841836 137.87121291684983 27.316550872952696 16.157726794025887 50.962253910350732 91.419687558187675 -8.2462127330984494
leaf_weight=2007 3408 1570 5752 4223 7597 78340 649 588 4495 1083 475 2755 305 269 7705 3555 551 478 516 2566 2529 1473 2538 6099 391 7226 6410 2754 986 1517
leaf_count=2007 3408 1570 5752 4223 7597 78340 649 588 4495 1083 475 2755 305 269 7705 3555 551 478 516 2566 2529 1473 2538 6099 391 7226 6410 2754 986 1517
internal_value=0 37.5255 -16.5204 30.2455 3.43626 -20.9393 35.4267 71.4619 -8.58506 64.6216 10.795 8.04412 28.3557 45.0278 41.9504 55.9001 35.4722 15.0527 104.378 54.9952 -14.6191 -8.6908 -19.7766 37.797 116.864 23.7356 17.8572 42.9519 79.9158 1.27816
internal_weight=0 49194 111616 40505 20234 91382 32825 8689 13042 7194 14482 7680 18882 13943 10728 4638 7433 783 1495 3215 8547 4002 4545 6650 979 11449 6885 10459 2556 4925
internal_count=160810 49194 111616 40505 20234 91382 32825 8689 13042 7194 14482 7680 18882 13943 10728 4638 7433 783 1495 3215 8547 4002 4545 6650 979 11449 6885 10459 2556 4925
cat_boundaries=0 1 2 3 4 5 6 7 8 9 10 11 12 13 14 15 16
cat_threshold=917504 1966080 448 29184 8960 1 393216 64 3072 62464 32 6158 128 32 71680 32
is_linear=0
shrinkage=0.1


Tree=7
num_leaves=31
num_cat=14
split_feature=4 4 0 0 4 4 0 4 0 4 4 10 0 2 3 4 0 10 2 0 0 13 4 5 0 10 6 4 7 4
split_gain=8.08661e+09 1.31035e+09 4.31712e+08 4.22359e+08 2.97618e+08 1.78765e+08 1.07771e+08 9.37083e+07 7.58189e+07 5.97399e+07 5.90094e+07 4.97965e+07 4.33333e+07 4.28556e+07 5.24656e+07 3.88552e+07 3.83395e+07 3.73981e+07 3.67625e+07 3.03095e+07 2.96488e+07 2.73216e+07 2.42036e+07 2.03145e+07 1.93744e+07 1.91925e+07 1.90034e+07 1.73378e+07 1.73117e+07 1.60185e+07
threshold=508.50000000000006 1274.5000000000002 0 1 1826.5000000000002 877.50000000000011 2 24.500000000000004 3 2492.5000000000005 855.50000000000011 1.6395000000000002 4 5 6 202.50000000000003 7 1.6395000000000002 8 9 10 0.88150000000000006 368.50000000000006 581.31250000000011 11 1.6425000000000003 12 1087.5000000000002 13 1559.5000000000002
decision_type=2 2 1 1 2 2 1 2 1 2 2 2 1 1 1 2 1 2 1 1 1 2 2 2 1 2 1 2 1 2
left_child=2 3 7 10 6 11 19 -1 13 16 -2 -5 25 -4 15 -15 -6 -9 -8 29 -14 -16 -10 -12 -18 -7 -27 -22 -11 -3
right_child=1 4 8 5 9 12 18 17 22 28 23 -13 20 14 21 -17 24 -19 -20 -21 27 -23 -24 -25 -26 26 -28 -29 -30 -31
leaf_value=-15.112041738435853 -6.612014455327575 33.965264196791559 -20.64282083045066 13.511596472866778 90.057217722353741 15.840229026030498 67.128164112621789 0.37073222876900325 -20.663878167034465 112.84899998671717 14.428213347242503 25.358313355199609 52.134235968132799 -24.799249379985046 -4.1392264536230661 2.6856427332644621 37.593082889182533 13.234615214709738 49.913222736645949 11.612582421790986 30.281511904980349 16.676343528259217 -10.932563253216525 -1.2842884782711392 68.772979629039767 -15.304992837491245 31.013447178441506 37.664331602743054 44.736756737232213 46.576744259407818
leaf_weight=2834 4720 3082 3504 9875 1094 1858 1981 5509 76674 556 2849 5538 1023 2131 4075 678 332 3832 5228 515 6627 746 2644 1157 1622 92 2381 6117 40 1496
leaf_count=2834 4720 3082 3504 9875 1094 1858 1981 5509 76674 556 2849 5538 1023 2131 4075 678 332 3832 5228 515 6627 746 2644 1157 1622 92 2381 6117 40 1496
internal_value=0 29.7968 -16.8703 20.5758 54.2208 25.675 46.7854 0.814927 -19.2487 79.3225 0.962838 17.7682 32.4229 -11.4853 -7.25826 -18.1009 73.6606 5.64794 54.7302 35.3628 35.198 -0.916331 -20.3369 9.89018 63.6937 23.466 29.2903 33.7987 108.278 38.0034
internal_weight=0 58183 102627 42237 15946 33511 12302 12175 90452 3644 8726 15413 18098 11134 7630 2809 3048 9341 7209 5093 13767 4821 79318 4006 1954 4331 2473 12744 596 4578
internal_count=160810 58183 102627 42237 15946 33511 12302 12175 90452 3644 8726 15413 18098 11134 7630 2809 3048 9341 7209 5093 13767 4821 79318 4006 1954 4331 2473 12744 596 4578
cat_boundaries=0 1 2 3 4 5 6 7 8 9 10 11 12 13 14
cat_threshold=1920 1966080 985088 14400 67584 64 6158 29184 32 198656 256 393216 1 2
is_linear=0
shrinkage=0.1


Tree=8
num_leaves=31
num_cat=18
split_feature=4 4 4 0 0 0 4 4 4 0 0 5 0 0 2 3 0 6 4 10 6 0 10 3 0 0 4 2 0 5
split_gain=6.5756e+09 7.80425e+08 7.00336e+08 2.91341e+08 1.82873e+08 1.6287e+08 1.34187e+08 1.3379e+08 6.37008e+07 5.79508e+07 5.07691e+07 4.58764e+07 4.15058e+07 3.67857e+07 3.18357e+07 3.03225e+07 2.85389e+07 2.75178e+07 2.39648e+07 2.24021e+07 2.13614e+07 2.84928e+07 2.02739e+07 2.25851e+07 2.17304e+07 1.98646e+07 1.82604e+07 1.76457e+07 1.6986e+07 1.65339e+07
threshold=688.50000000000011 1500.5000000000002 304.50000000000006 0 1 2 2088.5000000000005 1135.5000000000002 39.500000000000007 3 4 414.64583333333343 5 6 7 8 9 10 461.50000000000006 1.6425000000000003 11 12 1.6425000000000003 13 14 15 2739.5000000000005 16 17 516.56250000000011
decision_type=2 2 2 1 1 1 2 2 2 1 1 2 1 1 1 1 1 1 2 2 1 1 2 1 1 1 2 1 1 2
left_child=2 3 5 12 -4 8 9 11 22 25 -6 19 15 -8 -13 -2 27 -18 -12 28 21 -16 -1 24 -24 -3 -15 -9 -5 -22
right_child=1 6 4 7 10 -7 13 16 -10 -11 18 14 -14 26 20 -17 17 -19 -20 -21 29 -23 23 -25 -26 -27 -28 -29 -30 -31
leaf_value=-15.952152904721856 25.741138251306513 31.23421508076208 -11.880220478333285 11.13594453790032 18.664601320032151 -18.609217429036924 62.029872401638379 63.747465112366655 2.4010962362947659 64.41484763433553 -1.8130164623929521 48.548138453038376 -0.86680964219431944 90.135920436583092 -11.366375786838043 7.4124734975488158 0.81525745452978671 35.543799568702447 8.742906033694954 28.626543485699337 25.044313636799338 26.676250114982778 -0.6257262320825181 3.3862585166179082 -21.681347384440709 48.440401704975329 123.67828180872981 41.937327442944252 20.701417111772628 34.20179861181262
leaf_weight=5053 1429 1045 5514 3158 4253 79028 756 581 4898 2466 3018 789 3480 843 322 2499 234 9143 7484 2077 4887 485 850 1473 1171 3378 201 2131 4859 3305
leaf_count=5053 1429 1045 5514 3158 4253 79028 756 581 4898 2466 3018 789 3480 843 322 2499 234 9143 7484 2077 4887 485 850 1473 1171 3378 201 2131 4859 3305
internal_value=0 30.9841 -13.1885 24.9987 3.64602 -16.8785 58.11 29.1364 -6.68656 51.7578 9.44988 24.1012 7.09278 82.4216 28.9793 14.1288 37.4415 34.6402 5.70398 19.371 27.1794 11.6866 -11.9022 -6.04521 -12.8724 44.4548 95.6773 46.8268 16.9732 28.7388
internal_weight=0 48068 112742 39379 20269 92473 8689 31971 13445 6889 14755 19882 7408 1800 9788 3928 12089 9377 10502 10094 8999 807 8547 3494 2021 4423 1044 2712 8017 8192
internal_count=160810 48068 112742 39379 20269 92473 8689 31971 13445 6889 14755 19882 7408 1800 9788 3928 12089 9377 10502 10094 8999 807 8547 3494 2021 4423 1044 2712 8017 8192
cat_boundaries=0 1 2 3 4 5 6 7 8 9 10 11 12 13 14 15 16 17 18
cat_threshold=917504 1966080 448 494592 384 131072 461824 32 6158 8960 1 1 3072 6158 128 393216 32 71680
is_linear=0
shrinkage=0.1


Tree=9
num_leaves=31
num_cat=20
split_feature=4 4 4 0 4 0 0 0 5 4 0 2 0 2 4 0 4 2 10 0 6 6 3 3 0 3 10 3 0 2
split_gain=5.32942e+09 6.50612e+08 5.53436e+08 2.02347e+08 1.7773e+08 1.53593e+08 1.27575e+08 7.03106e+07 6.92022e+07 4.95761e+07 4.48844e+07 4.30225e+07 4.22937e+07 3.47138e+07 3.31212e+07 2.98468e+07 2.57404e+07 2.42617e+07 2.37112e+07 2.11502e+07 1.99278e+07 1.99088e+07 2.00348e+07 1.93007e+07 1.69615e+07 1.6765e+07 1.64019e+07 1.83271e+07 1.76344e+07 1.46951e+07
threshold=681.50000000000011 1316.5000000000002 293.50000000000006 0 1898.5000000000002 1 2 3 492.60416666666669 39.500000000000007 4 5 6 7 2739.5000000000005 8 946.50000000000011 9 1.6395000000000002 10 11 12 13 14 15 16 1.6425000000000003 17 18 19
decision_type=2 2 2 1 2 1 1 1 2 2 1 1 1 1 2 1 2 1 2 1 1 1 1 1 1 1 2 1 1 1
left_child=2 3 6 16 7 -4 9 17 18 26 -7 15 -6 -13 -14 23 -2 -3 24 -9 -12 -21 -23 -10 -5 -18 -1 28 -28 -20
right_child=1 4 5 8 12 10 -8 19 11 -11 20 13 14 -15 -16 -17 25 -19 29 21 -22 22 -24 -25 -26 -27 27 -29 -30 -31
leaf_value=-14.356937621416797 -1.5855163902255474 58.509303622631684 -12.591961571953711 23.57850153565866 28.395274123243798 16.46636017067166 -16.758116302918257 9.8255028064704053 12.829626134463721 2.022411023316224 -9.1729181599014424 52.338491017671565 67.732216994815232 30.469128757959979 104.22285097032677 25.881269041814587 19.076630119919756 43.025703269752029 17.299347082958828 -6.3660175284078306 5.801739890241409 45.546787381906853 30.601283589731288 -27.825094720048288 12.780604711476583 4.4379251861764812 -0.56388146536987882 3.0499161119446594 -19.531570635964364 26.043023317999104
leaf_weight=5053 3387 1757 4800 2067 302 4356 78792 432 214 4757 974 834 2438 8745 277 540 1402 3774 2992 121 10145 1353 3804 238 5359 1801 850 1473 1171 6602
leaf_count=5053 3387 1757 4800 2067 302 4356 78792 432 214 4757 974 834 2438 8745 277 540 1402 3774 2992 121 10145 1353 3804 238 5359 1801 850 1473 1171 6602
internal_value=0 27.7438 -11.9362 20.2587 45.6881 3.02091 -15.229 39.904 24.0158 -6.15545 7.86673 30.3792 67.239 32.4258 71.193 10.1875 4.48532 48.041 20.0776 31.8822 4.48596 33.6655 34.6701 -8.71599 15.8351 10.9189 -10.7142 -5.44611 -11.5961 23.3614
internal_weight=0 48439 112371 34181 14258 20275 92096 11241 27591 13304 15475 10571 3017 9579 2715 992 6590 5531 17020 5710 11119 5278 5157 452 7426 3203 8547 3494 2021 9594
internal_count=160810 48439 112371 34181 14258 20275 92096 11241 27591 13304 15475 10571 3017 9579 2715 992 6590 5531 17020 5710 11119 5278 5157 452 7426 3203 8547 3494 2021 9594
cat_boundaries=0 1 2 3 4 5 6 7 8 9 10 11 12 13 14 15 16 17 18 19 20
cat_threshold=917504 1835008 448 62208 384 64 393216 32 3072 32 262144 1 1 6158 6158 24832 6158 6158 128 10
is_linear=0
shrinkage=0.1


Tree=10
num_leaves=31
num_cat=17
split_feature=4 4 0 0 4 5 0 6 4 0 10 4 2 0 0 3 13 2 4 4 2 0 5 3 5 0 0 0 13 3
split_gain=4.33193e+09 7.15441e+08 2.252e+08 2.17532e+08 1.9219e+08 8.95394e+07 6.4397e+07 5.21257e+07 5.00477e+07 4.67745e+07 3.95466e+07 3.72332e+07 3.48469e+07 3.06451e+07 2.9263e+07 4.40192e+07 2.84237e+07 2.34421e+07 2.12776e+07 2.06588e+07 2.06195e+07 3.07234e+07 1.98967e+07 1.88633e+07 1.84155e+07 1.80331e+07 1.54256e+07 1.52925e+07 1.51555e+07 1.34271e+07
threshold=508.50000000000006 1223.5000000000002 0 1 1740.5000000000002 386.10416666666669 2 3 143.50000000000003 4 1.6425000000000003 2228.5000000000005 5 6 7 8 0.88150000000000006 9 2.5000000000000004 2739.5000000000005 10 11 540.85416666666686 12 414.64583333333343 13 14 15 0.7875000000000002 16
decision_type=2 2 1 1 2 2 1 1 2 1 2 2 1 1 1 1 2 1 2 2 1 1 2 1 2 1 1 1 2 1
left_child=2 3 8 13 6 10 26 14 18 11 27 -6 28 23 15 -4 -17 -8 -1 -11 21 -14 -22 -2 -10 -9 29 -5 -7 -3
right_child=1 4 7 5 9 12 17 25 24 19 -12 -13 20 -15 -16 16 -18 -19 -20 -21 22 -23 -24 -25 -26 -27 -28 -29 -30 -31
leaf_value=-17.223911229569143 16.463742788874864 34.367120884472214 -18.951835474506819 13.654327932415939 61.719228357126909 66.50944735209147 48.205309194584736 -11.371361454141303 3.1698692367033745 45.685229363382533 24.564936369298575 96.551555456631434 24.047349862982919 -5.2513829672298975 -15.124621707521763 -6.1616200316704983 14.213328415796022 34.775317876177461 -2.3321570744231024 78.734105889080794 20.593287024537872 -6.8807739013187117 29.268563297280409 1.4051188930518679 14.775417074612879 -0.051337047091853695 8.1940105089841815 6.7318155148294911 34.644323458434577 22.179950904297772
leaf_weight=1270 1312 1364 2420 7036 1186 168 1882 2407 3645 2771 2358 414 668 4804 79117 3421 856 6364 3924 203 9659 607 3640 2265 2188 3379 603 5978 1338 3563
leaf_count=1270 1312 1364 2420 7036 1186 168 1882 2407 3645 2771 2358 414 668 4804 79117 3421 856 6364 3924 203 9659 607 3640 2265 2188 3379 603 5978 1338 3563
internal_value=0 21.815 -12.3411 14.2886 38.1527 18.1005 32.2557 -13.9656 1.1649 55.9135 12.6491 70.2928 23.323 -0.0379507 -14.5866 -8.19521 -2.07891 37.8951 -5.97338 47.7804 21.7709 9.38418 22.9505 6.95894 7.52319 -4.78026 23.7351 10.4901 37.947 25.6166
internal_weight=0 58183 102627 39833 18350 31452 13776 91600 11027 4574 15372 1600 16080 8381 85814 6697 4277 8246 5194 2974 14574 1275 13299 3577 5833 5786 5530 13014 1506 4927
internal_count=160810 58183 102627 39833 18350 31452 13776 91600 11027 4574 15372 1600 16080 8381 85814 6697 4277 8246 5194 2974 14574 1275 13299 3577 5833 5786 5530 13014 1506 4927
cat_boundaries=0 1 2 3 4 5 6 7 8 9 10 11 12 13 14 15 16 17
cat_threshold=896 1966080 985088 1 29184 32 131072 64 6158 32 64 25472 6158 1835008 198656 58624 6158
is_linear=0
shrinkage=0.1


Tree=11
num_leaves=31
num_cat=18
split_feature=4 4 4 0 0 0 5 4 4 4 2 2 0 4 3 0 3 10 0 2 3 6 5 0 0 10 0 3 0 10
split_gain=3.52765e+09 4.11425e+08 4.11081e+08 1.55664e+08 1.0916e+08 8.89386e+07 7.37932e+07 6.0194e+07 4.16597e+07 3.53042e+07 3.40435e+07 3.39518e+07 3.27587e+07 3.2213e+07 2.61997e+07 3.08912e+07 2.32858e+07 2.25833e+07 2.10643e+07 2.00468e+07 1.9704e+07 1.93659e+07 1.88594e+07 1.52432e+07 1.47554e+07 1.39228e+07 1.33665e+07 1.32598e+07 1.29268e+07 1.26954e+07
threshold=720.50000000000011 314.50000000000006 1576.5000000000002 0 1 2 554.64583333333337 2146.5000000000005 1075.5000000000002 43.500000000000007 3 4 5 979.50000000000011 6 7 8 1.6265000000000003 9 10 11 12 396.39583333333343 13 14 1.6425000000000003 15 16 17 1.6265000000000003
decision_type=2 2 2 1 1 1 2 2 2 2 1 1 1 2 1 1 1 2 1 1 1 1 2 1 1 2 1 1 1 2
left_child=1 5 3 8 22 9 13 12 20 25 14 -6 -4 -5 -8 -16 21 -13 -9 -12 23 -10 -3 -2 -23 -1 -14 28 -27 -11
right_child=2 4 7 6 11 -7 10 18 16 29 19 17 26 -15 15 -17 -18 -19 -20 -21 -22 24 -24 -25 -26 27 -28 -29 -30 -31
leaf_value=-11.974764597436385 -8.9802018941487454 -2.5297645222987235 55.887919384833211 15.418958505158711 25.430094314347294 -13.57369242464142 39.133153563737871 39.888049742197012 -22.47897730327788 -5.7463733318078853 46.680623279982626 2.3635338390414993 23.885900195983023 23.494283654028926 -23.493683055085796 20.260505744079595 10.529190974377595 10.580199610750739 70.945028343304543 31.38139224000939 -1.9309440589324927 32.423754656970047 -12.783875615788794 13.027584376402068 12.192808892542283 0.04319079614017475 39.222560625989956 3.1190707171045227 -15.881923665029181 5.4090903474166723
leaf_weight=5098 363 4131 1198 8486 1033 79251 258 403 84 1461 1136 6383 831 11821 270 371 3420 7028 1092 5724 3177 1300 3170 2181 555 897 3565 1554 1188 3381
leaf_count=5098 363 4131 1198 8486 1033 79251 258 403 84 1461 1136 6383 831 11821 270 371 3420 7028 1092 5724 3177 1300 3170 2181 555 897 3565 1554 1188 3381
internal_value=0 -9.39241 23.3318 19.3192 2.98884 -12.2927 23.281 45.4897 9.25436 -4.80269 31.5847 8.02322 40.726 20.1197 12.7929 1.75272 15.5982 6.66449 63.3145 33.9792 3.32807 24.3591 -6.97242 9.86446 26.6114 -8.60209 36.3842 -3.8772 -9.06318 2.0431
internal_weight=0 114575 46235 39146 21745 92830 28066 7089 11080 13579 7759 14444 5594 20307 899 641 5359 13411 1495 6860 5721 1939 7301 2544 1855 8737 4396 3639 2085 4842
internal_count=160810 114575 46235 39146 21745 92830 28066 7089 11080 13579 7759 14444 5594 20307 899 641 5359 13411 1495 6860 5721 1939 7301 2544 1855 8737 4396 3639 2085 4842
cat_boundaries=0 1 2 3 4 5 6 7 8 9 10 11 12 13 14 15 16 17 18
cat_threshold=919552 1968128 448 64 32 12800 6150 1024 6158 458752 32 6158 1 524288 133120 393216 6158 128
is_linear=0
shrinkage=0.1


Tree=12
num_leaves=31
num_cat=14
split_feature=4 4 4 0 0 0 4 4 4 0 2 4 13 10 0 13 5 3 5 6 0 3 5 0 4 3 4 2 4 0
split_gain=2.85908e+09 3.34928e+08 3.34616e+08 1.27079e+08 1.04405e+08 5.97611e+07 5.3832e+07 5.25273e+07 4.52206e+07 3.0211e+07 2.94131e+07 2.3337e+07 2.05906e+07 1.92962e+07 1.89318e+07 1.79346e+07 1.66385e+07 1.62785e+07 1.57414e+07 1.53676e+07 1.37917e+07 1.34713e+07 1.34456e+07 1.22925e+07 1.12957e+07 1.09421e+07 1.09131e+07 1.04694e+07 1.00207e+07 9.9036e+06
threshold=720.50000000000011 248.50000000000003 1545.5000000000002 0 1 2 2146.5000000000005 1201.5000000000002 1057.5000000000002 3 4 1.5000000000000002 0.88150000000000006 1.6265000000000003 5 0.7875000000000002 550.52083333333337 6 372.06250000000006 7 8 9 574.06250000000011 10 2739.5000000000005 11 911.50000000000011 12 118.50000000000001 13
decision_type=2 2 2 1 1 1 2 2 2 1 1 2 2 2 1 2 2 1 2 1 1 1 2 1 2 1 2 1 2 1
left_child=1 5 3 8 18 11 9 15 16 -4 -6 -1 28 -12 -8 27 21 19 25 -10 -11 -2 -9 -19 -16 -3 -17 -5 -13 -21
right_child=2 4 6 7 10 -7 14 22 17 20 13 12 -14 -15 24 26 -18 23 -20 29 -22 -23 -24 -25 -26 -27 -28 -29 -30 -31
leaf_value=-13.673456485069529 11.718122837851066 3.1643111176693899 53.463060331132681 52.999667069718647 22.771970057857299 -12.274389061056088 16.384974542298973 25.183266341615258 -15.959113507043748 21.005223125508568 1.8624531569465903 -6.5303313139779533 7.7278027082941723 9.2059141729164651 56.336025042771418 13.721926747715811 -6.6328997282863575 -3.6461652445990604 -11.164039420002336 26.340972259761653 35.304406864053824 2.0785029894287144 33.989015373027087 13.343921802208602 78.96322094146096 -7.0245882261250987 19.462771405911525 24.074583466961567 1.5338113112816492 10.839889611478966
leaf_weight=2450 2579 1874 890 138 1086 77813 134 4072 105 938 6754 6805 1570 7610 1084 5574 1194 473 4232 2035 4390 3329 3020 4399 277 2389 8157 2870 1992 577
leaf_count=2450 2579 1874 890 138 1086 77813 134 4072 105 938 6754 6805 1570 7610 1084 5574 1194 473 4232 2035 4390 3329 3020 4399 277 2389 8157 2870 1992 577
internal_value=0 -8.45318 21.0073 17.2006 2.06546 -11.2323 40.0194 21.7112 9.86229 35.923 6.95951 -4.89209 -2.82154 5.74899 57.0572 18.6644 4.13386 15.2361 -6.83558 21.4722 32.8311 6.30981 28.933 11.6903 60.4968 -2.55464 17.1323 25.6578 -4.70428 23.0591
internal_weight=0 114575 46235 38522 23945 90630 7713 23831 14691 6218 15450 12817 10367 14364 1495 16739 7102 7589 8495 2717 5328 5908 7092 4872 1361 4263 13731 3008 8797 2612
internal_count=160810 114575 46235 38522 23945 90630 7713 23831 14691 6218 15450 12817 10367 14364 1495 16739 7102 7589 8495 2717 5328 5908 7092 4872 1361 4263 13731 3008 8797 2612
cat_boundaries=0 1 2 3 4 5 6 7 8 9 10 11 12 13 14
cat_threshold=985088 1968192 448 8704 32 393216 6158 1 393216 6158 262144 6158 32 198656
is_linear=0
shrinkage=0.1


Tree=13
num_leaves=31
num_cat=16
split_feature=4 4 0 0 4 5 0 2 4 0 10 4 0 3 2 4 5 0 6 5 0 5 2 0 5 0 2 4 3 5
split_gain=2.32513e+09 4.05296e+08 1.30732e+08 1.10963e+08 9.1239e+07 6.11231e+07 3.87644e+07 3.04056e+07 2.75819e+07 2.70268e+07 2.60518e+07 2.27069e+07 2.03991e+07 2.13033e+07 2.58636e+07 1.93894e+07 1.6477e+07 1.47303e+07 1.49693e+07 1.34548e+07 1.29336e+07 1.29283e+07 1.23891e+07 2.55805e+07 1.20875e+07 1.17671e+07 1.17061e+07 1.09127e+07 1.04337e+07 1.04044e+07
threshold=487.50000000000006 1274.5000000000002 0 1 1826.5000000000002 414.64583333333343 2 3 3.5000000000000004 4 1.6425000000000003 891.50000000000011 5 6 7 2228.5000000000005 404.27083333333343 8 9 597.14583333333337 10 440.60416666666669 11 12 640.89583333333337 13 14 819.50000000000011 15 588.72916666666686
decision_type=2 2 1 1 2 2 1 1 2 1 2 2 1 1 1 2 2 1 1 2 1 2 1 1 2 1 1 2 1 2
left_child=3 2 11 8 6 10 -3 19 -1 15 25 -2 13 -5 -15 -6 -10 -8 -19 -7 -11 -16 23 -9 -20 27 -18 -4 -25 -24
right_child=1 4 5 12 9 7 17 22 16 20 -12 -13 -14 14 21 -17 26 18 24 -21 -22 -23 29 28 -26 -27 -28 -29 -30 -31
leaf_value=-12.815546939192926 -4.0454921625453792 34.256858668472937 8.0746716363315425 -12.173302795948606 47.388527385402874 22.796925414977398 13.810465489628317 19.062996220735592 -0.97944672992562232 17.861546019032179 18.188178903801724 6.203916347099776 -10.863602730361597 -12.134375583196245 -2.6595524094962659 73.660002563310712 16.651269478152916 -6.2194738938941718 21.918772016536863 37.960578129783514 39.687888936305079 8.1925132193897383 15.109990938362788 2.8614940518034628 31.31287806022959 4.915666923325241 4.0511276800252816 15.980281619225261 -22.343801455655033 23.675617982052241
leaf_weight=1364 5453 3494 5650 3821 874 3760 1989 733 5648 381 2945 3581 80081 2081 3089 414 1025 161 4730 693 1975 1703 8602 383 1928 7105 2644 2527 278 1698
leaf_count=1364 5453 3494 5650 3821 874 3760 1989 733 5648 381 2945 3581 80081 2081 3089 414 1025 161 4730 693 1975 1703 8602 383 1928 7105 2644 2527 278 1698
internal_value=0 15.7381 10.7297 -9.1801 29.372 13.5411 25.2551 18.0253 0.465198 43.2703 9.57608 0.0172662 -10.3139 -6.19137 -2.8529 55.4028 2.40999 21.6209 23.8755 25.1004 36.2487 1.1946 15.2965 6.30581 24.6391 7.91644 7.62763 10.505 -7.91423 16.506
internal_weight=0 59354 43408 101456 15946 34374 12302 16147 10681 3644 18227 9034 90775 10694 6873 1288 9317 8808 6819 4453 2356 4792 11694 1394 6658 15282 3669 8177 661 10300
internal_count=160810 59354 43408 101456 15946 34374 12302 16147 10681 3644 18227 9034 90775 10694 6873 1288 9317 8808 6819 4453 2356 4792 11694 1394 6658 15282 3669 8177 661 10300
cat_boundaries=0 1 2 3 4 5 6 7 8 9 10 11 12 13 14 15 16
cat_threshold=1966080 896 25344 49 29184 13376 6158 64 917504 1 393216 64 25472 58624 48 6414
is_linear=0
shrinkage=0.1


Tree=14
num_leaves=31
num_cat=16
split_feature=4 4 4 0 0 0 5 0 3 0 6 4 4 2 10 4 4 10 4 2 11 3 0 0 3 10 11 6 3 0
split_gain=1.88641e+09 2.45312e+08 2.17223e+08 8.54162e+07 6.34097e+07 4.77434e+07 4.4829e+07 3.05604e+07 2.70829e+07 2.37458e+07 2.36362e+07 2.20459e+07 2.18134e+07 2.16028e+07 2.12147e+07 1.63888e+07 1.56151e+07 1.42906e+07 1.24359e+07 1.20193e+07 9.98788e+06 1.16628e+07 9.80018e+06 9.63991e+06 1.0054e+07 9.41931e+06 9.22716e+06 9.06882e+06 2.22037e+07 2.32524e+07
threshold=747.50000000000011 333.50000000000006 1650.5000000000002 0 1 2 558.85416666666686 3 4 5 6 47.500000000000007 2228.5000000000005 7 1.6265000000000003 1129.5000000000002 1052.5000000000002 1.6335000000000002 2739.5000000000005 8 1.8245000000000002 9 10 11 12 1.6265000000000003 1.8050000000000004 13 14 15
decision_type=2 2 2 1 1 1 2 1 1 1 1 2 2 1 2 2 2 2 2 1 2 1 1 1 1 2 2 1 1 1
left_child=1 5 3 8 -3 11 16 12 9 10 -2 20 -4 -8 -6 -10 -5 -12 23 -16 -1 -22 -18 -9 -25 -13 -19 28 -15 -30
right_child=2 4 7 6 14 -7 13 18 15 -11 17 25 -14 27 19 -17 22 26 -20 -21 21 -23 -24 24 -26 -27 -28 -29 29 -31
leaf_value=-9.4194753380316225 -19.754415204557215 -6.2340342175761343 40.587976056684965 12.433855461131669 2.12203932998642 -9.904061722880888 29.100401984472935 -0.99026112953821821 -1.5468442393563269 3.7829148128274697 5.4379027123861414 -4.8151450487182137 66.294002028018383 33.145571404629528 23.475944544135416 8.4174940376650156 21.685050561685387 41.464333097943033 53.976190547520311 8.2561111517962313 4.819507161407631 -6.7229067570169763 15.088859370307649 36.822219225990743 24.826798997952814 4.6640014980320554 22.195887782568558 21.09813058407363 -24.156102038163407 15.092861276285516
leaf_weight=5087 148 5907 1629 10156 8017 79692 4159 116 3438 1642 465 1503 414 261 553 3175 4294 287 203 8058 1347 2465 5424 1306 2160 3465 1854 2985 250 350
leaf_count=5087 148 5907 1629 10156 8017 79692 4159 116 3438 1642 465 1503 414 261 553 3175 4294 287 203 8058 1347 2465 5424 1306 2160 3465 1854 2985 250 350
internal_value=0 -6.70589 17.4675 14.7693 2.66043 -8.96189 17.7144 35.4715 7.28862 13.3694 19.0508 -3.53768 45.5741 24.0391 5.82039 3.2323 15.1758 21.3277 29.8194 9.27038 -6.51938 -2.6493 18.0413 28.5336 29.4396 1.79622 24.7788 18.4422 9.44866 -1.38878
internal_weight=0 116094 44716 38888 22535 93559 27879 5828 11009 4396 2754 13867 2043 8005 16628 6613 19874 2606 3785 8611 8899 3812 9718 3582 3466 4968 2141 3846 861 600
internal_count=160810 116094 44716 38888 22535 93559 27879 5828 11009 4396 2754 13867 2043 8005 16628 6613 19874 2606 3785 8611 8899 3812 9718 3582 3466 4968 2141 3846 861 600
cat_boundaries=0 1 2 3 4 5 6 7 8 9 10 11 12 13 14 15 16
cat_threshold=919552 1966080 448 29184 6158 133120 1 52 32 1008 25856 262144 6158 1 4110 1024
is_linear=0
shrinkage=0.1


Tree=15
num_leaves=31
num_cat=17
split_feature=4 4 0 0 4 10 0 2 5 4 0 0 6 5 0 10 13 0 0 3 13 0 6 0 13 2 13 12 2 3
split_gain=1.53411e+09 2.77173e+08 9.87884e+07 6.96841e+07 5.74233e+07 4.9594e+07 3.40712e+07 2.76579e+07 2.06829e+07 1.86306e+07 1.79546e+07 1.3021e+07 1.22911e+07 1.20761e+07 1.2015e+07 1.18777e+07 1.15388e+07 9.80349e+06 9.16858e+06 1.41118e+07 1.13411e+07 9.39178e+06 9.02843e+06 8.46304e+06 8.20307e+06 7.40066e+06 7.37706e+06 7.35849e+06 7.04471e+06 6.99808e+06
threshold=474.50000000000006 1307.5000000000002 0 1 1980.5000000000002 1.6395000000000002 2 3 345.35416666666669 3.5000000000000004 4 5 6 820.64583333333337 7 1.6395000000000002 0.7875000000000002 8 9 10 0.88150000000000006 11 12 13 0.88150000000000006 14 0.7875000000000002 1.7265000000000004 15 16
decision_type=2 2 1 1 2 2 1 1 2 2 1 1 1 2 1 2 2 1 1 1 2 1 1 1 2 1 2 2 1 1
left_child=3 2 -2 9 6 8 24 26 23 -1 -6 29 18 -12 27 -11 17 -9 19 -5 -21 -22 -13 -4 -3 -17 -7 -10 -19 -8
right_child=1 4 5 12 10 7 11 16 14 15 13 22 -14 -15 -16 25 -18 28 -20 20 21 -23 -24 -25 -26 -27 -28 -29 -30 -31
leaf_value=-10.692564310022846 -3.8340842133243278 39.112189470483855 1.4349653543474306 -10.591567617492387 25.665055978634754 45.495070355279104 19.844465666412479 1.6769087482492129 4.1042891710696088 -1.4157470117280027 38.880534245137426 -1.4655448990258559 -3.4314941418179856 57.064964402616546 17.938934974758542 13.444051446746636 11.463503484657593 4.2268565522795694 -9.1452358511183416 -5.6476295928574096 10.785930032246934 -3.9600721009660678 21.752770885163248 6.8689276318834729 25.513518666769915 3.4291170491991139 25.147356545815651 13.734027785433618 19.153942631357054 7.1919394252541951
leaf_weight=1364 5437 1252 6069 4840 829 224 709 410 2008 5016 1007 171 4674 573 1904 969 16957 364 72194 6843 856 856 8125 5452 687 3101 871 1312 4508 1228
leaf_count=1364 5437 1252 6069 4840 829 224 709 410 2008 5016 1007 171 4674 573 1904 969 16957 364 72194 6843 856 856 8125 5452 687 3101 871 1312 4508 1228
internal_value=0 12.6595 8.81572 -7.52954 24.6583 10.5301 21.8665 13.5126 6.38022 0.204939 38.7646 19.4926 -8.42407 45.1893 11.5995 1.84111 12.7291 16.8161 -8.6977 -6.27412 -3.82201 3.4528 21.2486 4.01365 34.1181 5.85497 29.0446 7.88602 18.0496 11.9013
internal_weight=0 60097 45516 100713 14581 40079 12172 23334 16745 10450 2409 10233 90263 1580 5224 9086 22239 5282 85589 13395 8555 1712 8296 11521 1939 4070 1095 3320 4872 1937
internal_count=160810 60097 45516 100713 14581 40079 12172 23334 16745 10450 2409 10233 90263 1580 5224 9086 22239 5282 85589 13395 8555 1712 8296 11521 1939 4070 1095 3320 4872 1937
cat_boundaries=0 1 2 3 4 5 6 7 8 9 10 11 12 13 14 15 16 17
cat_threshold=1835008 896 8960 32 460800 393216 1 232960 131072 96 6158 64 1 203264 48 64 4110
is_linear=0
shrinkage=0.1


Tree=16
num_leaves=31
num_cat=17
split_feature=4 4 4 0 0 0 2 0 0 3 4 13 0 4 6 5 13 6 3 4 2 4 10 0 11 3 0 13 6 0
split_gain=1.24769e+09 1.71914e+08 1.43185e+08 5.91614e+07 4.32026e+07 3.61361e+07 2.6804e+07 2.19618e+07 2.12042e+07 1.85801e+07 1.84563e+07 1.83323e+07 1.80372e+07 1.78953e+07 1.68005e+07 1.57699e+07 1.54232e+07 1.4365e+07 1.351e+07 1.08268e+07 8.9541e+06 8.89662e+06 8.03938e+06 7.84742e+06 7.75527e+06 8.55309e+06 7.85577e+06 7.74324e+06 7.162e+06 1.02423e+07
threshold=766.50000000000011 376.50000000000006 1650.5000000000002 0 1 2 3 4 5 6 2492.5000000000005 0.7875000000000002 7 52.500000000000007 8 458.85416666666669 0.77050000000000007 9 10 1334.5000000000002 11 2088.5000000000005 1.6265000000000003 12 1.8245000000000002 13 14 0.7875000000000002 15 16
decision_type=2 2 2 1 1 1 1 1 1 1 2 2 1 2 1 2 2 1 1 2 1 2 2 1 2 1 1 2 1 1
left_child=1 5 3 8 -3 13 15 21 9 14 23 -8 17 20 -2 -5 -16 -6 -13 -11 24 -4 -15 -9 -1 26 -26 -17 29 -14
right_child=2 4 7 6 12 -7 11 10 -10 19 -12 18 28 22 16 27 -18 -19 -20 -21 -22 -23 -24 -25 25 -27 -28 -29 -30 -31
leaf_value=-5.5668516050710553 -15.529360109025783 -6.3060861322409369 39.603399138291401 14.995051064071331 19.492933020013446 -8.0073640091568254 18.941414141724977 -2.3213222653635088 -0.43134180243070031 3.799262098804606 43.714677102402817 17.240165703265763 5.3933776506214564 -3.9644281886490234 33.933668319773282 43.197175487023188 13.805066669860828 6.9810514498270351 10.275897325887975 12.164238200471253 -7.7936838379943216 64.54627614445711 4.4618134956099134 25.046412958415015 9.0502471939703462 13.670776797797075 -8.7696151070598169 26.604567515998539 3.3835133520916374 -17.020639078273813
leaf_weight=1936 176 4296 569 1221 1175 80991 5401 114 2930 5423 556 3853 386 1610 429 339 3379 4189 10801 2165 5552 191 3816 4398 403 560 608 1651 11275 417
leaf_count=1936 176 4296 569 1221 1175 80991 5401 114 2930 5423 556 3853 386 1610 429 339 3379 4189 10801 2165 5552 191 3816 4398 403 560 608 1651 11275 417
internal_value=0 -5.35743 14.4577 12.2065 2.66864 -7.1848 15.3321 29.0468 7.1763 9.10125 26.4715 13.9544 4.87995 -2.57826 14.6399 23.8674 16.0727 9.70373 12.1258 6.17781 -5.3003 45.2762 1.96158 24.4053 -1.32697 3.88954 -1.64728 29.4311 2.73139 -6.39108
internal_weight=0 117214 43596 37768 21738 95476 23266 5828 14502 11572 5068 20055 17442 14485 3984 3211 3808 5364 14654 7588 9059 760 5426 4512 3507 1571 1011 1990 12078 803
internal_count=160810 117214 43596 37768 21738 95476 23266 5828 14502 11572 5068 20055 17442 14485 3984 3211 3808 5364 14654 7588 9059 760 5426 4512 3507 1571 1011 1990 12078 803
cat_boundaries=0 1 2 3 4 5 6 7 8 9 10 11 12 13 14 15 16 17
cat_threshold=985088 1835008 448 32 8704 198656 6158 8576 1 1 4480 50 262144 7182 128 1 53760
is_linear=0
shrinkage=0.1


Tree=17
num_leaves=31
num_cat=20
split_feature=4 4 0 4 0 5 0 0 4 2 2 2 4 0 6 3 0 3 2 0 5 0 5 10 0 2 0 3 0 5
split_gain=1.01131e+09 1.92786e+08 5.92221e+07 5.32181e+07 4.18545e+07 2.60222e+07 2.22335e+07 1.92402e+07 1.68833e+07 1.55027e+07 1.47946e+07 1.30521e+07 9.79637e+06 9.54239e+06 9.36508e+06 9.47358e+06 7.93232e+06 8.90714e+06 9.21543e+06 9.3759e+06 9.02935e+06 7.84885e+06 7.52364e+06 7.49852e+06 8.12369e+06 6.73469e+06 1.6665e+07 7.25008e+06 1.00458e+07 6.46866e+06
threshold=461.50000000000006 1187.5000000000002 0 1693.5000000000002 1 448.77083333333343 2 3 2492.5000000000005 4 5 6 4.5000000000000009 7 8 9 10 11 12 13 445.93750000000006 14 718.43750000000011 1.6265000000000003 15 16 17 18 19 591.18750000000011
decision_type=2 2 1 2 1 2 1 1 2 1 1 1 2 1 1 1 1 1 1 1 2 1 2 2 1 1 1 1 1 2
left_child=4 2 -2 6 11 9 -3 -5 13 23 -7 -1 -13 -9 15 -8 17 -6 -19 -20 -21 22 -16 24 -4 -12 -27 28 -28 -23
right_child=1 3 5 7 16 10 14 8 -10 -11 25 12 -14 -15 21 -17 -18 18 19 20 -22 29 -24 -25 -26 26 27 -29 -30 -31
leaf_value=6.5114588452726965 -3.5727502929572648 23.435500254058379 -0.0078028724352311217 16.850958102576222 -7.9699337239513497 17.853803306418211 17.758763632151936 40.28147701551044 49.900127574009595 3.002150478847073 10.660084812947311 -10.010140455329086 -0.47483597672710448 25.498529405828169 11.220721366147387 -19.526599556280452 -7.3201974468198587 -8.3028130222529573 -5.3131885144163089 -1.8750588983317575 7.3268280024445751 13.112991683792178 -3.1379853693866417 10.111196270001747 8.8372041690690804 14.479643075891786 -10.010125644761464 -14.133206792952956 22.638166906001302 18.539806100342727
leaf_weight=2303 5363 2686 1905 1483 6119 2763 103 620 414 11075 8188 1288 6591 2679 1827 164 72706 2666 3670 2947 1671 6350 456 7566 2287 721 205 477 159 3358
leaf_count=2303 5363 2686 1905 1483 6119 2763 103 620 414 11075 8188 1288 6591 2679 1827 164 72706 2666 3670 2947 1671 6350 456 7566 2287 721 205 477 159 3358
internal_value=0 10.1775 6.21836 18.18 -6.17399 7.70278 15.1489 26.8976 30.782 5.69633 11.3702 -0.0943584 -2.03102 28.4762 13.3031 -5.20932 -6.86272 -4.91139 -3.19715 -1.54678 1.45145 13.7264 8.31633 8.22446 4.83877 9.50479 3.41948 -6.12127 4.47506 14.9747
internal_weight=0 60849 40709 20140 99961 35346 14944 5196 3713 22833 12513 10182 7879 3299 12258 267 89779 17073 10954 8288 4618 11991 2283 11758 4192 9750 1562 841 364 9708
internal_count=160810 60849 40709 20140 99961 35346 14944 5196 3713 22833 12513 10182 7879 3299 12258 267 89779 17073 10954 8288 4618 11991 2283 11758 4192 9750 1562 841 364 9708
cat_boundaries=0 1 2 3 4 5 6 7 8 9 10 11 12 13 14 15 16 17 18 19 20
cat_threshold=1835008 896 8960 458752 49 48 48 8704 1 6144 13408 6158 64 32 917504 199680 14 9088 6158 202752
is_linear=0
shrinkage=0.1


Tree=18
num_leaves=31
num_cat=20
split_feature=4 4 4 0 0 2 0 2 3 3 4 6 0 3 3 0 13 0 13 0 0 0 3 10 6 4 10 0 11 0
split_gain=8.25478e+08 1.1922e+08 9.25636e+07 4.11024e+07 3.95783e+07 1.86319e+07 1.79903e+07 1.58669e+07 1.55529e+07 1.32178e+07 1.31838e+07 1.26679e+07 1.25141e+07 1.1048e+07 1.10408e+07 1.06658e+07 1.06546e+07 1.02577e+07 9.80761e+06 9.45148e+06 9.06742e+06 9.05992e+06 8.68122e+06 7.85548e+06 7.71018e+06 7.70259e+06 7.42186e+06 9.33494e+06 7.17969e+06 1.02858e+07
threshold=778.50000000000011 213.50000000000003 1613.5000000000002 0 1 2 3 4 5 6 2228.5000000000005 7 8 9 10 11 0.88150000000000006 12 0.7875000000000002 13 14 15 16 1.6335000000000002 17 2739.5000000000005 1.6335000000000002 18 1.8245000000000002 19
decision_type=2 2 2 1 1 1 1 1 1 1 2 1 1 1 1 1 2 1 2 1 1 1 1 2 1 2 2 1 2 1
left_child=1 12 4 14 8 15 10 -5 11 -7 -4 -2 16 21 20 22 -1 23 -11 -10 24 -8 -6 -13 -3 -23 -26 -28 -9 -30
right_child=2 3 6 7 5 9 13 28 19 18 -12 17 -14 -15 -16 -17 -18 -19 -20 -21 -22 25 -24 -25 26 -27 27 -29 29 -31
leaf_value=-4.3731746603405011 -12.668486593196453 -17.138821989979064 26.74791857002235 14.541653652687144 23.918879990455316 16.010947585347097 47.217396942522157 2.0237224877958608 4.5015015659049373 13.973257669658464 46.487137425348955 3.1432338677019609 -6.5758506194275688 14.529006527215126 -6.2598632660957936 23.404755989689768 3.8577459738649895 6.673395032375824 8.2607256295444955 -4.7166622727282146 -4.3816731803684341 20.244330816112395 1.2741607540335314 18.31304715378516 2.826845184707631 45.131550417242266 33.835911218131464 6.4678591901869389 -7.5891367530708385 8.0509538199172841
leaf_weight=10655 236 140 1852 1360 253 4747 179 11972 7301 4210 414 410 77021 2528 6433 2255 1845 2686 10504 1305 1862 1348 492 2039 1201 137 195 360 459 4411
leaf_count=10655 236 140 1852 1360 253 4747 179 11972 7301 4210 414 410 77021 2528 6433 2255 1845 2686 10504 1305 1862 1348 492 2039 1201 137 195 360 459 4411
internal_value=0 -4.30864 11.8915 1.33745 9.93586 12.5363 22.9257 4.18318 5.74382 11.3894 30.2209 9.96669 -6.09938 18.8651 -3.74568 19.9143 -3.15577 11.0264 9.88849 3.09982 0.563318 25.3264 9.1792 15.7092 5.41714 22.3896 7.2463 16.8099 3.33859 6.57782
internal_weight=0 117914 42896 28393 36438 22461 6458 18202 13977 19461 2266 5371 89521 4192 10191 3000 12500 5135 14714 8606 3758 1664 745 2449 1896 1485 1756 555 16842 4870
internal_count=160810 117914 42896 28393 36438 22461 6458 18202 13977 19461 2266 5371 89521 4192 10191 3000 12500 5135 14714 8606 3758 1664 745 2449 1896 1485 1756 555 16842 4870
cat_boundaries=0 1 2 3 4 5 6 7 8 9 10 11 12 13 14 15 16 17 18 19 20
cat_threshold=1968192 985088 32 29184 32 6158 4480 1 448 6158 2062 33792 133120 198656 395264 1024 6158 1 2048 99328
is_linear=0
shrinkage=0.1


Tree=19
num_leaves=31
num_cat=18
split_feature=4 4 4 0 0 0 4 2 0 3 2 2 0 4 0 0 3 0 6 10 4 13 4 0 2 3 10 4 0 4
split_gain=6.69545e+08 1.00225e+08 7.53635e+07 3.66222e+07 2.86942e+07 2.10229e+07 1.56279e+07 1.35379e+07 1.22686e+07 1.04142e+07 1.66819e+07 1.45827e+07 9.49579e+06 9.33903e+06 9.1661e+06 9.09791e+06 8.97334e+06 9.25573e+06 9.06252e+06 9.20102e+06 7.68701e+06 7.52723e+06 7.21898e+06 7.051e+06 6.80486e+06 6.70211e+06 6.36633e+06 6.29372e+06 6.21564e+06 6.11613e+06
threshold=792.50000000000011 181.50000000000003 1427.5000000000002 0 1 2 2032.5000000000002 3 4 5 6 7 8 2088.5000000000005 9 10 11 12 13 1.6335000000000002 1016.5000000000001 0.88150000000000006 24.500000000000004 14 15 16 1.6395000000000002 2739.5000000000005 17 1046.5000000000002
decision_type=2 2 2 1 1 1 2 1 1 1 1 1 1 2 1 1 1 1 1 2 2 2 2 1 1 1 2 2 1 2
left_child=1 14 4 16 8 13 23 -5 24 11 28 -10 -8 -4 21 -13 17 18 -3 -20 -6 -1 -23 -7 -2 27 -9 -14 -11 -12
right_child=2 3 5 7 20 6 12 26 9 10 29 15 25 -15 -16 -17 -18 -19 19 -21 -22 22 -24 -25 -26 -27 -28 -29 -30 -31
leaf_value=-4.471415719408113 28.215948724608644 -17.031286285592497 26.322064825683096 12.903891006768669 2.2691191492028469 -1.2704899812696984 2.8104787597245577 1.7038321301640758 29.613259629087697 2.8511056719804713 6.7062922748921423 16.863207827785082 30.46172591634782 49.96777966684072 -6.0632085923726358 6.0346991101485647 -5.777549179339843 -2.8844692973600097 4.2162455200072992 23.608509174811431 6.9543454351957621 -3.0368213451149835 6.6847969694347729 14.774202422331777 13.92945351773546 20.836577042616057 5.7733800111774896 53.917428919364674 -20.852333175366926 11.557621145405955
leaf_weight=15674 616 139 1331 1494 5598 292 199 11964 576 202 4354 1843 542 191 69572 1402 6595 3207 824 348 9352 1903 1276 6924 907 992 5664 145 238 6446
leaf_count=15674 616 139 1331 1494 5598 292 199 11964 576 202 4354 1843 542 191 69572 1402 6595 3207 824 348 9352 1903 1276 6924 907 992 5664 145 238 6446
internal_value=0 -3.83322 10.839 1.13693 8.38557 18.1267 16.2406 3.78907 11.2505 10.3679 8.81179 14.9104 24.3844 29.0982 -5.53265 12.2177 -3.4269 0.0095541 7.05723 9.97436 5.1965 -3.56965 0.865282 14.1437 19.8542 26.7653 3.0097 34.9043 -10.1488 9.59293
internal_weight=0 118660 42150 30235 31534 10616 9094 19122 16584 15061 11240 3821 1878 1522 88425 3245 11113 4518 1311 1172 14950 18853 3179 7216 1523 1679 17628 687 440 10800
internal_count=160810 118660 42150 30235 31534 10616 9094 19122 16584 15061 11240 3821 1878 1522 88425 3245 11113 4518 1311 1172 14950 18853 3179 7216 1523 1679 17628 687 440 10800
cat_boundaries=0 1 2 3 4 5 6 7 8 9 10 11 12 13 14 15 16 17 18
cat_threshold=1968192 59264 8960 32 256 6150 64 96 393216 480 25088 6158 133120 1 262144 97 6154 512
is_linear=0
shrinkage=0.1


Tree=20
num_leaves=31
num_cat=15
split_feature=4 4 0 4 0 3 0 5 0 2 0 5 2 5 6 10 0 13 3 6 3 0 13 10 2 11 5 5 10 4
split_gain=5.44018e+08 1.1239e+08 3.64462e+07 3.05086e+07 2.13385e+07 1.96337e+07 1.38804e+07 1.34385e+07 1.25081e+07 1.22154e+07 1.21082e+07 1.20218e+07 9.33189e+06 9.57332e+06 8.08164e+06 8.47307e+06 8.07391e+06 7.12405e+06 6.45321e+06 6.3356e+06 7.19049e+06 5.8789e+06 5.79252e+06 5.74356e+06 5.71876e+06 5.62042e+06 5.36526e+06 4.92194e+06 4.47229e+06 4.40776e+06
threshold=442.50000000000006 1160.5000000000002 0 1672.5000000000002 1 2 3 376.18750000000006 4 5 6 782.89583333333337 7 362.93750000000006 8 1.6335000000000002 9 0.7875000000000002 10 11 12 13 0.82350000000000012 1.6395000000000002 14 1.8245000000000002 878.35416666666686 637.47916666666686 1.7820000000000003 4.5000000000000009
decision_type=2 2 1 2 1 1 1 2 1 1 1 2 1 2 1 2 1 2 1 1 1 1 2 2 1 2 2 2 2 2
left_child=4 2 5 10 12 6 14 17 25 27 18 -10 28 -14 -2 -16 23 -4 -3 20 -12 -20 -13 -17 -19 -5 -21 -9 -1 -6
right_child=1 3 7 8 29 -7 -8 9 11 -11 19 22 13 -15 15 16 -18 24 21 26 -22 -23 -24 -25 -26 -27 -28 -29 -30 -31
leaf_value=-8.3297906157037627 -14.482779305852103 23.314316154559229 15.749088491262363 18.734098886886652 -5.4981852693388742 -3.7559697540891301 -5.5902917336004077 11.083632179756417 19.32479360806262 5.7879961768536807 -23.018364100891446 37.2116238869894 -1.5565933053415639 5.8636042332224454 2.0244159724591011 36.118549247719777 7.3952728216700425 5.002699996810513 29.644795355938449 10.221142491059062 7.4730650000971526 11.072241018045542 21.823748327496816 15.597523061900436 0.5789967129778586 6.7104380352213333 -10.043882001326843 22.444561585864111 11.021356734495896 -3.967398915817796
leaf_weight=1469 167 1046 506 685 63529 7037 1099 5638 2857 7651 116 690 3929 3119 1482 174 1619 9693 192 12738 193 1679 379 631 4200 899 132 409 130 26722
leaf_count=1469 167 1046 506 685 63529 7037 1099 5638 2857 7651 116 690 3929 3119 1482 174 1619 9693 192 12738 193 1679 379 631 4200 899 132 409 130 26722
internal_value=0 7.36314 4.24369 13.1825 -4.59 -0.320225 4.35266 6.22475 19.605 8.46921 10.9839 22.652 0.158143 1.72467 7.04265 7.98099 11.6228 4.09388 16.8463 9.66622 -4.47664 13.1256 31.7561 19.7873 3.66939 11.8353 10.0133 11.8325 -6.71453 -5.04438
internal_weight=0 61912 40306 21606 98898 12209 5172 28097 5510 13698 16096 3926 8647 7048 4073 3906 2424 14399 2917 13179 309 1871 1069 805 13893 1584 12870 6047 1599 90251
internal_count=160810 61912 40306 21606 98898 12209 5172 28097 5510 13698 16096 3926 8647 7048 4073 3906 2424 14399 2917 13179 309 1871 1069 805 13893 1584 12870 6047 1599 90251
cat_boundaries=0 1 2 3 4 5 6 7 8 9 10 11 12 13 14 15
cat_threshold=1968128 384 6158 395264 458752 53 8960 64 1 2048 6414 1 1776 256 53
is_linear=0
shrinkage=0.1


Tree=21
num_leaves=31
num_cat=18
split_feature=4 4 4 0 0 0 5 3 0 4 0 6 0 2 13 6 2 2 5 5 10 0 0 11 4 13 2 2 3 0
split_gain=4.42804e+08 7.16168e+07 4.76631e+07 1.93255e+07 1.89115e+07 1.71188e+07 1.4815e+07 1.46259e+07 1.25702e+07 1.12682e+07 1.1014e+07 1.00624e+07 8.88782e+06 8.87954e+06 8.80041e+06 8.52151e+06 6.81558e+06 6.41827e+06 7.87188e+06 6.38405e+06 6.11688e+06 2.01106e+07 5.98062e+06 5.94328e+06 5.70821e+06 5.17392e+06 5.15775e+06 4.9568e+06 4.76353e+06 9.00928e+06
threshold=819.50000000000011 384.50000000000006 1405.5000000000002 0 1 2 478.39583333333343 3 4 2739.5000000000005 5 6 7 8 0.88150000000000006 9 10 11 539.02083333333337 952.18750000000011 1.6335000000000002 12 13 1.8245000000000002 2088.5000000000005 0.77050000000000007 14 15 16 17
decision_type=2 2 2 1 1 1 2 1 1 2 1 1 1 1 2 1 1 1 2 2 2 1 1 2 2 2 1 1 1 1
left_child=1 8 4 11 7 14 20 15 16 12 26 27 19 -14 24 -2 -1 18 -12 -7 -5 28 -17 -18 -4 -24 -6 -3 -22 -30
right_child=2 3 5 6 10 9 -8 -9 -10 -11 17 -13 13 -15 -16 22 23 -19 -20 -21 21 -23 25 -25 -26 -27 -28 -29 29 -31
leaf_value=-6.3598340865200775 -13.992580819129945 18.512620690253907 26.458452456585213 -1.0197335327655608 25.013988864725288 7.7423062961195761 -7.7436468465025845 -0.6411848180837576 -4.6142721821767028 32.504537245150196 8.0554811569282148 3.6033461990188713 16.652285784913346 9.6409289102875491 13.503087250391642 -6.8728958332671057 -1.268389855975377 5.5836364310731597 14.414669287677951 -12.089794411294449 25.177206100701682 -0.48510260022176016 22.549388817598906 5.121630436598104 47.66886801784986 8.8750654777522513 11.842924172256133 6.8103380343745004 24.324396017056245 -0.54986643665670332
leaf_weight=1553 168 696 969 6470 540 1436 2534 4908 87968 285 9769 10154 4484 3231 522 215 4076 7629 2431 183 383 2596 309 2264 146 2647 824 831 250 339
leaf_count=1553 168 696 969 6470 540 1436 2534 4908 87968 285 9769 10154 4484 3231 522 215 4076 7629 2431 183 383 2596 309 2264 146 2647 824 831 250 339
internal_value=0 -3.04328 9.02622 1.81126 6.91011 14.5609 -0.9106 2.83512 -4.27149 12.9038 8.4905 4.73747 12.3192 13.7322 24.072 7.93159 -0.444769 7.88293 9.31499 5.46686 0.813432 4.13759 9.11815 1.01188 29.2358 10.2697 17.2014 12.31 16.3209 10.2378
internal_weight=0 120114 40696 24253 29440 11256 12572 8247 95861 9619 21193 11681 9334 7715 1637 3339 7893 19829 12200 1619 10038 3568 3171 6340 1115 2956 1364 1527 972 589
internal_count=160810 120114 40696 24253 29440 11256 12572 8247 95861 9619 21193 11681 9334 7715 1637 3339 7893 19829 12200 1619 10038 3568 3171 6340 1115 2956 1364 1527 972 589
cat_boundaries=0 1 2 3 4 5 6 7 8 9 10 11 12 13 14 15 16 17 18
cat_threshold=45952 919552 8960 6158 384 256 1 393216 48 1 64 53 3072 524288 97 54 1776 2048
is_linear=0
shrinkage=0.1


Tree=22
num_leaves=31
num_cat=19
split_feature=4 4 4 0 0 2 0 3 4 0 10 3 0 0 2 3 3 0 6 6 2 11 0 3 10 5 12 0 13 4
split_gain=3.58899e+08 5.4295e+07 4.18408e+07 2.20444e+07 1.97842e+07 1.02785e+07 9.43909e+06 8.81479e+06 7.98252e+06 7.8638e+06 7.71759e+06 7.70193e+06 7.69761e+06 7.55762e+06 6.74436e+06 5.93251e+06 5.5879e+06 5.70799e+06 6.02009e+06 5.55726e+06 5.44139e+06 6.2888e+06 5.00406e+06 4.81122e+06 4.678e+06 4.64521e+06 4.62161e+06 4.54797e+06 6.39323e+06 4.96464e+06
threshold=792.50000000000011 136.50000000000003 1650.5000000000002 0 1 2 3 4 2492.5000000000005 5 1.6425000000000003 6 7 8 9 10 11 12 13 14 15 1.8245000000000002 16 17 1.6335000000000002 576.47916666666686 1.7040000000000004 18 0.88150000000000006 74.500000000000014
decision_type=2 2 2 1 1 1 1 1 2 1 2 1 1 1 1 1 1 1 1 1 1 2 1 1 2 2 2 1 2 2
left_child=1 27 4 16 7 -5 8 13 -4 -6 -11 12 -8 23 -9 -7 17 18 -3 -12 -17 -22 -14 -2 -20 -16 -24 28 -1 -30
right_child=2 3 6 5 9 15 11 14 -10 10 19 -13 22 -15 25 20 -18 -19 24 -21 21 -23 26 -25 -26 -27 -28 -29 29 -31
leaf_value=-3.5592479957993635 23.447857806725164 -13.983379718916758 19.432993915924484 10.326638567717316 -0.69986336619260103 12.55083537050656 38.615409799597479 3.5551337054317913 40.755327631763578 2.0874710778496524 -9.9674948066162585 8.8572416903338294 -5.7484204762277358 7.5599849910456216 7.7858169017189347 -3.57435067487221 -4.4241047601060126 -2.1178942478135734 3.851069441550746 7.2220329520130235 1.1712069976628077 5.6962296149455014 26.52146349215856 12.744803541241984 17.678472902000635 15.091652032214853 13.418789325792696 -4.4798831336417635 0.20825362606613723 14.681566636957402
leaf_weight=14904 494 140 1849 1634 2730 515 166 3755 194 5263 192 2236 103 3257 5896 1721 7223 3563 824 9202 11990 4129 385 4512 348 1021 895 68499 2912 258
leaf_count=14904 494 140 1849 1634 2730 515 166 3755 194 5263 192 2236 103 3257 5896 1721 7223 3563 824 9202 11990 4129 385 4512 348 1021 895 68499 2912 258
internal_value=0 -2.80484 7.93732 0.708774 6.67527 2.74721 15.8028 8.91248 21.3532 4.23131 5.14964 12.7169 18.1958 11.3802 6.99296 2.06722 -2.65932 -0.0408433 5.57316 6.8707 1.75772 2.32888 15.4853 13.8456 7.95682 8.85142 17.2253 -4.10711 -2.69038 1.38621
internal_weight=0 118660 42150 32087 36322 19989 5828 18935 2043 17387 14657 3785 1549 8263 10672 18355 12098 4875 1312 9394 17840 16119 1383 5006 1172 6917 1280 86573 18074 3170
internal_count=160810 118660 42150 32087 36322 19989 5828 18935 2043 17387 14657 3785 1549 8263 10672 18355 12098 4875 1312 9394 17840 16119 1383 5006 1172 6917 1280 86573 18074 3170
cat_boundaries=0 1 2 3 4 5 6 7 8 9 10 11 12 13 14 15 16 17 18 19
cat_threshold=1968128 59264 32 29184 6534 786432 6158 1024 25344 74 4096 6158 133120 1 1 64 262144 4096 480
is_linear=0
shrinkage=0.1


Tree=23
num_leaves=31
num_cat=21
split_feature=4 4 4 0 0 6 0 2 0 6 0 5 3 2 6 3 0 0 4 0 10 0 0 0 2 13 0 13 3 4
split_gain=2.92457e+08 5.74971e+07 2.80458e+07 1.7288e+07 1.4747e+07 1.09521e+07 8.69525e+06 8.91115e+06 8.121e+06 7.87392e+06 7.60969e+06 7.38835e+06 7.29815e+06 1.51585e+07 1.2295e+07 6.16065e+06 1.64356e+07 1.0154e+07 6.06931e+06 5.96524e+06 5.47708e+06 5.99043e+06 5.31313e+06 5.27946e+06 5.06034e+06 4.73619e+06 4.53996e+06 7.24244e+06 4.68205e+06 4.44598e+06
threshold=904.50000000000011 384.50000000000006 1672.5000000000002 0 1 2 3 4 5 6 7 548.56250000000011 8 9 10 11 12 13 1.5000000000000002 14 1.6425000000000003 15 16 17 18 0.82350000000000012 19 0.77050000000000007 20 2739.5000000000005
decision_type=2 2 2 1 1 1 1 1 1 1 1 2 1 1 1 1 1 1 2 1 2 1 1 1 1 2 1 2 1 2
left_child=1 6 4 9 20 -5 7 11 -4 -3 -6 -1 13 -12 23 16 22 -17 -9 -15 24 -22 -10 -14 -2 -13 28 -28 -16 -18
right_child=2 3 8 5 10 -7 -8 18 15 -11 12 25 14 19 26 17 29 -19 -20 -21 21 -23 -24 -25 -26 -27 27 -29 -30 -31
leaf_value=-0.091466399553951028 4.7927598620723124 13.565183549156636 27.053024476351307 -5.6085387407978322 17.454662289584242 1.1307071872787025 -3.8713625491770678 -8.2395724005594229 13.484606217455752 4.5215279095759451 25.796785756381311 3.1709725275767497 3.3682246188232394 1.454935338669622 9.3504966521709516 35.115675531843173 25.938423657262121 8.896292927733759 -1.8455408099404176 11.695018240160763 0.038555443186026356 6.6681387868417197 -2.3970811080238592 -20.783021497160064 -2.1036466018384199 15.323137789629465 17.16318135006949 7.8790291443014588 2.4810686117722494 48.691605386537375
leaf_weight=4424 2163 1167 478 2758 972 19190 81273 1886 848 5500 666 735 155 778 1579 149 749 2907 6974 2255 1615 9037 282 211 2078 569 988 5618 2709 97
leaf_count=4424 2163 1167 478 2758 972 19190 81273 1886 848 5500 666 735 155 778 1579 149 749 2907 6974 2255 1615 9037 282 211 2078 569 988 5618 2709 97
internal_value=0 -2.29372 7.90365 1.64001 6.729 0.28372 -3.46796 -1.217 14.4749 6.0954 8.84531 1.85516 8.27461 12.1527 6.99097 13.2001 17.6338 10.285 -3.203 9.08173 4.45625 5.66929 9.53495 -11.0308 1.42001 8.47357 7.60286 9.25357 5.02652 28.2137
internal_weight=0 124476 36334 28615 30824 21948 95861 14588 5510 6667 15931 5728 14959 3699 11260 5032 1976 3056 8860 3033 14893 10652 1130 366 4241 1304 10894 6606 4288 846
internal_count=160810 124476 36334 28615 30824 21948 95861 14588 5510 6667 15931 5728 14959 3699 11260 5032 1976 3056 8860 3033 14893 10652 1130 366 4241 1304 10894 6606 4288 846
cat_boundaries=0 1 2 3 4 5 6 7 8 9 10 11 12 13 14 15 16 17 18 19 20 21
cat_threshold=8576 989184 1 448 50 8192 1 256 6150 96 1 6158 464896 4096 32768 786432 198656 512 48 16896 392
is_linear=0
shrinkage=0.1


Tree=24
num_leaves=31
num_cat=18
split_feature=4 4 0 4 3 0 0 2 0 0 13 0 5 0 13 10 2 2 2 13 13 3 0 0 3 6 10 0 13 13
split_gain=2.37416e+08 5.33889e+07 1.73041e+07 1.47992e+07 1.23505e+07 9.49594e+06 8.41418e+06 7.77753e+06 7.77187e+06 7.66116e+06 6.13215e+06 9.29031e+06 6.0688e+06 5.65718e+06 1.34564e+07 7.4256e+06 5.45122e+06 5.33132e+06 4.95705e+06 4.8909e+06 4.86373e+06 4.81475e+06 8.53658e+06 7.23961e+06 4.71398e+06 4.64064e+06 4.98659e+06 4.6981e+06 4.36092e+06 4.15631e+06
threshold=442.50000000000006 1160.5000000000002 0 1980.5000000000002 1 2 3 4 5 6 0.77050000000000007 7 499.35416666666669 8 0.7875000000000002 1.6335000000000002 9 10 11 0.85350000000000004 0.85350000000000004 12 13 14 15 16 1.6335000000000002 17 0.97450000000000003 0.82350000000000012
decision_type=2 2 1 2 1 1 1 1 1 1 2 1 2 1 2 2 1 1 1 2 2 1 1 1 1 1 2 1 2 2
left_child=5 2 4 6 8 17 19 20 25 -5 11 -8 18 14 -12 -16 -15 -1 -9 -3 -4 22 -11 -23 -14 -2 -27 -28 -17 -24
right_child=1 3 7 9 -6 -7 10 12 -10 21 13 -13 24 16 15 28 -18 -19 -20 -21 -22 23 29 -25 -26 26 27 -29 -30 -31
leaf_value=4.4862468225518262 -11.020305497417908 17.84917077079762 12.69742565215692 -1.0456511206416241 -3.1528765605393616 -3.3330997405924991 16.334305880262139 0.65311142684101409 -4.161912722847986 16.58667370314053 -8.7823953225741196 5.4217391977047784 19.059114425795542 11.606125594631834 -4.8161370772322387 9.9230278639829592 6.2061143738094202 -1.2771801213890497 3.94981978332578 7.5194575446284517 3.6407662006302015 9.0424757730061387 49.59539710401792 26.919475393347611 5.6329075561637323 1.4325355800292261 15.022954792482722 5.5725020079711705 -0.16495733079421274 25.548675026239891
leaf_weight=2117 167 1290 1618 239 7037 90251 1664 7479 1099 635 765 1526 268 2568 539 2256 7349 6530 11742 711 936 931 171 309 6054 1482 805 1619 529 124
leaf_count=2117 167 1290 1618 239 7037 90251 1664 7479 1099 635 765 1526 268 2568 539 2256 7349 6530 11742 711 936 931 171 309 6054 1482 805 1619 529 124
internal_value=0 4.86643 2.71642 8.87727 -0.428017 -3.02998 7.95016 4.08147 3.27834 16.2653 7.22117 11.1823 3.55206 6.32415 3.16776 5.92755 7.61473 0.137402 2.66945 14.1083 9.34173 18.0934 23.7737 13.677 6.24112 5.29119 6.00213 8.79592 8.00685 38.1929
internal_weight=0 61912 40306 21606 12209 98898 19197 28097 5172 2409 17196 3190 25543 14006 4089 3324 9917 8647 19221 2001 2554 2170 930 1240 6322 4073 3906 2424 2785 295
internal_count=160810 61912 40306 21606 12209 98898 19197 28097 5172 2409 17196 3190 25543 14006 4089 3324 9917 8647 19221 2001 2554 2170 930 1240 6322 4073 3906 2424 2785 295
cat_boundaries=0 1 2 3 4 5 6 7 8 9 10 11 12 13 14 15 16 17 18
cat_threshold=1968128 6158 384 8448 32 395264 393216 230912 458752 32 48 74 6158 104448 115712 4096 1 2048
is_linear=0
shrinkage=0.1


Tree=25
num_leaves=31
num_cat=16
split_feature=4 4 4 0 0 2 0 3 2 6 0 0 10 13 4 0 0 5 10 5 0 12 11 0 13 2 2 5 0 13
split_gain=1.94295e+08 3.83608e+07 1.89015e+07 1.68432e+07 1.03353e+07 7.69687e+06 6.21114e+06 5.88421e+06 1.15922e+07 9.90781e+06 5.48913e+06 4.77952e+06 4.74108e+06 5.68138e+06 4.46096e+06 4.37976e+06 4.30058e+06 4.20616e+06 4.61376e+06 4.33304e+06 4.7251e+06 4.0851e+06 4.03006e+06 3.72732e+06 4.3476e+06 3.67702e+06 3.63872e+06 3.63689e+06 3.39796e+06 5.12524e+06
threshold=904.50000000000011 74.500000000000014 1672.5000000000002 0 1 2 3 4 5 6 7 8 1.6395000000000002 0.97450000000000003 2739.5000000000005 9 10 820.64583333333337 1.6425000000000003 360.77083333333343 11 1.7040000000000004 1.9225000000000001 12 0.82350000000000012 13 14 509.52083333333343 15 0.77050000000000007
decision_type=2 2 2 1 1 1 1 1 1 1 1 1 2 2 2 1 1 2 2 2 1 2 2 1 2 1 1 2 1 2
left_child=1 -1 4 27 6 15 26 8 -8 16 22 -10 -7 25 21 -5 -9 18 19 20 -6 -12 -4 24 -23 -14 -2 -3 -11 -30
right_child=2 3 10 5 17 12 7 9 11 28 14 -13 13 -15 -16 -17 -18 -19 -20 -21 -22 23 -24 -25 -26 -27 -28 -29 29 -31
leaf_value=-3.1165212788107231 21.910798109600943 -1.0345716352086356 29.153932386524275 -3.7951078871789492 -10.184465406397099 0.46903501209623388 22.137568400456356 2.4710135107555171 0.71917778685225686 3.9105257471027906 14.700115510701261 9.867718029276821 1.5437424986017598 -2.1540119873728591 22.963636648992178 9.1356939476918324 -19.386706345760985 -6.5493502339250158 5.0027238386131536 2.8273263936713762 4.058584139466908 -8.0409596261620297 9.6960157200135288 10.188176780309494 7.1858856259043264 6.0444066987855614 9.0135978061857056 -4.4133997925466533 14.215059743228892 6.4049515184512691
leaf_weight=82664 440 8709 318 299 599 16289 666 155 778 4288 1365 2255 2901 1596 285 2046 211 399 10269 3253 373 269 160 2494 619 4949 532 5023 988 5618
leaf_count=82664 440 8709 318 299 599 16289 666 155 778 4288 1365 2255 2901 1596 285 2046 211 399 10269 3253 373 269 160 2494 619 4949 532 5023 988 5618
internal_value=0 -1.86801 6.44365 0.600355 5.47932 2.00358 7.25083 6.73661 10.2136 5.58635 11.8383 7.53109 1.50205 3.28501 10.7907 7.47783 -10.5922 3.57708 3.85831 1.07678 -4.78179 10.0826 22.1769 8.21888 2.54459 4.39083 15.0155 -2.26885 6.13502 7.56159
internal_weight=0 124476 36334 41812 30824 28080 15931 14959 3699 11260 5510 3033 25735 9446 5032 2345 366 14893 14494 4225 972 4747 478 3382 888 7850 972 13732 10894 6606
internal_count=160810 124476 36334 41812 30824 28080 15931 14959 3699 11260 5510 3033 25735 9446 5032 2345 366 14893 14494 4225 972 4747 478 3382 888 7850 972 13732 10894 6606
cat_boundaries=0 1 2 3 4 5 6 7 8 9 10 11 12 13 14 15 16
cat_threshold=3934208 59264 32 256 6150 96 1 8192 32768 230400 512 6144 458752 72 97 16896
is_linear=0
shrinkage=0.1


Tree=26
num_leaves=31
num_cat=17
split_feature=4 4 0 0 3 0 4 4 13 6 0 5 3 0 5 6 10 2 5 4 3 0 6 0 3 0 3 5 10 4
split_gain=1.57714e+08 3.72822e+07 1.35593e+07 9.74131e+06 1.34223e+07 7.41535e+06 7.39454e+06 6.77882e+06 6.56823e+06 6.20083e+06 6.12531e+06 8.36943e+06 5.70137e+06 5.38053e+06 6.12485e+06 5.2157e+06 4.58307e+06 4.57257e+06 4.352e+06 4.208e+06 4.08617e+06 1.54103e+07 7.00342e+06 8.46924e+06 7.79819e+06 4.8439e+06 3.90203e+06 3.71515e+06 3.59941e+06 3.38759e+06
threshold=435.50000000000006 1282.5000000000002 0 1 2 3 959.50000000000011 11.500000000000002 0.85350000000000004 4 5 708.93750000000011 6 7 512.81250000000011 8 1.6335000000000002 9 952.18750000000011 2146.5000000000005 10 11 12 13 14 15 16 640.89583333333337 1.6395000000000002 747.50000000000011
decision_type=2 2 1 1 1 1 2 2 2 1 1 2 1 1 2 1 2 1 2 2 1 1 1 1 1 1 1 2 2 2
left_child=7 2 27 4 8 15 20 -1 19 26 12 28 -11 14 -9 -4 29 -16 -14 -3 21 -7 25 24 -24 -22 -5 -2 -12 -17
right_child=1 3 5 9 -6 6 -8 13 -10 10 11 -13 18 -15 17 16 -18 -19 -20 -21 22 -23 23 -25 -26 -27 -28 -29 -30 -31
leaf_value=-2.9916926512047635 -0.59188490454507459 23.706665330521449 13.215458314222449 3.0284781230347502 8.8407891758214969 -4.5419431832365449 4.1791144708136079 -0.96748118267032357 10.205845605526653 -5.291882611057539 0.60936291931696829 13.775446065271147 7.2923123281162621 -2.2806198662190957 10.038799157732452 6.4147115164699517 3.6442134319642427 1.7898182338349518 -9.8396558113531647 44.60192376630647 -21.8717069406425 7.5229005992634335 -5.9311363814802132 -1.334749634036986 5.7128221897637799 -3.3044467959660722 -23.301269496024194 -6.6018464933134018 7.3598158850023268 15.636554991566156
leaf_weight=71433 4634 691 850 116 3327 1562 14202 7539 350 686 918 2021 1463 16285 946 1253 6057 2312 165 112 216 3249 664 7659 4028 405 101 1322 5660 584
leaf_count=71433 4634 691 850 116 3327 1562 14202 7539 350 686 918 2021 1463 16285 946 1253 6057 2312 165 112 216 3249 664 7659 4028 405 101 1322 5660 584
internal_value=0 3.94764 2.53303 8.17833 12.1271 3.18429 2.47693 -2.48093 21.4521 6.5721 6.91085 8.13755 2.30721 -1.13372 0.597688 5.766 4.97117 4.22132 5.52205 26.6211 1.1189 3.60448 0.194134 0.715294 4.05589 -10.168 -10.1606 -1.92263 6.41775 9.34642
internal_weight=0 62295 46685 15610 4480 40729 31985 98515 1153 11130 10913 8599 2314 27082 10797 8744 7894 3258 1628 803 17783 4811 12972 12351 4692 621 217 5956 6578 1837
internal_count=160810 62295 46685 15610 4480 40729 31985 98515 1153 11130 10913 8599 2314 27082 10797 8744 7894 3258 1628 803 17783 4811 12972 12351 4692 621 217 5956 6578 1837
cat_boundaries=0 1 2 3 4 5 6 7 8 9 10 11 12 13 14 15 16 17
cat_threshold=1835008 25344 6158 8576 1 917504 1808 8640 1 48 6150 37888 1 37888 8 1024 4096
is_linear=0
shrinkage=0.1


Tree=27
num_leaves=31
num_cat=21
split_feature=4 4 4 0 0 0 3 2 13 0 2 3 0 0 0 13 13 0 3 6 3 0 6 3 6 2 5 2 11 10
split_gain=1.29195e+08 2.11357e+07 1.64527e+07 1.03106e+07 8.52278e+06 7.36985e+06 6.63682e+06 5.45791e+06 5.20132e+06 4.89721e+06 5.49928e+06 5.66344e+06 1.27123e+07 9.15628e+06 5.64827e+06 4.53792e+06 4.37426e+06 4.3094e+06 9.5704e+06 4.17859e+06 4.12829e+06 4.06998e+06 3.80001e+06 3.40054e+06 3.38633e+06 3.30926e+06 3.48706e+06 3.30902e+06 5.4222e+06 4.16904e+06
threshold=819.50000000000011 68.500000000000014 1334.5000000000002 0 1 2 3 4 0.88150000000000006 5 6 7 8 9 10 0.88150000000000006 0.82350000000000012 11 12 13 14 15 16 17 18 19 505.47916666666669 20 1.8245000000000002 1.7820000000000003
decision_type=2 2 2 1 1 1 1 1 2 1 1 1 1 1 1 2 2 1 1 1 1 1 1 1 1 1 2 1 2 2
left_child=1 -1 5 20 8 -2 -5 -8 23 -6 11 13 15 -11 -14 -13 -15 18 19 -7 21 22 -3 -4 -12 26 -19 29 -29 -9
right_child=2 3 4 6 9 17 7 27 -10 10 24 12 14 16 -16 -17 -18 25 -20 -21 -22 -23 -24 -25 -26 -27 -28 28 -30 -31
leaf_value=-2.5416478823502047 10.674029284303023 -9.3767013526043375 27.929033560106603 11.55286927453893 -3.6760860542191405 -10.584457769287621 6.5337650592438381 -4.3330797600223008 6.60283068515891 -3.4454268618028649 -8.4169372100805511 35.238131577897782 -1.4331447338861931 20.673688017427878 7.3822396319380275 11.172081365808845 11.398083208353327 3.9207417592281915 -1.9209081579938829 6.1562220689399583 -2.9270111970340498 -1.8778452312673899 4.2503890897346723 14.415435022547843 5.0654603082928986 2.2273392647684487 7.9244292599072796 0.2831125620419494 4.269384606917412 10.090413204953075
leaf_weight=82249 1337 222 263 657 440 157 1889 1902 674 301 194 202 1024 886 2506 128 1193 8057 4437 2964 9584 3617 2616 1090 4689 7174 2980 12454 4700 224
leaf_count=82249 1337 222 263 657 440 157 1889 1902 674 301 194 202 1024 886 2506 128 1193 8057 4437 2964 9584 3617 2616 1090 4689 7174 2980 12454 4700 224
internal_value=0 -1.6416 4.87778 0.313451 7.71744 3.45408 1.72761 1.41736 13.7123 6.64893 7.0603 9.03732 6.62532 12.9051 4.8282 25.1416 15.2775 3.07415 1.06276 5.29712 -1.61102 0.344384 3.17324 17.3552 4.52055 3.90788 4.99721 0.912946 1.3745 -2.80022
internal_weight=0 120114 40696 37865 13590 27106 21826 21169 2027 11563 11123 6240 3860 2380 3530 330 2079 25769 7558 3121 16039 6455 2838 1353 4883 18211 11037 19280 17154 2126
internal_count=160810 120114 40696 37865 13590 27106 21826 21169 2027 11563 11123 6240 3860 2380 3530 330 2079 25769 7558 3121 16039 6455 2838 1353 4883 18211 11037 19280 17154 2126
cat_boundaries=0 1 2 3 4 5 6 7 8 9 10 11 12 13 14 15 16 17 18 19 20 21
cat_threshold=4130816 8960 256 4096 32 262144 48 6158 4096 4096 132096 919552 6158 1 6158 460800 1 6158 1 53 64
is_linear=0
shrinkage=0.1


Tree=28
num_leaves=31
num_cat=17
split_feature=4 4 4 0 3 5 0 4 0 0 13 0 3 3 6 5 5 13 0 0 13 10 0 5 3 2 0 3 5 0
split_gain=1.05902e+08 2.18398e+07 1.03241e+07 9.536e+06 9.38522e+06 8.69336e+06 6.3252e+06 4.96351e+06 4.95959e+06 3.88008e+06 4.19906e+06 3.67119e+06 3.65186e+06 3.29957e+06 2.93672e+06 3.11954e+06 2.92387e+06 2.94539e+06 5.73965e+06 4.86557e+06 7.1656e+06 3.632e+06 2.92057e+06 2.96181e+06 2.89924e+06 2.75865e+06 3.92328e+06 4.11812e+06 2.72944e+06 2.71785e+06
threshold=938.50000000000011 181.50000000000003 1980.5000000000002 0 1 525.35416666666686 2 1307.5000000000002 3 4 0.97450000000000003 5 6 7 8 861.22916666666686 925.06250000000011 0.77050000000000007 9 10 0.7875000000000002 1.7820000000000003 11 900.77083333333337 12 13 14 15 708.93750000000011 16
decision_type=2 2 2 1 1 2 1 2 1 1 2 1 1 1 1 2 2 2 1 1 2 2 1 2 1 1 1 1 2 1
left_child=1 -1 6 4 24 -5 28 -8 -4 10 -6 -9 -11 29 15 -13 17 18 -16 -19 -21 -22 23 -15 -3 -20 -27 -28 -2 -10
right_child=2 3 8 5 9 -7 7 11 13 12 -12 14 -14 22 16 -17 -18 19 25 20 21 -23 -24 -25 -26 26 27 -29 -30 -31
leaf_value=-2.1945621557313917 10.890411674335303 16.394284943981216 -2.566344824122138 0.36556261601673112 5.0232523694828224 -4.6106291343059862 3.2122993027046931 9.900443261841481 4.1278117906470753 2.2153593023573097 -5.0312942423570108 -16.871533832372716 -2.4339820042190037 18.984780233221077 15.908423724243676 10.568919239346943 -9.0781306281685836 6.9597948655761961 17.56856237905366 -6.4429800125549974 2.5362500010740048 11.524706330753126 11.762600450382127 39.034434068069032 7.0003004633329597 -9.9992411312632541 16.244694732582612 1.9193196840250257 27.387888895955861 18.016780232410682
leaf_weight=88425 702 434 239 20227 4037 4248 19210 1860 631 3891 463 121 2970 428 731 63 140 4077 144 799 2366 555 842 89 1584 181 263 793 117 180
leaf_count=88425 702 434 239 20227 4037 4248 19210 1860 631 3891 463 121 2970 428 731 63 140 4077 144 799 2366 555 842 89 1584 181 263 793 117 180
internal_value=0 -1.33411 4.91529 0.675861 2.8214 -0.497926 4.44177 4.21004 11.2293 1.70066 3.97991 5.79847 0.202132 12.702 5.03827 -7.47616 5.27243 5.47518 8.78781 4.57788 1.94344 4.24409 15.7935 22.0105 9.09149 4.86824 3.26075 5.60602 13.0874 7.39235
internal_weight=0 126279 34531 37854 13379 24475 32122 31303 2409 11361 4500 12093 6861 2170 10233 184 10049 9909 2112 7797 3720 2921 1359 517 2018 1381 1237 1056 819 811
internal_count=160810 126279 34531 37854 13379 24475 32122 31303 2409 11361 4500 12093 6861 2170 10233 184 10049 9909 2112 7797 3720 2921 1359 517 2018 1381 1237 1056 819 811
cat_boundaries=0 1 2 3 4 5 6 7 8 9 10 11 12 13 14 15 16 17
cat_threshold=9088 6146 256 393216 8320 8704 1420 1392 1 99328 23552 26112 4096 32 4096 6150 115712
is_linear=0
shrinkage=0.1


Tree=29
num_leaves=31
num_cat=17
split_feature=4 4 2 0 5 0 3 5 0 0 3 5 6 13 3 4 13 0 0 13 3 0 5 0 3 11 13 2 5 0
split_gain=8.58544e+07 1.81802e+07 9.00526e+06 9.9517e+06 1.02735e+07 7.44675e+06 6.70019e+06 6.67027e+06 5.27523e+06 4.7598e+06 4.44459e+06 4.07404e+06 4.05281e+06 3.97733e+06 3.81472e+06 3.62445e+06 3.45558e+06 6.132e+06 3.44753e+06 3.64491e+06 3.31993e+06 3.76525e+06 3.16209e+06 3.10951e+06 5.39016e+06 3.96265e+06 2.83614e+06 2.82202e+06 2.78429e+06 2.73401e+06
threshold=938.50000000000011 407.50000000000006 0 1 749.39583333333337 2 3 578.77083333333337 4 5 6 520.22916666666686 7 0.82350000000000012 8 3.5000000000000004 0.77050000000000007 9 10 0.82350000000000012 11 12 684.68750000000011 13 14 1.8245000000000002 0.82350000000000012 15 749.39583333333337 16
decision_type=2 2 1 1 2 1 1 2 1 1 1 2 1 2 1 2 2 1 1 2 1 1 2 1 1 2 2 1 2 1
left_child=1 15 3 10 11 6 22 -7 13 -8 -2 -5 -11 -4 18 -1 17 -10 -6 -20 21 -18 -3 24 25 -17 27 -27 -12 -16
right_child=2 5 8 4 14 7 9 -9 16 12 28 -13 -14 -15 29 23 20 -19 19 -21 -22 -23 -24 -25 -26 26 -28 -29 -30 -31
leaf_value=-2.3060846954057879 -9.5973307911141053 7.060871281565003 9.6947458312306054 3.8105202455860212 10.921178208482655 0.43736881112969561 -2.2121934939706391 -5.9978937088980704 10.949080140053459 9.9087471797584623 4.8344049418888986 7.9936387697459157 2.2579934745711832 3.6723032054369393 18.111484716973496 0.075838670920971227 8.0996069661707537 1.5500202033109076 39.029059722630876 17.347250818850391 0.47093203419754226 1.5948747658350384 21.233514794045025 -1.7968325007097086 -1.7424544997890234 -13.695106335291786 7.1493783505811166 2.5925614187736641 -2.7703715828151481 7.458701889925047
leaf_weight=63251 350 1983 1831 3765 220 17693 2100 1772 1155 811 1500 6101 4734 2734 392 3548 1400 1747 184 134 9099 2458 171 20449 7002 116 1976 673 709 752
leaf_count=63251 350 1983 1831 3765 220 17693 2100 1772 1155 811 1500 6101 4734 2734 392 3548 1400 1747 184 134 9099 2458 171 20449 7002 116 1976 673 709 752
internal_value=0 -1.20052 4.42636 6.37035 7.62224 0.984156 3.23073 -0.14839 3.07901 1.8364 0.713264 6.3973 3.3709 6.07457 14.8526 -1.85951 2.21346 5.33393 21.9302 28.9813 1.51627 3.97016 8.14817 -1.02293 0.166851 2.28394 5.12561 0.0572067 2.38279 11.2343
internal_weight=0 126279 34531 14107 11548 29264 9799 19465 20424 7645 2559 9866 5545 4565 1682 97015 15859 2902 538 318 12957 3858 2154 33764 13315 6313 2765 789 2209 1144
internal_count=160810 126279 34531 14107 11548 29264 9799 19465 20424 7645 2559 9866 5545 4565 1682 97015 15859 2902 538 318 12957 3858 2154 33764 13315 6313 2765 789 2209 1144
cat_boundaries=0 1 2 3 4 5 6 7 8 9 10 11 12 13 14 15 16 17
cat_threshold=48 917504 9088 6150 9472 512 1536 1 4110 229376 71680 4480 20992 8656 5088 64 15104
is_linear=0
shrinkage=0.1


Tree=30
num_leaves=31
num_cat=17
split_feature=4 4 4 0 3 0 0 13 2 0 3 6 13 10 0 11 0 10 11 6 13 0 2 0 13 4 0 10 3 0
split_gain=6.98154e+07 1.14833e+07 8.85843e+06 6.0758e+06 5.50135e+06 5.27871e+06 4.5203e+06 3.92162e+06 3.85609e+06 3.56554e+06 8.39369e+06 4.10506e+06 3.45677e+06 3.11585e+06 3.07034e+06 3.58028e+06 3.99014e+06 6.51508e+06 3.75381e+06 3.29794e+06 3.05404e+06 3.86939e+06 2.98461e+06 2.95229e+06 3.21867e+06 2.85259e+06 4.03522e+06 4.76446e+06 3.22783e+06 2.82213e+06
threshold=819.50000000000011 62.500000000000007 1427.5000000000002 0 1 2 3 0.88150000000000006 4 5 6 7 0.82350000000000012 1.6395000000000002 8 1.8130000000000004 9 1.7820000000000003 1.8775000000000002 10 0.88150000000000006 11 12 13 0.77050000000000007 2492.5000000000005 14 1.7820000000000003 15 16
decision_type=2 2 2 1 1 1 1 2 1 1 1 1 2 2 1 2 1 2 2 1 2 1 1 1 2 2 1 2 1 1
left_child=1 -1 5 -3 -5 22 7 -4 13 10 11 -7 -11 -6 -8 29 18 20 19 -17 21 -18 -2 -13 -25 26 28 -28 -20 -16
right_child=2 3 6 4 8 9 14 -9 -10 12 -12 23 -14 -15 15 16 17 -19 25 -21 -22 -23 -24 24 -26 -27 27 -29 -30 -31
leaf_value=-1.8742524199351207 14.457110611351997 -1.0719492026296373 14.674908223984094 10.752603028401849 1.4098444074845164 -10.649007825491697 -4.4434398510941753 3.7870603246576011 -0.0057924990371586178 4.9838432765386322 -1.8983475938601899 -5.8481171617507934 2.214134500608782 5.6613096527676428 11.469618449011071 -27.311760198442563 2.4565416019448225 12.164070747398641 11.141601430957339 2.7154691369189838 3.8777389029892206 -7.7985727647343568 4.7902159445014574 15.590976882128524 5.0242990003831345 24.170237952368012 13.664289301762023 -0.28909315851868178 -3.5743034270652458 4.5099816491457743
leaf_weight=81844 552 18590 1036 606 4905 169 314 486 11511 6761 5044 215 13511 2658 1514 38 646 484 214 977 954 839 824 323 2681 116 1238 305 437 1018
leaf_count=81844 552 18590 1036 606 4905 169 314 486 11511 6761 5044 215 13511 2658 1514 38 646 484 214 977 954 839 824 323 2681 116 1238 305 437 1018
internal_value=0 -1.20564 3.58683 0.22424 1.44845 2.71034 6.07031 11.1251 1.14736 2.41719 0.6866 4.52929 3.13632 2.90018 5.20636 5.55613 4.27695 1.56061 6.64022 1.5913 -0.53716 -3.3734 8.74454 5.34023 6.14002 8.88743 8.07941 10.8359 1.35856 8.73458
internal_weight=0 120114 40696 38270 19680 30080 10616 1522 19074 28704 8432 3388 20272 7563 9094 8780 6248 2923 3325 1015 2439 1485 1376 3219 3004 2310 2194 1543 651 2532
internal_count=160810 120114 40696 38270 19680 30080 10616 1522 19074 28704 8432 3388 20272 7563 9094 8780 6248 2923 3325 1015 2439 1485 1376 3219 3004 2310 2194 1543 651 2532
cat_boundaries=0 1 2 3 4 5 6 7 8 9 10 11 12 13 14 15 16 17
cat_threshold=4134912 4096 256 8960 49 919552 6158 1 262144 23552 1 32768 97 524288 16384 6158 115712
is_linear=0
shrinkage=0.1


Tree=31
num_leaves=31
num_cat=16
split_feature=4 4 2 0 13 3 0 0 6 6 0 11 11 13 0 10 10 0 5 11 0 10 11 13 0 11 3 2 0 0
split_gain=5.71897e+07 1.26948e+07 6.76805e+06 1.37988e+07 1.01303e+07 9.19722e+06 5.98508e+06 5.51742e+06 4.27786e+06 4.24162e+06 4.22177e+06 6.4694e+06 7.35427e+06 5.21323e+06 4.62244e+06 3.7003e+06 3.47564e+06 3.22193e+06 2.93104e+06 2.88681e+06 2.79917e+06 8.75064e+06 8.43105e+06 4.34818e+06 2.63556e+06 4.43842e+06 4.55327e+06 3.68236e+06 4.32394e+06 3.12063e+06
threshold=959.50000000000011 407.50000000000006 0 1 0.7875000000000002 2 3 4 5 6 7 1.8245000000000002 1.8130000000000004 0.77050000000000007 8 1.6335000000000002 1.7820000000000003 9 1026.0833333333337 1.8775000000000002 10 1.7820000000000003 1.8775000000000002 0.82350000000000012 11 1.8245000000000002 12 13 14 15
decision_type=2 2 1 1 2 1 1 1 1 1 1 2 2 2 1 2 2 1 2 2 1 2 2 2 1 2 1 1 1 1
left_child=1 24 3 5 18 6 -2 8 -3 17 11 12 -4 14 -12 -10 19 -9 -5 -13 23 22 -22 -15 25 -1 29 28 -28 -27
right_child=2 7 10 4 -6 -7 -8 9 15 -11 13 16 -14 20 -16 -17 -18 -19 -20 -21 21 -23 -24 -25 -26 26 27 -29 -30 -31
leaf_value=-1.845131539841911 20.464776106661326 9.3803441136717449 -0.80986457926750299 16.621060031868009 6.9251740854105108 -3.5367614863727965 3.8088111029758567 -11.155428961753847 6.0032585227674122 0.57426551633448319 10.538626691829911 1.3098926335595036 -15.465019427031207 10.090603831736484 2.0333490631517903 0.57613290406181039 -1.8788660423997117 -2.0222852100244677 47.290258264541627 6.3219813652097727 3.4386560189078672 8.6292327842681367 -3.2086014741667146 3.1621287118082053 -1.7966919379596373 -5.2540475149707362 0.863603626839343 0.89494427354577144 10.209608140240853 0.44142498021487375
leaf_weight=11838 271 999 2158 1189 3714 1836 999 465 1839 20956 1897 2047 407 1243 988 3965 1216 2154 32 2620 4494 1651 3316 3339 75412 1365 855 3142 1199 3204
leaf_count=11838 271 999 2158 1189 3714 1836 999 465 1839 20956 1897 2047 407 1243 988 3965 1216 2154 32 2620 4494 1651 3316 3339 75412 1365 855 3142 1199 3204
internal_value=0 -0.959177 3.68875 6.21794 9.50371 0.983579 7.49507 0.824761 3.33118 0.100032 2.88372 1.05442 -3.13526 3.79548 7.66948 2.29572 2.88292 -3.69418 17.4248 4.12362 3.00231 2.01251 0.616338 5.0307 -1.51778 -0.54305 1.03489 3.05634 6.34226 -1.26787
internal_weight=0 127393 33417 8041 4935 3106 1270 30378 6803 23575 25376 8448 2565 16928 2885 5804 5883 2619 1221 4667 14043 9461 7810 4582 97015 21603 9765 5196 2054 4569
internal_count=160810 127393 33417 8041 4935 3106 1270 30378 6803 23575 25376 8448 2565 16928 2885 5804 5883 2619 1221 4667 14043 9461 7810 4582 97015 21603 9765 5196 2054 4569
cat_boundaries=0 1 2 3 4 5 6 7 8 9 10 11 12 13 14 15 16
cat_threshold=32 984064 6158 1024 8576 1 1 793088 230400 68608 9472 480 3086 50 32 64
is_linear=0
shrinkage=0.1


Tree=32
num_leaves=31
num_cat=20
split_feature=4 4 0 4 3 5 5 2 0 4 0 0 3 0 2 13 10 2 6 3 0 0 3 3 0 6 5 0 0 13
split_gain=4.6361e+07 1.11793e+07 4.79362e+06 4.26112e+06 4.10194e+06 4.19004e+06 3.89042e+06 2.95398e+06 2.90196e+06 2.77004e+06 2.66812e+06 2.61966e+06 4.32599e+06 6.43838e+06 3.94038e+06 2.89934e+06 2.57398e+06 2.52639e+06 2.67239e+06 2.40215e+06 1.46296e+07 1.12375e+07 2.02984e+07 4.83244e+06 8.47203e+06 4.82604e+06 4.28594e+06 3.46529e+06 3.4626e+06 3.40628e+06
threshold=461.50000000000006 1105.5000000000002 0 2088.5000000000005 1 708.93750000000011 640.89583333333337 2 3 1.5000000000000002 4 5 6 7 8 0.88150000000000006 1.6185000000000003 9 10 11 12 13 14 15 16 17 708.93750000000011 18 19 0.88150000000000006
decision_type=2 2 1 2 1 2 2 1 1 2 1 1 1 1 1 2 2 1 1 1 1 1 1 1 1 1 2 1 1 2
left_child=9 2 4 8 5 -2 7 -4 -3 -1 -5 12 13 -11 15 -14 -16 -6 -19 20 -10 22 29 -23 -25 -22 -26 -27 -28 -21
right_child=1 3 6 10 17 -7 -8 -9 19 11 -12 -13 14 -15 16 -17 -18 18 -20 21 25 23 -24 24 26 27 28 -29 -30 -31
leaf_value=-1.757052957317573 5.2757854733776481 12.809153073487131 2.6191775041490342 -3.381879942364745 -0.7674850239235057 22.047338066560144 -5.3995966444621208 -0.21165539499901109 15.835939671933486 -7.0503893823209012 9.7184088524244512 -1.3381249056650861 4.7321397275513259 0.31709765889188368 -3.1033254124030667 18.211509724224314 1.4548629701702833 12.072282305628889 2.2834371226823142 21.352401935602682 -14.64688239916001 2.9437504182007164 -11.268985387016393 2.2829457666262991 8.6470835932460339 -2.2089026965407395 31.596026690489328 2.4598357423048443 12.092748848142008 3.8470751532663905
leaf_weight=59015 1992 319 4797 172 2971 161 1204 15809 708 1715 1628 24605 1088 3802 1463 187 8086 288 8819 264 193 5091 1081 2361 3599 2085 143 6611 361 192
leaf_count=59015 1992 319 4797 172 2971 161 1204 15809 708 1715 1628 24605 1088 3802 1463 187 8086 288 8819 264 193 5091 1081 2361 3599 2085 143 6611 361 192
internal_value=0 2.18242 1.05787 3.81616 2.48477 6.49976 0.125623 0.44852 3.44959 -1.31857 8.50181 -0.68659 0.295079 -1.98175 1.45634 6.6569 0.755713 1.76428 2.59016 3.31089 2.10287 4.19414 -3.82598 5.26333 7.08284 0.992479 9.83259 1.34072 18.4933 13.6817
internal_weight=0 60849 36041 24808 14231 2153 21810 20606 23008 99961 1800 40946 16341 5517 10824 1275 9549 12078 9107 22689 9597 13092 1537 11555 6464 8889 4103 8696 504 456
internal_count=160810 60849 36041 24808 14231 2153 21810 20606 23008 99961 1800 40946 16341 5517 10824 1275 9549 12078 9107 22689 9597 13092 1537 11555 6464 8889 4103 8696 504 456
cat_boundaries=0 1 2 3 4 5 6 7 8 9 10 11 12 13 14 15 16 17 18 19 20
cat_threshold=10112 6146 48 256 393216 12752 2062 4160 32 72 1 1648 4096 528384 384 384 360448 1 393728 1536
is_linear=0
shrinkage=0.1


Tree=33
num_leaves=31
num_cat=20
split_feature=4 4 2 0 3 0 3 0 3 3 13 0 2 0 0 13 4 0 10 5 0 3 0 0 6 4 3 13 0 5
split_gain=3.82407e+07 7.16129e+06 5.70015e+06 5.92674e+06 5.41835e+06 7.52889e+06 4.47842e+06 4.3449e+06 7.1624e+06 4.30798e+06 4.01395e+06 4.00141e+06 4.22933e+06 3.75705e+06 3.11544e+06 2.818e+06 4.01627e+06 2.79803e+06 2.62623e+06 2.45408e+06 2.44627e+06 6.96283e+06 8.34585e+06 5.39362e+06 2.78594e+06 3.95664e+06 3.27904e+06 2.87801e+06 2.78157e+06 2.42702e+06
threshold=891.50000000000011 14.500000000000002 0 1 2 3 4 5 6 7 0.82350000000000012 8 9 10 11 0.88150000000000006 1298.5000000000002 12 1.6335000000000002 388.89583333333343 13 14 15 16 17 1373.5000000000002 18 0.77050000000000007 19 1072.2500000000002
decision_type=2 2 1 1 1 1 1 1 1 1 2 1 1 1 1 2 2 1 2 2 1 1 1 1 1 2 1 2 1 2
left_child=1 -1 3 -2 5 -5 13 8 -6 -9 29 -3 14 -4 -13 16 -10 -11 -19 -15 21 23 -23 -8 25 26 -22 28 -26 -7
right_child=2 11 6 4 7 10 20 9 15 17 -12 12 -14 19 -16 -17 -18 18 -20 -21 24 22 -24 -25 27 -27 -28 -29 -30 -31
leaf_value=-1.4693201160650966 -2.5200780746739482 -1.0415295935547477 0.91359911326869081 -6.3972831656288003 -6.2067676343273988 15.908482068295598 8.1947548219256134 7.3335146547794343 10.622138794630873 3.9829746850114769 8.0967997753721672 -8.6021536616073266 0.41397444794560362 11.827436245655592 5.2945908782313715 5.6980636645935396 25.352418739899349 -5.6834538396442076 1.355460546546172 4.9153168217529579 8.2885408060072816 9.931968242932971 -12.607405770733848 -2.8629764623625813 1.3077989966112815 -38.946662717546737 -11.070854751639898 1.041702121353137 8.2855671729737015 43.251355485355155
leaf_weight=73263 1156 19543 2367 271 258 718 784 1990 562 3897 1409 164 28121 608 2668 455 276 639 3109 3310 135 198 836 986 1119 35 215 10496 1188 34
leaf_count=73263 1156 19543 2367 271 258 718 784 1990 562 3897 1409 164 28121 608 2668 455 276 639 3109 3310 135 198 836 986 1119 35 215 10496 1188 34
internal_value=0 -0.837791 2.82432 4.34742 4.9318 9.21523 1.81144 3.99312 8.90206 3.1945 11.1936 0.0784741 0.785701 4.07187 4.4624 11.9413 15.4736 2.10893 0.154976 5.9727 0.921083 -1.75725 -8.23756 2.05343 1.49144 -6.88893 -3.68315 1.74462 4.94262 17.1447
internal_weight=0 123759 37051 14774 13618 2432 22277 11186 1551 9635 2161 50496 30953 6285 2832 1293 838 7645 3748 3918 15992 2804 1034 1770 13188 385 350 12803 2307 752
internal_count=160810 123759 37051 14774 13618 2432 22277 11186 1551 9635 2161 50496 30953 6285 2832 1293 838 7645 3748 3918 15992 2804 1034 1770 13188 385 350 12803 2307 752
cat_boundaries=0 1 2 3 4 5 6 7 8 9 10 11 12 13 14 15 16 17 18 19 20
cat_threshold=48 786432 6146 4096 4480 4352 12 12 16582691 32 952320 1024 59520 528896 1648 512 4096 1 2058 417792
is_linear=0
shrinkage=0.1


Tree=34
num_leaves=31
num_cat=21
split_feature=4 4 4 0 0 13 5 0 6 6 3 0 0 3 2 0 3 0 0 3 12 3 13 3 0 5 12 3 0 2
split_gain=3.12177e+07 5.18924e+06 4.09578e+06 3.6294e+06 3.56391e+06 2.84686e+06 2.59059e+06 2.51067e+06 2.4917e+06 2.37455e+06 3.5134e+06 7.91691e+06 3.76068e+06 2.29959e+06 2.1735e+06 2.14235e+06 2.29054e+06 5.51597e+06 3.28912e+06 6.5497e+06 3.08816e+06 3.08196e+06 3.03909e+06 2.10081e+06 2.02053e+06 1.98768e+06 1.72369e+06 1.6624e+06 3.00194e+06 1.64685e+06
threshold=727.50000000000011 1334.5000000000002 10.500000000000002 0 1 0.88150000000000006 713.97916666666686 2 3 4 5 6 7 8 9 10 11 12 13 14 1.7040000000000004 15 0.88150000000000006 16 17 820.64583333333337 1.6890000000000003 18 19 20
decision_type=2 2 2 1 1 2 2 1 1 1 1 1 1 1 1 1 1 1 1 1 2 1 2 1 1 2 2 1 1 1
left_child=2 4 -1 5 6 23 14 13 -5 10 11 -6 -12 25 -2 -10 18 21 19 -17 -20 -18 -23 -3 -19 -4 -11 -22 -29 -15
right_child=1 3 7 8 9 -7 -8 -9 15 26 12 -13 -14 29 -16 16 17 24 20 -21 27 22 -24 -25 -26 -27 -28 28 -30 -31
leaf_value=-1.3469027447944413 9.1137258102559144 18.527828309562178 5.2154924490597026 -7.8490982580893123 24.730046850399379 2.4817310057002544 16.521153459191321 -0.68092697808459146 -3.5114992454445741 -2.051057848916285 -16.806228276077583 -4.4814316658436644 -2.4118356231703668 1.6125926801985544 1.6589130118141435 15.118851395924302 0.9488983636913878 -3.6404031565061583 9.9929072130049068 -7.7647758160264875 1.8606729338158212 27.881890151955492 6.8520018721881675 8.2387040498351514 2.0327391032509197 24.754027827032683 1.6213860168194856 12.220462693175502 3.6727635049485956 -0.47383150177410532
leaf_weight=70689 624 263 509 202 127 674 200 28480 432 1340 235 283 745 8237 1061 160 155 727 1367 465 1523 173 114 1090 4268 58 27646 595 1382 6986
leaf_count=70689 624 263 509 202 127 674 200 28480 432 1340 235 283 745 8237 1061 160 155 727 1367 465 1523 173 114 1090 4268 58 27646 595 1382 6986
internal_value=0 2.21157 -0.87454 3.85067 1.52109 7.75324 5.73036 -0.120286 3.15711 1.25758 -2.7795 4.94037 -5.99845 0.890794 4.48356 3.35558 3.62692 2.16162 5.07098 -1.76073 5.95009 12.7462 18.871 10.4366 1.20141 7.08911 1.45161 4.38808 6.29384 0.655427
