tree
version=v4
num_class=1
num_tree_per_iteration=1
label_index=0
max_feature_idx=5
objective=regression
feature_names=hour day dayofweek month lag1 rolling_mean_24
feature_infos=-1:23:0:1:2:3:4:5:6:7:8:9:10:11:12:13:14:15:16:17:18:19:20:21:22 [1:31] -1:0:1:2:3:6:5:4 -1:3:1:5:7:8:10:4:6:9:2:12:11 [0:2092.5] [0:1009.1666666666666]
tree_sizes=2806 2810 2827 2804 2802 2832 2804 2785 2774 2780 2768 2799 2788 2787 2773 2775 2743 2756 2741 2766 2769 2763 2738 2778 2750 2767 2726 2779 2782 2742 2757 2752 2745 2724 2760 2756 2767 2768 2762 2762 2750 2734 2763 2697 2678 2730 2687 2708 2694 2653 2721 2679 2671 2629 2732 2599 2707 2689 2628 2680 2673 2654 2701 2695 2601 2624 2620 2742 2623 2679 2706 2587 2616 2661 2675 2602 2622 2658 2595 2598 2626 2622 2721 2690 2669 2582 2646 2626 2629 2639 2642 2646 2624 2652 2633 2658 2668 2609 2617 2639 2637 2599 2563 2625 2601 2639 2587 2664 2629 2595 2627 2624 2643 2619 2646 2655 2596 2641 2638 2634 2578 2585 2629 2631 2653 2662 2607 2599 2629 2655 2604 2602 2645 2624 2608 2658 2638 2573 2597 2637 2593 2634 2661 2694 2640 2649 2625 2592 2680 2597 2600 2595 2645 2578 2625 2659 2595 2641 2627 2607 2626 2681 2618 2618 2652 2615 2650 2620 2630 2627 2647 2648 2614 2645 2612 2578 2617 2645 2626 2608 2623 2670 2641 2601 2658 2592 2620 2625 2613 2684 2675 2617 2651 2649 2625 2658 2619 2596 2632 2580 2623 2625 2602 2615 2579 2645 2576 2665 2626 2653 2592 2646 2600 2644 2617 2595 2626 2592 2641 2616 2599 2571 2662 2614 2581 2633 2577 2673 2598 2595 2624 2643 2636 2628 2620 2614 2629 2608 2632 2609 2645 2634 2643 2642 2579 2621 2628 2655 2580 2599 2573 2650 2624 2681 2633 2620 2634 2650 2629 2618 2620 2613 2650 2604 2648 2640 2595 2656 2642 2631 2576 2671 2657 2617 2618 2632 2645 2667 2651 2672 2672 2661 2667 2638 2622 2607 2604 2630 2635 2615 2630 2592 2656 2632 2640 2651 2668 2673 2628 2642 2678 2606 2670 2632 2641 2572 2633 2632 2622 2650 2638 2605 2672 2588 2676 2663 2674 2631 2582 2618 2649 2616 2638 2616 2658 2645 2630 2658 2590 2650 2608 2612 2618 2623 2666 2602 2647 2675 2617 2634 2640 2629 2649 2643 2594 2632 2605 2646 2646 2634 2649 2680 2613 2666 2598 2656 2654 2651 2613 2620 2682 2620 2638 2653 2641 2624 2575 2664 2629 2606 2653 2635 2649 2638 2603 2643 2613 2653 2613 2657 2632 2651 2611 2630 2662 2617 2650 2676 2632 2625 2628 2640 2652 2620 2658 2658 2634 2627 2606 2649 2625 2654 2641 2627 2647 2630 2609 2660 2611 2624 2635 2675 2604 2654 2636 2637 2650 2630 2645 2644 2636 2595 2659 2628 2691 2612 2637 2652 2662 2645 2656 2613 2651 2624 2633 2633 2636 2641 2633 2648 2674 2644 2647 2644 2681 2669 2685 2607 2683 2655 2615 2653 2650 2639 2675 2627 2619 2674 2657 2624 2642 2620 2660 2665 2662 2614 2697 2645 2655 2627 2636 2677 2627 2632 2632 2631 2659 2626 2709 2658 2641 2627 2639 2648 2653 2681 2638 2610 2654 2679 2669 2646 2696 2636 2627 2623 2660 2659 2657 2607

Tree=0
num_leaves=31
num_cat=15
split_feature=4 4 0 0 4 4 4 0 0 4 0 0 0 2 5 0 4 0 0 0 4 4 2 4 4 4 0 0 4 4
split_gain=3.41135e+10 4.26694e+09 2.49165e+09 1.52215e+09 8.57983e+08 6.93219e+08 4.8927e+08 3.51667e+08 2.81326e+08 1.71154e+08 1.4678e+08 1.42474e+08 1.3964e+08 1.30029e+08 1.60865e+08 1.03984e+08 1.0075e+08 9.23856e+07 8.67003e+07 8.15142e+07 7.56279e+07 6.64858e+07 5.71903e+07 5.42349e+07 5.06049e+07 4.41597e+07 4.15555e+07 3.4627e+07 3.45586e+07 3.15433e+07
threshold=579.50000000000011 1234.5000000000002 0 1 1663.5000000000002 97.500000000000014 920.50000000000011 2 3 30.500000000000004 4 5 6 7 419.63541666666669 8 1428.5000000000002 9 10 11 1947.5000000000002 755.50000000000011 12 933.50000000000011 1086.5000000000002 33.500000000000007 13 14 879.50000000000011 62.500000000000007
decision_type=2 2 1 1 2 2 2 1 1 2 1 1 1 1 2 1 2 1 1 1 2 2 1 2 2 2 1 1 2 2
left_child=2 3 5 10 7 18 12 -3 9 26 23 -6 -5 17 -15 -11 27 -7 25 -8 -13 -14 -21 -2 -24 -1 -4 -9 -12 -17
right_child=1 4 8 6 11 13 19 16 -10 15 28 20 21 14 -16 29 -18 -19 -20 22 -22 -23 24 -25 -26 -27 -28 -29 -30 -31
leaf_value=407.09324855821961 439.82976230079885 481.26655557787524 402.46012772468481 496.32344782448786 521.22770845929347 398.63094739148886 512.2236833111449 537.39656134364532 389.03647235338138 404.65344369374162 415.57172013287612 563.19517725505852 462.08075963532724 442.85134050507583 473.15277897341127 419.3885343769781 540.95059218833273 441.81873431101138 389.73168700724233 448.79709397668546 587.97411017077161 477.06602392313386 489.25971923866467 465.13045265266624 503.25042039899063 431.90333210852378 388.89667548306079 515.55465477416124 434.45349268645862 442.16207689327098
leaf_weight=2585 1846 1928 5476 2313 706 946 4101 1351 72859 2485 2398 2553 6224 8760 2190 992 4121 1023 2552 291 2380 5647 5316 1566 5033 993 4232 4744 1627 1572
leaf_count=2585 1846 1928 5476 2313 706 946 4101 1351 72859 2485 2398 2553 6224 8760 2190 992 4121 1023 2552 291 2380 5647 5316 1566 5033 993 4232 4744 1627 1572
internal_value=431.536 496.182 398.721 476.55 536.324 431.51 486.916 521.356 391.597 404.259 436.153 568.558 473.676 444.651 448.896 419.174 528.778 421.008 403.816 499.693 574.86 469.177 494.728 451.384 496.001 414.028 396.474 520.708 423.225 433.344
internal_weight=0 54145 106665 36362 17783 19049 28925 12144 87616 14757 7437 5639 14184 12919 10950 5049 10216 1969 6130 14741 4933 11871 10640 3412 10349 3578 9708 6095 4025 2564
internal_count=160810 54145 106665 36362 17783 19049 28925 12144 87616 14757 7437 5639 14184 12919 10950 5049 10216 1969 6130 14741 4933 11871 10640 3412 10349 3578 9708 6095 4025 2564
cat_boundaries=0 1 2 3 4 5 6 7 8 9 10 11 12 13 14 15
cat_threshold=16256 917504 917504 507968 131072 393216 384 64 393216 7168 384 8960 64 64 8960
is_linear=0
shrinkage=1


Tree=1
num_leaves=31
num_cat=17
split_feature=4 4 0 0 4 4 4 0 0 0 4 0 0 0 4 4 0 2 4 0 0 4 4 4 4 2 0 0 0 0
split_gain=2.76483e+10 3.60734e+09 1.87479e+09 1.20929e+09 8.02543e+08 5.28209e+08 3.72264e+08 3.0446e+08 2.01746e+08 1.41768e+08 1.19843e+08 1.11823e+08 1.05403e+08 1.02286e+08 9.15243e+07 8.93128e+07 8.26919e+07 7.90579e+07 7.81259e+07 7.6512e+07 7.51523e+07 5.62278e+07 4.18642e+07 4.03635e+07 3.88908e+07 3.51362e+07 3.34595e+07 2.88397e+07 2.85731e+07 2.84236e+07
threshold=560.50000000000011 1193.5000000000002 0 1 1624.5000000000002 103.50000000000001 857.50000000000011 2 3 4 30.500000000000004 5 6 7 287.50000000000006 1386.5000000000002 8 9 1908.5000000000002 10 11 1039.5000000000002 670.50000000000011 2.5000000000000004 893.50000000000011 12 13 14 15 16
decision_type=2 2 1 1 2 2 2 1 1 1 2 1 1 1 2 2 1 1 2 1 1 2 2 2 2 1 1 1 1 1
left_child=2 3 5 11 7 20 13 26 10 -6 25 24 14 -5 -7 28 -8 29 -11 -12 23 -18 -15 -1 -2 -4 -3 -17 -9 -14
right_child=1 4 8 6 9 12 16 15 -10 18 19 -13 17 22 -16 27 21 -19 -20 -21 -22 -23 -24 -25 -26 -27 -28 -29 -30 -31
leaf_value=-32.205122543057158 5.681262462965428 50.49629904327189 -37.58705696949481 54.803860443962947 78.339820684474546 6.8294242685890074 69.490126056731953 90.895643613768911 -38.263284241908842 115.74518318804317 -25.084299980704699 -8.6287501497038885 -29.661767177709745 22.286710811398148 31.122502662749071 108.55643485868821 45.676521298742486 7.7445126905260286 139.72884058697946 0.53659482872136965 -37.617843394063826 60.072468357235657 35.500254757609689 -8.8706377386936115 27.460222643025737 -25.230545457568965 21.555516484498597 87.44374657877762 72.573601910075084 2.9727900754717682
leaf_weight=1023 1715 1487 4925 2150 816 2810 4695 1552 72786 2794 2282 4140 917 3803 3461 1574 5307 4554 2643 2380 2577 5551 6489 2692 1571 4783 617 3104 5232 380
leaf_count=1023 1715 1487 4925 2150 816 2810 4695 1552 72786 2794 2282 4140 917 3803 3461 1574 5307 4554 2643 2380 2577 5551 6489 2692 1571 4783 617 3104 5232 380
internal_value=0 57.3237 -29.9922 38.2086 91.4867 -0.989384 47.7169 77.8248 -36.1155 121.127 -25.2179 2.29614 11.2122 34.8412 20.2047 84.2628 58.0479 1.53709 127.17 -12.0572 -24.4982 52.9874 30.588 -15.2552 16.0447 -31.5639 42.1515 94.9665 77.0062 -20.1508
internal_weight=0 55240 105570 35421 19819 18414 27995 13566 87156 6253 14370 7426 12122 12442 6271 11462 15553 5851 5437 4662 6292 10858 10292 3715 3286 9708 2104 4678 6784 1297
internal_count=160810 55240 105570 35421 19819 18414 27995 13566 87156 6253 14370 7426 12122 12442 6271 11462 15553 5851 5437 4662 6292 10858 10292 3715 3286 9708 2104 4678 6784 1297
cat_boundaries=0 1 2 3 4 5 6 7 8 9 10 11 12 13 14 15 16 17
cat_threshold=16256 917504 917504 507968 393216 131072 384 384 9088 64 393216 384 64 131072 25344 8960 7168
is_linear=0
shrinkage=0.1


Tree=2
num_leaves=31
num_cat=14
split_feature=4 4 0 0 4 4 4 4 0 0 0 0 0 2 5 4 0 4 0 0 0 5 4 4 5 2 4 4 0 4
split_gain=2.24264e+10 2.63834e+09 1.82142e+09 9.93941e+08 4.98928e+08 4.82815e+08 3.27265e+08 2.27546e+08 2.2753e+08 1.44944e+08 1.11161e+08 9.70396e+07 9.0419e+07 8.50137e+07 1.20998e+08 7.90658e+07 6.64487e+07 6.46364e+07 6.11537e+07 5.35239e+07 4.89896e+07 4.03625e+07 3.85033e+07 3.74224e+07 3.36449e+07 3.98732e+07 2.94588e+07 2.74607e+07 2.69238e+07 2.55798e+07
threshold=612.50000000000011 1278.5000000000002 0 1 110.50000000000001 1753.5000000000002 966.50000000000011 415.50000000000006 2 3 4 5 6 7 382.60416666666669 1499.5000000000002 8 39.500000000000007 9 10 11 500.97916666666669 24.500000000000004 972.50000000000011 544.35416666666686 12 828.50000000000011 2092.2500000000005 13 502.50000000000006
decision_type=2 2 1 1 2 2 2 2 1 1 1 1 1 1 2 2 1 2 1 1 1 2 2 2 2 1 2 2 1 2
left_child=2 3 4 11 16 8 10 9 -3 17 21 23 -9 18 29 28 22 -4 -6 -8 -7 -5 -1 -2 -21 -26 -12 -22 -10 -15
right_child=1 5 7 6 13 20 19 12 15 -11 26 -13 -14 14 -16 -17 -18 -19 -20 24 27 -23 -24 -25 25 -27 -28 -29 -30 -31
leaf_value=-21.298293014513902 8.7101327808913034 44.018150364540723 -22.779132807171258 41.479092900856735 -25.953918490805066 79.502954070572699 46.588178498653321 11.62394766036814 91.895056012948615 -34.461263425154613 24.884720563634161 -5.0938724965784274 -19.511491930346001 6.072120982235627 33.64935172564909 95.189770527816677 -33.866015096385716 6.8233098883270094 9.5371971379081337 57.957779062941064 113.54127890858977 58.786970649381139 -0.99630161408282358 29.568098434419227 106.35274248843467 65.554352342935459 36.687024949163849 130.55719846586942 71.998558943266602 17.612225913965812
leaf_weight=2333 1922 1840 5851 3839 913 507 3554 1365 1216 77448 5307 3803 2908 6117 2762 3566 2611 844 1018 7630 2306 2076 1558 1557 321 2991 3516 1611 4720 2800
leaf_count=2333 1922 1840 5851 3839 913 507 3554 1365 1216 77448 5307 3803 2908 6117 2762 3566 2611 844 1018 7630 2306 2076 1558 1557 321 2991 3516 1611 4720 2800
internal_value=0 53.8088 -25.9153 39.0481 1.25443 87.9966 47.2755 -32.0921 77.0673 -33.2389 36.7984 5.94562 -9.58381 12.1415 15.3475 83.333 -21.5324 -19.0189 -7.29069 57.9601 116.016 47.4734 -13.1354 17.9932 61.5549 70.0276 29.5545 120.233 76.3505 9.69579
internal_weight=0 52282 108528 36516 20112 15766 29234 88416 11342 84143 14738 7282 4273 13610 11679 9502 6502 6695 1931 14496 4424 5915 3891 3479 10942 3312 8823 3917 5936 8917
internal_count=160810 52282 108528 36516 20112 15766 29234 88416 11342 84143 14738 7282 4273 13610 11679 9502 6502 6695 1931 14496 4424 5915 3891 3479 10942 3312 8823 3917 5936 8917
cat_boundaries=0 1 2 3 4 5 6 7 8 9 10 11 12 13 14
cat_threshold=16256 917504 917504 64 9088 131072 114688 64 384 7168 67584 393216 32 8960
is_linear=0
shrinkage=0.1


Tree=3
num_leaves=31
num_cat=15
split_feature=4 4 0 0 4 4 4 4 0 0 0 0 0 0 0 4 5 4 4 2 5 2 4 4 4 0 0 0 4 2
split_gain=1.81769e+10 2.49075e+09 1.14694e+09 7.89562e+08 5.77937e+08 2.60037e+08 2.46387e+08 2.26174e+08 2.03394e+08 1.1899e+08 1.13613e+08 9.48547e+07 7.40253e+07 6.9549e+07 6.92392e+07 6.85297e+07 6.08888e+07 5.23555e+07 4.91859e+07 4.78425e+07 4.94503e+07 3.15818e+07 2.6381e+07 2.61668e+07 2.54002e+07 2.50883e+07 2.47881e+07 2.35294e+07 2.31061e+07 2.11426e+07
threshold=539.50000000000011 1169.5000000000002 0 1 1571.5000000000002 347.50000000000006 821.50000000000011 39.500000000000007 2 3 4 5 6 7 8 1873.5000000000002 408.85416666666669 39.500000000000007 1356.5000000000002 9 448.22916666666669 10 670.50000000000011 857.50000000000011 850.50000000000011 11 12 13 2039.5000000000002 14
decision_type=2 2 1 1 2 2 2 2 1 1 1 1 1 1 1 2 2 2 2 1 2 1 2 2 2 1 1 1 2 1
left_child=2 3 7 12 8 9 13 -1 27 17 28 -7 24 -5 29 26 -9 -4 -10 -16 -21 -18 -15 -14 -2 -20 -12 -3 -6 -8
right_child=1 4 5 6 10 11 14 16 18 -11 15 -13 23 22 19 -17 21 -19 25 20 -22 -23 -24 -25 -26 -27 -28 -29 -30 -31
leaf_value=-19.739252159196891 2.8337534562819027 39.219823500119062 -20.501218956777166 42.794427621199787 54.846294915604169 -21.850742696350327 75.080428480173097 5.1009052328225177 60.985227747377088 -31.096499484606127 81.430310175953878 3.8002316399476528 -14.011319628248831 17.169076567528691 3.7570365131726891 112.48619101793037 6.5695363622043859 6.1409789064625429 63.302701427281832 36.18175758421669 50.100860058326134 28.041123410645145 27.576720805329444 2.1741962944364968 20.604637949730463 81.027288729871358 104.14591880815036 15.574815530664091 93.457201523854948 52.595304918398199
leaf_weight=3215 1538 1484 5851 2160 787 2679 606 6327 7079 79068 1924 3107 2678 4470 351 2907 995 844 1920 6011 4436 2357 5351 1593 1686 2818 1361 650 193 4364
leaf_count=3215 1538 1484 5851 2160 787 2679 606 6327 7079 79068 1924 3107 2678 4470 351 2907 995 844 1920 6011 4436 2357 5351 1593 1686 2818 1361 650 193 4364
internal_value=0 45.7711 -24.6923 29.4974 72.9241 -28.6234 37.2696 3.23833 61.0643 -30.0108 95.994 -8.10773 0.671407 26.473 45.4968 101.14 10.874 -17.117 66.2073 40.8116 42.0518 21.7708 22.8165 -7.95581 12.0896 74.1493 91.4065 32.124 61.8195 55.4822
internal_weight=0 56367 104443 35244 21123 91549 27749 12894 13951 85763 7172 5786 7495 11981 15768 6192 9679 6695 11817 10798 10447 3352 9821 4271 3224 4738 3285 2134 980 4970
internal_count=160810 56367 104443 35244 21123 91549 27749 12894 13951 85763 7172 5786 7495 11981 15768 6192 9679 6695 11817 10798 10447 3352 9821 4271 3224 4738 3285 2134 980 4970
cat_boundaries=0 1 2 3 4 5 6 7 8 9 10 11 12 13 14 15
cat_threshold=1920 917504 917504 64 393216 1835008 131072 384 9088 64 64 68608 101376 131072 32
is_linear=0
shrinkage=0.1


Tree=4
num_leaves=31
num_cat=16
split_feature=4 4 0 0 4 4 4 0 0 4 5 4 0 0 0 4 2 0 2 2 0 4 4 5 5 0 2 5 0 0
split_gain=1.47402e+10 1.77083e+09 1.16753e+09 7.09098e+08 3.28205e+08 2.81392e+08 2.54415e+08 1.43358e+08 1.31494e+08 9.25947e+07 8.60034e+07 7.40738e+07 6.74736e+07 5.88392e+07 5.04145e+07 4.68724e+07 4.30628e+07 4.1788e+07 5.10364e+07 3.39836e+07 4.15715e+07 3.13069e+07 3.02067e+07 2.81971e+07 2.7626e+07 2.72829e+07 2.71979e+07 2.59265e+07 2.57045e+07 2.51304e+07
threshold=605.50000000000011 1337.5000000000002 0 1 121.50000000000001 1020.5000000000001 1807.5000000000002 2 3 36.500000000000007 408.85416666666669 940.50000000000011 4 5 6 319.50000000000006 7 8 9 10 11 1541.5000000000002 1.5000000000000002 422.69791666666669 282.81250000000006 12 13 532.60416666666686 14 15
decision_type=2 2 1 1 2 2 2 1 1 2 2 2 1 1 1 2 1 1 1 1 1 2 2 2 2 1 1 2 1 1
left_child=2 3 4 11 14 10 8 9 25 -4 -5 28 15 -11 22 -6 -14 26 -19 20 -12 -10 -1 -17 -18 -3 -7 -20 -2 -13
right_child=1 6 7 5 12 17 -8 -9 21 13 19 29 16 -15 -16 23 24 18 27 -21 -22 -23 -24 -25 -26 -27 -28 -29 -30 -31
leaf_value=-26.063668726150041 6.0425622477193555 50.969159045460124 -22.801423081662684 25.439152967107702 6.4969738396657979 82.755329127864954 96.49219049713399 -27.907029772395216 67.934538903594088 -16.62289143077518 -11.657035224479543 23.886037494973223 -14.331499925349732 4.6520521379217241 -27.673753863384849 16.048671813649076 2.2977135962341508 2.7283683781928207 44.355507217706261 42.540600369999552 35.86063697464045 81.62742836233862 -5.5924450084135673 32.266532632494901 20.377391209047619 20.09413999629453 55.433005446678457 55.370549524335871 -9.5783227906436732 6.3264981276766248
leaf_weight=921 1777 2375 10103 10927 2753 533 3827 72953 4026 2685 275 1955 1235 2508 2650 2442 3532 272 7051 5840 539 2853 3316 1911 1111 376 3002 3066 2561 1435
leaf_count=921 1777 2375 10103 10927 2753 533 3827 72953 4026 2685 275 1955 1235 2508 2650 2442 3532 272 7051 5840 539 2853 3316 1911 1111 376 3002 3066 2561 1435
internal_value=0 43.3786 -21.126 32.6419 0.77909 39.2952 74.6809 -26.0555 66.013 -17.212 30.8971 5.46007 10.1394 -6.37104 -16.8668 16.6861 2.19295 49.9272 46.4743 39.8599 19.8607 73.5067 -10.0186 23.1684 6.60967 46.8373 59.7744 47.6466 -3.1876 16.5421
internal_weight=0 52690 108120 39233 19871 31505 13457 88249 9630 15296 17581 7728 12984 5193 6887 7106 5878 13924 10389 6654 814 6879 4237 4353 4643 2751 3535 10117 4338 3390
internal_count=160810 52690 108120 39233 19871 31505 13457 88249 9630 15296 17581 7728 12984 5193 6887 7106 5878 13924 10389 6654 814 6879 4237 4353 4643 2751 3535 10117 4338 3390
cat_boundaries=0 1 2 3 4 5 6 7 8 9 10 11 12 13 14 15 16
cat_threshold=16256 917504 507968 395264 8576 393216 384 64 8960 64 64 3072 133120 32 131072 131072
is_linear=0
shrinkage=0.1


Tree=5
num_leaves=31
num_cat=13
split_feature=4 4 4 0 0 0 4 4 4 0 0 0 0 3 4 0 0 4 5 0 2 5 2 4 4 5 5 5 4 5
split_gain=1.19595e+10 1.29592e+09 1.1844e+09 5.24483e+08 3.18788e+08 2.92315e+08 1.94016e+08 1.9109e+08 1.05406e+08 9.9217e+07 7.63832e+07 7.16336e+07 5.23091e+07 3.88002e+07 3.45174e+07 3.27417e+07 3.21751e+07 3.0158e+07 2.52582e+07 2.51601e+07 2.36443e+07 2.55056e+07 2.10438e+07 1.99354e+07 1.88196e+07 1.97384e+07 1.58309e+07 1.56535e+07 1.45314e+07 1.42446e+07
threshold=655.50000000000011 1356.5000000000002 275.50000000000006 0 1 2 1051.5000000000002 1782.5000000000002 33.500000000000007 3 4 5 6 7 475.50000000000006 8 9 879.50000000000011 516.10416666666686 10 11 526.77083333333337 12 2092.2500000000005 1.0000000180025095e-35 428.56250000000006 347.92708333333343 442.64583333333343 920.50000000000011 288.97916666666669
decision_type=2 2 2 1 1 1 2 2 2 1 1 1 1 1 2 1 1 2 2 1 1 2 1 2 2 2 2 2 2 2
left_child=2 3 5 12 -4 8 11 9 24 19 27 18 13 -2 -12 -8 23 -13 -5 -3 21 -17 -11 -9 -1 -26 -10 -6 -14 -16
right_child=1 7 4 6 10 -7 15 16 26 22 14 17 28 -15 29 20 -18 -19 -20 -21 -22 -23 -24 -25 25 -27 -28 -29 -30 -31
leaf_value=-24.274034444288304 28.721310004939603 18.601847966797109 -16.132190109565062 33.974296197285092 16.734040692272281 -25.330262227008884 37.083006059261912 57.612498653693642 -3.540627536862301 80.309723584876878 -0.61546073412726865 19.655946203740843 -7.479165944964361 7.2546748736068087 8.1143320286064231 53.489428797882169 92.035900824983557 30.341552407466537 47.283216338983038 49.328861326273199 47.335001832154184 85.17807348816838 63.582898395889494 84.461398100502365 -18.467687781341876 -7.0673003250281248 7.8707594467444411 28.689387330843847 5.402077643356094 18.272506751349791
leaf_weight=2092 1353 335 5547 4130 2045 78429 3297 660 2307 1580 3576 5375 1968 2264 3794 702 2986 5193 2178 3295 8551 398 3477 476 3343 2783 2570 2358 1578 2170
leaf_count=2092 1353 335 5547 4130 2045 78429 3297 660 2307 1580 3576 5375 1968 2264 3794 702 2986 5193 2178 3295 8551 398 3477 476 3343 2783 2570 2358 1578 2170
internal_value=0 40.7282 -18.2549 31.2348 4.12829 -23.0214 37.0661 68.1414 -9.16653 59.7278 12.1914 30.0137 6.89387 15.3417 7.14515 46.2866 85.8727 24.8832 38.5085 46.5521 49.3412 64.3698 68.9572 68.2617 -16.0851 -13.2886 2.47275 23.0842 -1.74199 11.8104
internal_weight=0 49796 111014 36987 19490 91524 29824 12809 13095 8687 13943 16876 7163 3617 9540 12948 4122 10568 6308 3630 9651 1100 5057 1136 8218 6126 4877 4403 3546 5964
internal_count=160810 49796 111014 36987 19490 91524 29824 12809 13095 8687 13943 16876 7163 3617 9540 12948 4122 10568 6308 3630 9651 1100 5057 1136 8218 6126 4877 4403 3546 5964
cat_boundaries=0 1 2 3 4 5 6 7 8 9 10 11 12 13
cat_threshold=917504 1966080 448 460800 384 9088 131072 6158 67584 458752 262144 32 32
is_linear=0
shrinkage=0.1


Tree=6
num_leaves=31
num_cat=15
split_feature=4 4 0 0 4 5 0 4 4 0 0 4 2 0 4 4 5 2 0 5 2 4 0 5 0 0 5 3 4 0
split_gain=9.70549e+09 1.39301e+09 5.87752e+08 4.22699e+08 3.31797e+08 1.40326e+08 1.21376e+08 1.20389e+08 1.18818e+08 7.44697e+07 6.66682e+07 4.76877e+07 4.33644e+07 4.2299e+07 3.93295e+07 3.59731e+07 3.53758e+07 3.30253e+07 4.26992e+07 3.00736e+07 2.97085e+07 2.83443e+07 2.52133e+07 2.44188e+07 2.39678e+07 2.07645e+07 2.05292e+07 2.02491e+07 2.02144e+07 1.89871e+07
threshold=526.50000000000011 1150.5000000000002 0 1 1555.5000000000002 391.10416666666669 2 355.50000000000006 33.500000000000007 3 4 762.50000000000011 5 6 774.50000000000011 2039.5000000000002 422.69791666666669 7 8 573.34375000000011 9 47.500000000000007 10 510.81250000000006 11 12 549.97916666666686 13 1782.5000000000002 14
decision_type=2 2 1 1 2 2 1 2 2 1 1 2 1 1 2 2 2 1 1 2 1 2 1 2 1 1 2 1 2 1
left_child=2 3 8 14 6 11 24 10 -1 15 21 -5 -7 -9 -2 25 -10 18 -14 -8 29 -4 -13 -19 27 -6 -16 -3 -11 -21
right_child=1 4 7 5 9 12 19 13 16 28 -12 22 17 -15 26 -17 -18 23 -20 20 -22 -23 -24 -25 -26 -27 -28 -29 -30 -31
leaf_value=-14.995280851929756 -8.2926083471951895 45.162762984660844 -14.399304130882804 14.334690621321247 59.414454307832017 52.749135106296869 45.51832019124052 -15.803353797007658 3.2222016269578257 71.653874151305402 -22.726636638895638 17.711703671727943 33.354963767739015 2.3785931488598222 10.971564034739492 76.715244775996752 16.13506398130454 29.928507268346536 -5.2434046666780532 -5.0575452960267357 58.77111544564098 7.7451466728637293 30.563119782323032 39.697019039749414 11.692028548181911 38.231557116976305 -4.1547887071784855 27.183231629775999 86.33082397297305 47.626529410226006
leaf_weight=3095 3384 969 6056 7716 1926 1170 6603 2397 6311 1616 79251 2565 613 2732 2857 866 3196 6267 532 137 3754 639 4265 4325 706 836 1308 2350 2238 130
leaf_count=3095 3384 969 6056 7716 1926 1170 6603 2397 6311 1616 79251 2565 613 2732 2857 866 3196 6267 532 137 3754 639 4265 4325 706 836 1308 2350 2238 130
internal_value=0 33.1051 -18.226 20.6889 52.7424 26.4467 43.9917 -21.0255 2.0213 69.8753 -21.916 19.7217 34.0462 -6.14478 -0.284547 58.7701 7.56316 32.1095 15.5309 49.6235 56.4881 -12.2674 25.8075 33.8853 28.9314 53.3564 6.2212 32.5523 79.9692 21.3872
internal_weight=0 57133 103677 35002 22131 27453 14649 91075 12602 7482 85946 14546 12907 5129 7549 3628 9507 11737 1145 10624 4021 6695 6830 10592 4025 2762 4165 3319 3854 267
internal_count=160810 57133 103677 35002 22131 27453 14649 91075 12602 7482 85946 14546 12907 5129 7549 3628 9507 11737 1145 10624 4021 6695 6830 10592 4025 2762 4165 3319 3854 267
cat_boundaries=0 1 2 3 4 5 6 7 8 9 10 11 12 13 14 15
cat_threshold=1920 1966080 919552 461824 64 32 1835008 64 25472 64 71680 133120 68608 6158 1024
is_linear=0
shrinkage=0.1


Tree=7
num_leaves=31
num_cat=18
split_feature=4 4 4 0 0 0 4 4 0 4 0 0 0 4 2 5 2 0 0 3 0 4 5 0 0 2 5 3 2 5
split_gain=7.87392e+09 8.5355e+08 8.04283e+08 3.2178e+08 2.24624e+08 1.83487e+08 1.48392e+08 1.04121e+08 9.07562e+07 6.43988e+07 4.70985e+07 4.41631e+07 3.34333e+07 3.26934e+07 2.77742e+07 2.82856e+07 2.5601e+07 2.54547e+07 2.37031e+07 2.21205e+07 2.76486e+07 2.08679e+07 1.6903e+07 1.65631e+07 1.63247e+07 1.60819e+07 2.37435e+07 1.60365e+07 1.51083e+07 1.46576e+07
threshold=663.50000000000011 1310.5000000000002 265.50000000000006 0 1 2 1840.5000000000002 972.50000000000011 3 30.500000000000004 4 5 6 1033.5000000000002 7 547.85416666666686 8 9 10 11 12 456.50000000000006 507.02083333333343 13 14 15 440.06250000000006 16 17 582.93750000000011
decision_type=2 2 2 1 1 1 2 2 1 2 1 1 1 2 1 2 1 1 1 1 1 2 2 1 1 1 2 1 1 2
left_child=2 3 5 13 17 9 8 10 18 19 -5 -6 -9 22 24 23 -10 -4 -3 20 -1 -13 -2 -16 -14 -21 -27 -19 -12 -15
right_child=1 6 4 7 11 -7 -8 12 16 -11 28 21 14 29 15 -17 -18 27 -20 25 -22 -23 -24 -25 -26 26 -28 -29 -30 -31
leaf_value=-8.8336872516187039 4.9102548224007956 42.835271826635527 -14.634158811812156 30.388914586948601 19.072917893194369 -20.553508293158234 71.521050278816247 58.348064972780925 66.377804676131106 1.2274668517021321 -3.4429040588058153 -0.50049896708488728 -7.8575103052546469 21.145863090430698 27.355323153045603 42.871750081012635 51.008378688008669 9.7106375057015679 27.275057504424371 -18.826108608892625 -25.15410767202226 10.216431365632635 -7.7926925473152711 35.714316505333905 32.833990140504476 -10.863907612665162 8.278383390748731 -8.204338067085148 18.784369776700483 4.1812278989154077
leaf_weight=1865 2928 2766 5114 5057 4573 78186 3526 622 1918 4980 323 2647 257 1440 4517 3321 4457 784 1787 930 2443 5794 1631 6495 148 1719 1040 1339 7415 788
leaf_count=1865 2928 2766 5114 5057 4573 78186 3526 622 1918 4980 323 2647 257 1440 4517 3321 4457 784 1787 930 2443 5794 1631 6495 148 1719 1040 1339 7415 788
internal_value=0 33.2448 -14.7215 24.7903 3.30539 -18.726 53.6833 29.498 47.9278 -7.6935 22.8455 11.1548 35.0587 5.20997 34.0132 34.7582 55.7292 -10.8104 36.8012 -13.2585 -18.1256 6.84761 0.365726 32.3428 7.44534 -7.50529 -3.63508 -1.57403 17.8533 15.1458
internal_weight=0 49396 111414 34942 20251 91163 14454 28155 10928 12977 12795 13014 15360 6787 14738 14333 6375 7237 4553 7997 4308 8441 4559 11012 405 3689 2759 2123 7738 2228
internal_count=160810 49396 111414 34942 20251 91163 14454 28155 10928 12977 12795 13014 15360 6787 14738 14333 6375 7237 4553 7997 4308 8441 4559 11012 405 3689 2759 2123 7738 2228
cat_boundaries=0 1 2 3 4 5 6 7 8 9 10 11 12 13 14 15 16 17 18
cat_threshold=917504 1968192 448 460800 9088 384 256 64 32 1835008 67584 6158 128 71680 3072 64 2062 64
is_linear=0
shrinkage=0.1


Tree=8
num_leaves=31
num_cat=17
split_feature=4 4 0 0 4 5 0 4 4 0 0 2 4 0 4 5 5 0 3 4 4 2 2 2 0 3 5 0 2 0
split_gain=6.393e+09 9.59264e+08 3.53607e+08 2.70113e+08 2.56527e+08 8.95957e+07 8.6403e+07 7.29992e+07 6.41427e+07 6.28209e+07 4.45559e+07 3.25241e+07 2.99667e+07 2.7656e+07 2.75917e+07 2.67335e+07 2.49591e+07 2.3838e+07 2.32422e+07 2.06087e+07 1.9909e+07 1.94126e+07 1.9056e+07 1.8011e+07 3.08179e+07 1.79656e+07 1.76838e+07 1.71649e+07 1.70303e+07 1.60246e+07
threshold=508.50000000000006 1109.5000000000002 0 1 1499.5000000000002 391.10416666666669 2 43.500000000000007 329.50000000000006 3 4 5 742.50000000000011 6 2092.2500000000005 313.43750000000006 403.81250000000006 7 8 1753.5000000000002 47.500000000000007 9 10 11 12 13 648.85416666666686 14 15 16
decision_type=2 2 1 1 2 2 1 2 2 1 1 1 2 1 2 2 2 1 1 2 2 1 1 1 1 1 2 1 1 1
left_child=2 3 7 13 6 12 25 -1 10 19 20 -7 -5 18 29 -10 -9 21 -2 -6 -4 -8 -19 24 -13 26 -3 -14 -18 -11
right_child=1 4 8 5 9 11 17 16 15 14 -12 23 27 -15 -16 -17 28 22 -20 -21 -22 -23 -24 -25 -26 -27 -28 -29 -30 -31
leaf_value=-11.69750128795024 18.429618062466471 35.777437968299076 -11.701880025116314 10.8794857564728 56.745823706757257 44.183615127323911 63.5275979609467 1.8127783179402415 -0.062479097631177399 30.90617058772531 -18.469637283985286 -10.193813191132669 25.176691536649265 -6.2646566249411855 63.690819335721869 -14.802313211145387 1.4284071369243583 3.6345887765216371 -0.16681493362816069 70.368579310740685 6.870360934589538 41.850784719811116 36.331126983258237 26.671719033528888 24.540870021182204 16.829240770713422 8.2182374758155721 15.039481058772337 17.663524793700113 47.148169863859621
leaf_weight=3298 1009 1272 6056 7758 2085 1025 627 5747 2948 1056 78698 380 3316 4461 743 2112 928 197 1983 2376 638 2430 8219 9284 754 2805 285 3671 2202 2447
leaf_count=3298 1009 1272 6056 7758 2085 1025 627 5747 2948 1056 78698 380 3316 4461 743 2112 928 197 1983 2376 638 2430 8219 9284 754 2805 285 3671 2202 2447
internal_value=0 26.4937 -14.9998 15.5266 41.5268 20.3028 33.9457 1.00544 -17.1524 55.3144 -17.8025 26.9502 15.1578 -1.28125 46.0788 -6.21476 5.72599 38.5182 6.14501 63.8584 -9.91696 46.4894 35.571 25.188 12.914 21.7807 30.5368 19.9081 12.911 42.4747
internal_weight=0 58183 102627 33641 24542 26188 15835 12175 90452 8707 85392 11443 14745 7453 4246 5060 8877 11473 2992 4461 6694 3057 8416 10418 1134 4362 1557 6987 3130 3503
internal_count=160810 58183 102627 33641 24542 26188 15835 12175 90452 8707 85392 11443 14745 7453 4246 5060 8877 11473 2992 4461 6694 3057 8416 10418 1134 4362 1557 6987 3130 3503
cat_boundaries=0 1 2 3 4 5 6 7 8 9 10 11 12 13 14 15 16 17
cat_threshold=1920 1966080 919552 61952 64 32 131072 8960 2062 32 64 64 3072 6158 26368 64 393216
is_linear=0
shrinkage=0.1


Tree=9
num_leaves=31
num_cat=19
split_feature=4 4 4 0 0 0 4 0 4 0 0 4 4 0 3 0 2 0 0 4 3 4 3 0 2 2 3 5 0 5
split_gain=5.19424e+09 5.66101e+08 5.50829e+08 2.21911e+08 1.50972e+08 1.2682e+08 8.61633e+07 6.9442e+07 4.59844e+07 4.35704e+07 3.90744e+07 3.31548e+07 3.2653e+07 2.58422e+07 2.56278e+07 2.14236e+07 2.74304e+07 2.06505e+07 1.70522e+07 1.70498e+07 1.62344e+07 1.55604e+07 1.48702e+07 1.93232e+07 1.47492e+07 1.37637e+07 1.34042e+07 1.33852e+07 1.29195e+07 1.27808e+07
threshold=684.50000000000011 287.50000000000006 1397.5000000000002 0 1 2 1068.5000000000002 3 24.500000000000004 4 5 1663.5000000000002 1908.5000000000002 6 7 8 9 10 11 443.50000000000006 12 886.50000000000011 13 14 15 16 17 367.85416666666669 18 560.43750000000011
decision_type=2 2 2 1 1 1 2 1 2 1 1 2 2 1 1 1 1 1 1 2 1 2 1 1 1 1 1 2 1 2
left_child=1 5 3 13 -3 8 9 11 22 -5 25 28 18 14 -2 24 -17 20 -9 -12 -11 -19 23 -1 -8 -6 -20 -10 -4 -18
right_child=2 4 7 6 10 -7 15 12 27 17 19 -13 -14 -15 -16 16 29 21 26 -21 -22 -23 -24 -25 -26 -27 -28 -29 -30 -31
leaf_value=-7.2634131713402601 22.218015599926915 -10.592415002899703 57.602278668122658 34.312064857803001 25.501493121035619 -16.640987512374007 54.917392654418954 10.274374479807515 -4.225777780364381 20.188168550309328 -1.8200078565866158 61.822295277896245 52.444606702340835 -0.88940917446090573 4.7709776664674024 -4.6470227019117756 27.705160375161309 16.824302430380939 46.103407009056028 7.4952216158627643 6.1145967687830662 24.303020639447766 -6.3422314806422619 -21.464617700856664 35.186091872290952 12.834944775457032 32.040346968223048 5.3214101077977976 41.197447222965202 36.227326904158573
leaf_weight=1703 1341 5718 937 2016 1218 78682 540 307 2935 1362 2623 2962 1274 3373 2284 243 7388 5430 1100 7831 2113 5705 3351 2290 2649 3239 2966 2939 1981 2310
leaf_count=1703 1341 5718 937 2016 1218 78682 540 307 2935 1362 2623 2962 1274 3373 2284 243 7388 5430 1100 7831 2113 5705 3351 2290 2649 3239 2966 2939 1981 2310
internal_value=0 -11.7582 27.4518 21.4701 3.2122 -15.1186 25.2355 46.5246 -6.03947 20.462 8.50732 54.2769 38.2885 5.41557 11.2685 31.2993 28.8609 18.5146 34.252 5.15302 11.6727 20.6375 -11.319 -15.4411 38.6885 16.3458 35.9487 0.551067 46.8038 29.7045
internal_weight=0 112529 48281 36754 20629 91900 29756 11527 13218 16626 14911 5880 5647 6998 3625 13130 9941 14610 4373 10454 3475 11135 7344 3993 3189 4457 4066 5874 2918 9698
internal_count=160810 112529 48281 36754 20629 91900 29756 11527 13218 16626 14911 5880 5647 6998 3625 13130 9941 14610 4373 10454 3475 11135 7344 3993 3189 4457 4066 5874 2918 9698
cat_boundaries=0 1 2 3 4 5 6 7 8 9 10 11 12 13 14 15 16 17 18 19
cat_threshold=917504 1966080 448 62208 384 384 131072 6158 8960 64 67584 262144 6158 6158 128 32 33 6158 8960
is_linear=0
shrinkage=0.1


Tree=10
num_leaves=31
num_cat=20
split_feature=4 4 4 0 0 0 4 0 4 0 4 0 0 3 0 0 2 0 3 4 4 3 0 2 2 5 2 2 0 5
split_gain=4.21136e+09 4.91335e+08 4.28193e+08 1.78557e+08 1.25825e+08 1.06082e+08 7.28591e+07 5.23909e+07 3.88651e+07 3.68968e+07 3.65586e+07 3.29997e+07 2.5806e+07 2.18826e+07 2.09293e+07 1.85296e+07 2.45852e+07 1.81942e+07 1.55646e+07 1.51699e+07 1.30595e+07 1.28333e+07 1.68534e+07 1.25403e+07 1.24149e+07 1.6813e+07 1.1458e+07 1.14307e+07 1.08727e+07 1.08643e+07
threshold=704.50000000000011 298.50000000000006 1439.5000000000002 0 1 2 1098.5000000000002 3 26.500000000000004 4 1947.5000000000002 5 6 7 8 9 10 11 12 495.50000000000006 906.50000000000011 13 14 15 16 428.56250000000006 17 18 19 367.85416666666669
decision_type=2 2 2 1 1 1 2 1 2 1 2 1 1 1 1 1 1 1 1 2 2 1 1 1 1 2 1 1 1 2
left_child=1 5 3 13 -3 8 9 -4 21 -5 12 26 -9 14 -2 23 -17 18 27 -13 -19 22 -1 -8 -23 -26 -6 -11 -15 -10
right_child=2 4 7 6 11 -7 15 10 29 17 -12 19 -14 28 -16 16 -18 20 -20 -21 -22 24 -24 -25 25 -27 -28 -29 -30 -31
leaf_value=-6.332104155855137 15.375828462027286 -9.2713638066880861 25.174141830545945 32.296087960929412 28.634784856864385 -14.969927898417209 50.900565699597337 56.676279758239957 -3.4872302326515725 -5.7987813050286814 56.79579140492848 0.12834481388278809 39.003210754752359 4.9709193419743345 -8.2504425929369543 -4.7951903817672585 27.774683773320596 15.942088048132824 6.0542247230257269 7.8094867676355122 22.655050490102472 -15.466756289392775 -19.402091399850768 32.792490776314551 -8.3381065808363672 8.2762873648362927 13.198179312431193 22.602138678288018 -5.7748142830513194 5.179959630735353
leaf_weight=1757 2595 5834 1480 1942 564 78892 562 1134 2893 161 2380 4039 5272 2323 435 242 9452 5420 2245 7075 6228 916 2342 2422 1583 990 3885 1286 1569 2892
leaf_count=1757 2595 5834 1480 1942 564 78892 562 1134 2893 161 2380 4039 5272 2323 435 242 9452 5420 2245 7075 6228 916 2342 2422 1583 990 3885 1286 1569 2892
internal_value=0 -10.4079 25.1412 20.1133 3.24494 -13.5741 23.4554 43.2044 -5.32456 19.2395 46.1604 7.9377 42.2811 5.60607 11.968 29.2209 26.9575 17.5541 11.3325 5.01353 19.5146 -10.0356 -13.8288 36.3615 -5.52384 -1.93794 15.2149 19.424 0.635244 0.845616
internal_weight=0 113662 47148 36882 21397 92265 29960 10266 13373 17282 8786 15563 6406 6922 3030 12678 9694 15340 3692 11114 11648 7588 4099 2984 3489 2573 4449 1447 3892 5785
internal_count=160810 113662 47148 36882 21397 92265 29960 10266 13373 17282 8786 15563 6406 6922 3030 12678 9694 15340 3692 11114 11648 7588 4099 2984 3489 2573 4449 1447 3892 5785
cat_boundaries=0 1 2 3 4 5 6 7 8 9 10 11 12 13 14 15 16 17 18 19 20
cat_threshold=917504 1966080 448 393216 384 384 8704 6158 393216 8960 64 67584 6158 6158 128 32 64 32 96 131072
is_linear=0
shrinkage=0.1


Tree=11
num_leaves=31
num_cat=16
split_feature=4 4 0 0 4 5 0 4 4 2 2 0 3 4 0 2 5 2 0 4 0 5 4 5 2 5 3 3 5 2
split_gain=3.41898e+09 5.30545e+08 1.88803e+08 1.65535e+08 1.01842e+08 7.20736e+07 4.9478e+07 4.46427e+07 3.91364e+07 3.03452e+07 2.77612e+07 2.29626e+07 5.22171e+07 2.26693e+07 2.16243e+07 1.92911e+07 1.87457e+07 1.82997e+07 2.6151e+07 1.758e+07 1.63041e+07 1.60768e+07 1.52734e+07 1.51516e+07 1.18692e+07 1.15825e+07 1.12911e+07 1.08326e+07 1.05695e+07 1.04922e+07
threshold=508.50000000000006 1199.5000000000002 0 1 1684.5000000000002 417.14583333333343 2 147.50000000000003 371.50000000000006 3 4 5 6 857.50000000000011 7 8 428.56250000000006 9 10 2092.2500000000005 11 307.18750000000006 1.5000000000000002 325.14583333333343 12 587.84375000000011 13 14 478.02083333333343 15
decision_type=2 2 1 1 2 2 1 2 2 1 1 1 1 2 1 1 2 1 1 2 1 2 2 2 1 2 1 1 2 1
left_child=2 3 7 13 6 10 20 22 11 -7 -5 12 -4 28 -6 -8 -14 18 26 -16 -3 -10 -1 -12 -18 -19 -11 -15 -2 -9
right_child=1 4 8 5 14 9 15 29 21 17 23 -13 16 27 19 -17 24 25 -20 -21 -22 -23 -24 -25 -26 -27 -28 -29 -30 -31
leaf_value=-15.426438600909098 -0.95099050544920383 22.920244810498989 -18.984180511741481 16.711901049360499 53.86409079820109 37.405902005762414 43.114179781417647 12.65801312704771 0.90503498104805835 11.391879865989923 4.5527039342822784 -13.409476065542293 -7.5638548663716207 12.303895745625892 34.390439866042875 30.667852444999582 -8.0766309245034229 20.029584926682602 19.24712118250028 49.469510396914089 5.5106634740330023 -11.005758301861013 -2.3942501100302578 12.192709413141959 9.4930438407419757 29.333581827355502 -21.46685990521425 1.065588621789378 -10.777658879917517 3.9255917875448212
leaf_weight=1149 3035 5023 2420 6746 1866 1119 1734 2337 2958 151 5094 80110 2035 1555 2291 6790 485 9403 792 1167 629 1837 4138 5293 1755 1560 306 1917 1712 3403
leaf_count=1149 3035 5023 2420 6746 1866 1119 1734 2337 2958 151 5094 80110 2035 1555 2291 6790 485 9403 792 1167 629 1837 4138 5293 1755 1560 306 1917 1712 3403
internal_value=0 19.3802 -10.964 12.6004 32.8297 15.9956 28.4009 1.40201 -12.4514 21.515 11.7103 -12.9386 -7.27319 -0.0034782 44.6222 33.2473 -0.614972 20.0119 8.32943 39.3655 20.9959 -3.65808 -5.22648 8.43777 5.69522 21.3341 -10.5984 6.13738 -4.49497 7.50983
internal_weight=0 58183 102627 38683 19500 30464 14176 11027 91600 13331 17133 86805 6695 8219 5324 8524 4275 12212 1249 3458 5652 4795 5287 10387 2240 10963 457 3472 4747 5740
internal_count=160810 58183 102627 38683 19500 30464 14176 11027 91600 13331 17133 86805 6695 8219 5324 8524 4275 12212 1249 3458 5652 4795 5287 10387 2240 10963 457 3472 4747 5740
cat_boundaries=0 1 2 3 4 5 6 7 8 9 10 11 12 13 14 15 16
cat_threshold=896 1966080 985088 32 33 64 6158 29184 32 64 3072 198656 64 6150 6158 49
is_linear=0
shrinkage=0.1


Tree=12
num_leaves=31
num_cat=19
split_feature=4 4 4 0 0 0 0 4 5 4 2 2 4 3 4 4 0 0 2 2 5 3 3 0 4 0 0 2 3 0
split_gain=2.77921e+09 3.3648e+08 2.79565e+08 1.14349e+08 1.00605e+08 6.06712e+07 4.21634e+07 3.58842e+07 3.38384e+07 3.16526e+07 2.44804e+07 2.43855e+07 2.17457e+07 1.93386e+07 1.48881e+07 1.47725e+07 1.47134e+07 1.44146e+07 1.43274e+07 1.42945e+07 1.39919e+07 1.24612e+07 1.23131e+07 1.03785e+07 1.00987e+07 9.97539e+06 9.84919e+06 9.66177e+06 9.46901e+06 1.22393e+07
threshold=717.50000000000011 253.50000000000003 1397.5000000000002 0 1 2 3 1014.5000000000001 538.46875000000011 2039.5000000000002 4 5 30.500000000000004 6 933.50000000000011 1590.5000000000002 7 8 9 10 393.81250000000006 11 12 13 443.50000000000006 14 15 16 17 18
decision_type=2 2 2 1 1 1 1 2 2 2 1 1 2 1 2 2 1 1 1 1 2 1 1 1 2 1 1 1 1 1
left_child=1 5 3 7 20 12 15 22 14 17 -6 -10 28 18 -5 -4 -12 -8 -9 -19 21 25 23 -2 -18 -3 -20 -16 29 -1
right_child=2 4 6 8 10 -7 9 13 11 -11 16 -13 -14 -15 27 -17 24 19 26 -21 -22 -23 -24 -25 -26 -27 -28 -29 -30 -31
leaf_value=-4.9730269658901296 13.309581190200721 10.461158380453394 35.477886713343139 14.144382941150788 21.623058700401771 -12.174166102631503 17.344920627659953 3.3673490408145526 33.650640434906521 43.335197163728026 14.664037375995598 20.972444334508417 0.51671393067934135 9.593867772668327 22.645367319045398 47.528150834182135 0.32180233907922573 -7.0439865621198123 27.176361723749778 30.113612857931681 -11.023010700319652 -7.4168467184488351 -0.56672179648976317 0.48347083919854611 6.5996444883490701 -3.6900748423512142 9.3412814954452426 15.237157074346207 -4.2027503115731539 -15.813142885750672
leaf_weight=1865 1653 954 1761 5873 1072 77929 1482 423 2893 1344 1714 3583 4868 4342 6678 2409 3601 109 1779 4422 3815 2540 3541 1029 8884 1025 418 2672 3689 2443
leaf_count=1865 1653 954 1761 5873 1072 77929 1482 423 2893 1344 1714 3583 4868 4342 6678 2409 3601 109 1779 4422 3815 2540 3541 1029 8884 1025 418 2672 3689 2443
internal_value=0 -8.35864 20.6546 16.1931 2.27776 -11.1239 34.1562 8.82538 20.6564 29.4213 7.09816 26.7205 -4.7491 13.7643 18.0903 42.3378 5.98711 26.3602 20.5607 29.2062 -6.55566 -2.79877 3.31411 8.40868 4.78512 3.14999 23.8408 20.5688 -7.96049 -11.1427
internal_weight=0 114399 46411 34884 23605 90794 11527 13185 21699 7357 15271 6476 12865 6962 15223 4170 14199 6013 2620 4531 8334 4519 6223 2682 12485 1979 2197 9350 7997 4308
internal_count=160810 114399 46411 34884 23605 90794 11527 13185 21699 7357 15271 6476 12865 6962 15223 4170 14199 6013 2620 4531 8334 4519 6223 2682 12485 1979 2197 9350 7997 4308
cat_boundaries=0 1 2 3 4 5 6 7 8 9 10 11 12 13 14 15 16 17 18 19
cat_threshold=985088 1968192 448 29440 32 52 6158 128 393216 96 64 6158 6158 198656 133120 198656 53 6158 128
is_linear=0
shrinkage=0.1


Tree=13
num_leaves=31
num_cat=18
split_feature=4 4 4 0 0 4 0 0 3 5 2 2 0 2 4 0 2 0 5 5 0 4 2 3 3 0 5 0 4 5
split_gain=2.2522e+09 2.61048e+08 2.38677e+08 8.36459e+07 8.18637e+07 5.48215e+07 4.75983e+07 3.02729e+07 2.69324e+07 2.48285e+07 1.95882e+07 1.93828e+07 1.93625e+07 2.35822e+07 1.73137e+07 1.7146e+07 1.7015e+07 1.6472e+07 1.57219e+07 1.35044e+07 1.14662e+07 1.10089e+07 1.07089e+07 1.05119e+07 1.02771e+07 2.59584e+07 1.0134e+07 1.0095e+07 9.22121e+06 8.13618e+06
threshold=704.50000000000011 242.50000000000003 1255.5000000000002 0 1 1684.5000000000002 2 3 4 492.14583333333343 5 6 7 8 1.0000000180025095e-35 9 10 11 440.06250000000006 370.06250000000006 12 103.50000000000001 13 14 15 16 592.85416666666686 17 456.50000000000006 674.11458333333337
decision_type=2 2 2 1 1 2 1 1 1 2 1 1 1 1 2 1 1 1 2 2 1 2 1 1 1 1 2 1 2 2
left_child=1 6 3 8 11 7 14 -4 12 22 -11 -3 13 -2 -1 27 -9 29 21 23 -13 -16 -5 -6 25 -20 -19 -7 -22 -18
right_child=2 4 5 9 19 15 -8 16 -10 10 -12 20 -14 -15 18 -17 17 26 24 -21 28 -23 -24 -25 -26 -27 -28 -29 -30 -31
leaf_value=-12.683313530774692 -24.32385681123662 19.811163329043023 32.22655965821432 9.3185454435288406 3.2650911773032769 28.855328061547915 -10.966385947471657 -11.328187899631367 -0.15107273006008479 37.564873006202696 19.240094694268109 13.103798931547409 2.3262348217899524 19.632334151953501 -8.6995833453348492 40.064001451412778 17.72457762241514 20.463228996204613 6.001962302590294 -9.69684830170333 0.53345931723691631 0.29202643368088083 15.598772344054524 -6.1180043327184315 6.4155569674215442 -17.235467932446404 28.686937794641011 -4.4361866384744646 6.4845840705197562 3.7118630280519058
leaf_weight=2092 123 1022 3309 3948 2139 1419 77675 161 4888 653 7467 1739 1502 2089 4370 3803 1189 3590 1186 4241 4018 1978 9697 2681 2329 795 2572 102 7397 636
leaf_count=2092 123 1022 3309 3948 2139 1419 77675 161 4888 653 7467 1739 1502 2089 4370 3803 1189 3590 1186 4241 4018 1978 9697 2681 2329 795 2572 102 7397 636
internal_value=0 -7.60751 18.3893 13.1002 1.8463 27.9605 -10.0369 24.0642 4.73183 16.3979 20.7837 6.58914 11.1414 17.0896 -4.36232 36.3451 20.6845 21.3431 -2.73314 -5.57504 5.54759 -5.89785 13.7999 -1.95993 1.92802 -3.36324 23.8571 26.6084 4.38599 12.7713
internal_weight=0 113662 47148 30367 23237 16781 90425 11457 8602 21765 8120 14176 3714 2212 12750 5324 8148 7987 10658 9061 13154 6348 13645 4820 4310 1981 6162 1521 11415 1825
internal_count=160810 113662 47148 30367 23237 16781 90425 11457 8602 21765 8120 14176 3714 2212 12750 5324 8148 7987 10658 9061 13154 6348 13645 4820 4310 1981 6162 1521 11415 1825
cat_boundaries=0 1 2 3 4 5 6 7 8 9 10 11 12 13 14 15 16 17 18
cat_threshold=919552 63360 448 25344 6158 32 32 133120 64 458752 64 917504 128 74 6158 6158 384 196608
is_linear=0
shrinkage=0.1


Tree=14
num_leaves=31
num_cat=18
split_feature=4 4 0 0 4 4 4 0 3 0 0 0 2 4 2 5 5 2 5 4 2 5 3 5 0 3 0 3 0 2
split_gain=1.83033e+09 3.07504e+08 9.15524e+07 8.74212e+07 7.03945e+07 4.50402e+07 3.19267e+07 2.73653e+07 2.71235e+07 2.48261e+07 2.01216e+07 1.76296e+07 1.47207e+07 1.46396e+07 1.2226e+07 1.19835e+07 1.17371e+07 1.16749e+07 1.17924e+07 1.06272e+07 1.01422e+07 1.18607e+07 1.0042e+07 8.64813e+06 7.85518e+06 7.74734e+06 1.41112e+07 7.63007e+06 7.54329e+06 7.43325e+06
threshold=475.50000000000006 1138.5000000000002 0 1 1555.5000000000002 43.500000000000007 800.50000000000011 2 3 4 5 6 7 2092.2500000000005 8 349.93750000000006 719.43750000000011 9 480.18750000000006 794.50000000000011 10 417.14583333333343 11 519.81250000000011 12 13 14 15 16 17
decision_type=2 2 1 1 2 2 2 1 1 1 1 1 1 2 1 2 2 1 2 2 1 2 1 2 1 1 1 1 1 1
left_child=3 2 8 5 7 20 15 16 9 12 -6 -8 -2 24 23 -4 22 18 -7 -10 21 -1 -3 -9 -12 26 -23 -16 -21 -29
right_child=1 4 6 -5 10 17 11 14 19 -11 13 -13 -14 -15 27 -17 -18 -19 -20 28 -22 25 -24 -25 -26 -27 -28 29 -30 -31
leaf_value=-8.398367237736803 -17.724121703066917 21.04746124058525 5.7977460656851312 -9.68680050382806 38.231608851417413 4.2986034245716596 27.159067151993156 22.326917726273297 -5.573016048794095 -0.86258219355497889 0.53322835333645346 14.392595342126445 13.731308232653726 36.691172561220569 25.669232545158749 12.461365145433271 -2.1365552414594915 -0.10575286223745076 18.637289032096103 8.818877836183729 -9.0293535586115379 11.206413183466918 11.790161760945026 37.854190346762834 24.759020470317854 10.515043473678711 -13.414266411816634 -2.0286288817508802 -0.85478601469943427 19.289981836170888
leaf_weight=1661 149 1831 7062 80753 2616 2950 1234 619 3972 2384 150 10484 3373 1167 2459 4368 434 5948 712 1076 7010 400 3640 853 3549 807 530 175 3126 5318
leaf_count=1661 149 1831 7062 80753 2616 2950 1234 619 3972 2384 150 10484 3373 1167 2459 4368 434 5948 712 1076 7010 400 3640 853 3549 807 530 175 3126 5318
internal_value=0 13.8358 8.23378 -8.2207 22.9785 -2.30045 12.0993 19.0974 1.86874 7.02668 30.9299 15.7725 12.3542 26.8706 22.4601 8.34426 13.6695 2.63481 7.06717 -1.86209 -6.85953 -2.34976 14.9484 31.1134 23.845 3.42068 -2.81816 20.8213 1.64129 18.6083
internal_weight=0 60039 37228 100771 22811 20018 23148 15329 14080 5906 7482 11718 3522 4866 9424 11430 5905 9610 3662 8174 10408 3398 5471 1472 3699 1737 930 7952 4202 5493
internal_count=160810 60039 37228 100771 22811 20018 23148 15329 14080 5906 7482 11718 3522 4866 9424 11430 5905 9610 3662 8174 10408 3398 5471 1472 3699 1737 930 7952 4202 5493
cat_boundaries=0 1 2 3 4 5 6 7 8 9 10 11 12 13 14 15 16 17 18
cat_threshold=2033664 13248 985088 6158 198656 29184 256 64 32 49 50 6158 262144 6158 128 4480 65536 64
is_linear=0
shrinkage=0.1


Tree=15
num_leaves=31
num_cat=17
split_feature=4 4 4 0 0 0 5 0 3 2 0 2 3 0 4 4 5 4 5 5 4 2 3 0 2 5 2 3 0 4
split_gain=1.48572e+09 1.97813e+08 1.45162e+08 6.41242e+07 5.06927e+07 3.87655e+07 2.81098e+07 2.12398e+07 2.04217e+07 1.9704e+07 2.23835e+07 1.76285e+07 2.43555e+07 2.44711e+07 1.49668e+07 1.45921e+07 1.43946e+07 1.23819e+07 1.16955e+07 1.0772e+07 9.92377e+06 9.08941e+06 8.66106e+06 1.00131e+07 8.63553e+06 1.06077e+07 8.10042e+06 8.0895e+06 8.00638e+06 7.55852e+06
threshold=742.50000000000011 319.50000000000006 1473.5000000000002 0 1 2 554.05208333333337 3 4 5 6 7 8 9 2092.2500000000005 43.500000000000007 356.18750000000006 940.50000000000011 665.89583333333337 428.56250000000006 1098.5000000000002 10 11 12 13 428.56250000000006 14 15 16 954.50000000000011
decision_type=2 2 2 1 1 1 2 1 1 1 1 1 1 1 2 2 2 2 2 2 2 1 1 1 1 2 1 1 1 2
left_child=1 5 3 8 19 15 17 -4 9 -2 29 12 -8 -14 -9 22 28 -5 -13 27 -10 -18 23 -1 -24 -26 -19 -3 -6 -11
right_child=2 4 7 6 16 -7 11 14 20 10 -12 18 13 -15 -16 -17 21 26 -20 -21 -22 -23 24 -25 25 -27 -28 -29 -30 -31
leaf_value=-3.2792665960573588 -24.057371558604704 3.0972340374762712 33.087448502615132 9.662485442897216 21.454910656750442 -8.868832552170586 34.097336845234231 20.405929935240593 -1.7990329981774225 10.172654025583931 3.1325641475471055 20.687530677443732 -27.317315620437093 13.306377961854825 33.022054880908193 1.2652258185453722 18.055351243887419 17.514853305645001 32.401555026575743 -8.6603869934969619 6.380594051258738 7.8702162561956044 -10.381634075317761 -12.684009476123505 -4.5163363531337275 7.2840253027549711 12.294724596164857 -4.5873354824169414 3.3277870998749237 22.348167637107977
leaf_weight=2063 145 2460 3329 6392 241 79361 223 4841 3185 733 1563 4744 249 338 1167 4914 1205 6622 1039 2942 2776 3427 970 2565 1838 1301 5950 3068 9484 1675
leaf_count=2063 145 2460 3329 6392 241 79361 223 4841 3185 733 1563 4744 249 338 1167 4914 1205 6622 1039 2942 2776 3427 970 2565 1838 1301 5950 3068 9484 1675
internal_value=0 -5.97511 15.4405 12.5323 2.3664 -8.02228 15.1956 26.5397 5.75701 11.1702 12.5138 20.8262 6.70746 -4.09475 22.8185 -3.09205 5.9836 13.246 22.7528 -3.76751 2.0068 10.5758 -5.54627 -8.50781 -2.18463 0.37329 15.068 -1.17034 3.80249 18.5648
internal_weight=0 115839 44971 35634 22827 93012 25557 9337 10077 4116 3971 6593 810 587 6008 13651 14357 18964 5783 8470 5961 4632 8737 4628 4109 3139 12572 5528 9725 2408
internal_count=160810 115839 44971 35634 22827 93012 25557 9337 10077 4116 3971 6593 810 587 6008 13651 14357 18964 5783 8470 5961 4632 8737 4628 4109 3139 12572 5528 9725 2408
cat_boundaries=0 1 2 3 4 5 6 7 8 9 10 11 12 13 14 15 16 17
cat_threshold=919552 2033664 448 29440 6158 64 133120 64 6150 1024 49 6158 128 64 49 6158 128
is_linear=0
shrinkage=0.1


Tree=16
num_leaves=31
num_cat=21
split_feature=4 4 4 0 0 4 0 5 0 5 3 2 0 2 0 2 0 4 0 2 5 3 2 2 5 2 3 3 0 3
split_gain=1.20801e+09 2.04881e+08 5.98106e+07 5.7358e+07 5.71415e+07 2.95884e+07 2.30998e+07 1.64718e+07 1.63557e+07 1.48964e+07 1.37133e+07 1.22411e+07 1.04667e+07 1.02283e+07 1.0714e+07 1.02011e+07 9.71421e+06 1.19135e+07 9.56761e+06 8.35417e+06 1.10792e+07 8.28702e+06 1.54587e+07 7.61182e+06 1.28802e+07 6.89703e+06 1.0693e+07 6.69017e+06 1.40712e+07 6.60964e+06
threshold=475.50000000000006 1056.5000000000002 1527.5000000000002 0 1 57.500000000000007 2 442.64583333333343 3 549.97916666666686 4 5 6 7 8 9 10 2092.2500000000005 11 12 335.22916666666669 13 14 15 403.81250000000006 16 17 18 19 20
decision_type=2 2 2 1 1 2 1 2 1 2 1 1 1 1 1 1 1 2 1 1 2 1 1 1 2 1 1 1 1 1
left_child=4 3 6 9 5 23 13 15 29 10 12 -9 -2 -3 -15 -5 -10 -18 -8 20 -7 22 -20 -1 -25 26 -23 -26 -29 -4
right_child=1 2 8 7 -6 19 18 11 16 -11 -12 -13 -14 14 -16 -17 17 -19 21 -21 -22 25 -24 24 27 -27 -28 28 -30 -31
leaf_value=-9.2087417480123133 15.738581102687744 -17.544085121154787 22.006840273892266 10.865527664726983 -7.8623958412253785 1.5163489278410789 33.042666080636039 26.784741082447194 35.719738244999711 -7.5022050062022236 -1.2139680992349118 11.757410018322529 3.6774879072225506 1.7280324253396036 12.558377900343968 5.0358714892890646 22.308268410676554 32.826553420705743 -14.186423357369387 -0.91622766215165086 11.433348270672534 9.8376257442923123 15.231975913992086 -7.4264288084070209 6.4348171766750433 18.389670903165122 36.900115900531787 7.0663940367368951 -9.4564995260044782 6.3612044266311507
leaf_weight=3531 900 117 492 4657 80753 3051 416 603 1108 1979 5850 6131 3549 1043 8367 8638 4417 1424 181 4225 1786 232 4470 3987 1335 4267 552 874 1229 646
leaf_count=3531 900 117 492 4657 80753 3051 416 603 1108 1979 5850 6131 3549 1043 8367 8638 4417 1424 181 4225 1786 232 4470 3987 1335 4267 552 874 1229 646
internal_value=0 11.2416 17.5467 5.8294 -6.67709 -1.89067 14.5671 9.12625 24.7849 0.443487 1.97072 13.1603 6.14718 10.9881 11.3611 7.08986 26.6152 24.8301 17.9085 2.3357 5.16739 17.2262 14.0591 -5.38814 -3.55404 20.1089 29.1166 0.926387 -2.58869 13.2582
internal_weight=0 60039 27732 32307 100771 20018 19645 20029 8087 12278 10299 6734 4449 9527 9410 13295 6949 5841 10118 9062 4837 9702 4651 10956 7425 5051 784 3438 2103 1138
internal_count=160810 60039 27732 32307 100771 20018 19645 20029 8087 12278 10299 6734 4449 9527 9410 13295 6949 5841 10118 9062 4837 9702 4651 10956 7425 5051 784 3438 2103 1138
cat_boundaries=0 1 2 3 4 5 6 7 8 9 10 11 12 13 14 15 16 17 18 19 20 21
cat_threshold=2033664 13248 989184 393216 6158 32 2048 64 786432 33 8704 256 51 1648 64 64 96 384 1008 128 4110
is_linear=0
shrinkage=0.1


Tree=17
num_leaves=31
num_cat=20
split_feature=4 4 4 0 0 0 5 2 0 3 0 5 2 0 3 4 0 0 0 3 5 5 0 3 0 4 5 3 2 2
split_gain=9.86758e+08 1.44638e+08 8.73933e+07 4.07881e+07 3.36946e+07 3.05448e+07 2.03999e+07 1.8732e+07 1.80711e+07 1.73796e+07 1.95808e+07 1.71323e+07 1.45952e+07 1.44612e+07 1.35036e+07 1.19891e+07 1.19473e+07 1.16475e+07 9.38902e+06 1.31035e+07 8.47224e+06 8.0706e+06 6.62558e+06 6.53896e+06 6.98272e+06 6.696e+06 7.24999e+06 6.41785e+06 6.07237e+06 5.81752e+06
threshold=780.50000000000011 378.50000000000006 1499.5000000000002 0 1 2 510.81250000000006 3 4 5 6 472.84375000000006 7 8 9 43.500000000000007 10 11 12 13 639.35416666666686 642.52083333333337 14 15 16 1.5000000000000002 521.56250000000011 17 18 19
decision_type=2 2 2 1 1 1 2 1 1 1 1 2 1 1 1 2 1 1 1 1 2 2 1 1 1 2 2 1 1 1
left_child=1 5 3 20 14 15 17 8 9 10 -8 -6 -9 -4 29 23 -16 28 -15 -20 27 -14 -21 24 -1 -25 -27 -2 -5 -3
right_child=2 4 13 6 11 -7 7 12 -10 -11 -12 -13 21 18 16 -17 -18 -19 19 22 -22 -23 -24 25 -26 26 -28 -29 -30 -31
leaf_value=-2.7138538795270413 9.135561562031441 23.879080539868202 27.584220604499826 5.0593269715316387 1.2120423714541451 -7.1564679594936029 34.914336608526277 27.223506417929784 16.046191694141779 -30.292941439056399 -21.844991635468048 -7.8812981618344669 14.167759630468609 -2.0891060816867468 13.446944409564081 1.3664299315137116 2.3489869983113039 13.395474801317304 26.334807381360793 6.0237895655323888 -3.9125837000744741 22.388720379663063 17.85323951602107 -8.4427245530854762 -10.567156883379065 -2.4199494985923935 8.1994746289641256 1.8264489465361358 10.109653507174565 11.323578496090255
leaf_weight=2063 2252 476 3085 4373 11938 81065 117 1197 433 240 108 2507 8259 213 1255 5771 4223 6393 1941 609 1277 1396 2859 1059 2565 2129 921 2599 5440 2047
leaf_count=2063 2252 476 3085 4373 11938 81065 117 1197 433 240 108 2507 8259 213 1255 5771 4223 6393 1941 609 1277 1396 2859 1059 2565 2129 921 2599 5440 2047
internal_value=0 -4.70382 13.0221 10.738 2.51993 -6.40037 12.3564 15.5333 1.53264 -12.0354 7.89962 -0.365898 16.6751 21.9635 7.72082 -2.16915 4.91138 10.0607 18.7967 19.6215 3.32901 15.3405 15.7992 -4.50698 -7.07983 -1.58806 0.786768 5.24219 7.8665 13.7773
internal_weight=0 118019 42791 34084 22446 95573 27956 11750 898 465 225 14445 10852 8707 8001 14508 5478 16206 5622 5409 6128 9655 3468 8737 4628 4109 3050 4851 9813 2523
internal_count=160810 118019 42791 34084 22446 95573 27956 11750 898 465 225 14445 10852 8707 8001 14508 5478 16206 5622 5409 6128 9655 3468 8737 4628 4109 3050 4851 9813 2523
cat_boundaries=0 1 2 3 4 5 6 7 8 9 10 11 12 13 14 15 16 17 18 19 20
cat_threshold=917504 9088 448 64 3072 6158 1024 32 29440 6158 128 104960 262144 6158 131072 6158 128 6158 78 96
is_linear=0
shrinkage=0.1


Tree=18
num_leaves=31
num_cat=23
split_feature=4 4 4 0 0 0 2 0 0 0 3 3 2 0 2 2 5 2 5 2 3 0 2 0 4 0 3 4 0 0
split_gain=8.00002e+08 1.04029e+08 8.25217e+07 3.56456e+07 2.87907e+07 2.12017e+07 1.88698e+07 1.49495e+07 1.172e+07 1.17045e+07 1.17408e+07 1.0861e+07 1.04819e+07 1.12417e+07 1.00883e+07 7.6144e+06 1.04826e+07 7.40802e+06 9.84744e+06 7.21333e+06 6.8589e+06 6.38291e+06 7.16598e+06 6.0539e+06 5.96645e+06 5.22236e+06 5.13751e+06 5.29388e+06 5.04676e+06 4.6247e+06
threshold=736.50000000000011 218.50000000000003 1270.5000000000002 0 1 2 3 4 5 6 7 8 9 10 11 12 516.10416666666686 13 425.77083333333343 14 15 16 17 18 3.5000000000000004 19 20 408.50000000000006 21 22
decision_type=2 2 2 1 1 1 1 1 1 1 1 1 1 1 1 1 2 1 2 1 1 1 1 1 2 1 1 2 1 1
left_child=1 7 4 20 11 9 -7 15 19 10 -4 12 -2 -14 -5 16 -1 18 -10 -6 21 22 -3 -16 -17 -8 -25 -28 -13 -12
right_child=2 3 5 14 8 6 25 -9 17 -11 29 28 13 -15 23 24 -18 -19 -20 -21 -22 -23 -24 26 -26 -27 27 -29 -30 -31
leaf_value=-2.6545399930952147 -4.2222651622580285 -17.733575027027438 21.057235119392764 13.08001704191858 13.020745379310359 25.612153728133961 23.923967131057452 -6.5368570496814105 8.7084796235514332 -1.1968083846405049 13.137191314938773 6.0088443488540655 19.691157135559777 6.7719999073106241 8.8290195984844591 -9.1933985336911554 7.5240057718525861 7.042834464945634 15.079481549517347 26.633065463281834 -5.3668415903423501 -3.1293932214255498 7.5363382343327103 13.789680046543921 -3.0137710915265163 15.077985123768173 -1.5997124481835483 3.4287293001172863 -0.32192869269796892 5.7095305076332776
leaf_weight=3570 626 114 1642 1178 1117 3760 850 77137 5671 576 2943 1711 873 3041 1836 2203 1412 6580 4240 673 6455 2397 1279 394 5373 5093 2691 9432 4696 1247
leaf_count=3570 626 114 1642 1178 1117 3760 850 77137 5671 576 2943 1711 873 3041 1836 2203 1412 6580 4240 673 6455 2397 1279 394 5373 5093 2691 9432 4696 1247
internal_value=0 -4.40689 11.2689 1.19218 8.10146 17.0152 19.981 -6.01592 10.5298 12.4737 13.8236 4.033 7.77215 9.6964 4.21102 -2.80863 0.229805 9.68033 11.4225 18.2582 -3.38505 -0.00449284 5.35665 3.47451 -4.80438 16.3812 2.68268 2.31064 1.37544 10.9455
internal_weight=0 115471 45339 25776 29228 16111 9703 89695 18281 6408 5832 10947 4540 3914 15531 12558 4982 16491 9911 1790 10245 3790 1393 14353 7576 5943 12517 12123 6407 4190
internal_count=160810 115471 45339 25776 29228 16111 9703 89695 18281 6408 5832 10947 4540 3914 15531 12558 4982 16491 9911 1790 10245 3790 1393 14353 7576 5943 12517 12123 6407 4190
cat_boundaries=0 1 2 3 4 5 6 7 8 9 10 11 12 13 14 15 16 17 18 19 20 21 22 23
cat_threshold=2033728 985088 985088 32 448 256 198656 4110 6158 96 2048 32 50 53 30 2062 198656 64 128 8192 4096 65536 67584
is_linear=0
shrinkage=0.1


Tree=19
num_leaves=31
num_cat=18
split_feature=4 4 4 0 0 5 3 0 2 0 0 4 2 3 0 5 2 0 5 2 4 5 5 0 3 0 5 0 5 0
split_gain=6.51072e+08 9.51576e+07 5.93492e+07 3.16769e+07 2.71485e+07 1.49297e+07 1.32684e+07 1.26661e+07 1.16044e+07 1.21693e+07 1.0802e+07 1.15728e+07 1.07348e+07 1.78083e+07 1.80822e+07 8.26592e+06 9.10122e+06 7.5663e+06 6.6969e+06 6.40054e+06 5.70755e+06 6.37724e+06 5.43458e+06 5.0272e+06 4.81364e+06 5.09945e+06 4.4737e+06 4.31993e+06 4.29436e+06 4.30648e+06
threshold=780.50000000000011 218.50000000000003 1499.5000000000002 0 1 566.77083333333337 2 3 4 5 6 2039.5000000000002 7 8 9 313.43750000000006 10 11 710.40625000000011 12 20.500000000000004 510.81250000000006 500.97916666666669 13 14 15 489.78125000000006 16 450.80208333333343 17
decision_type=2 2 2 1 1 2 1 1 1 1 1 2 1 1 1 2 1 1 2 1 2 2 2 1 1 1 2 1 2 1
left_child=1 7 4 22 6 19 8 20 -2 26 -4 -12 13 -7 -15 17 -17 -5 -14 28 -1 -22 24 -8 25 -3 -10 -11 29 -6
right_child=2 3 10 15 5 12 23 -9 9 27 11 -13 18 14 -16 16 -18 -19 -20 -21 21 -23 -24 -25 -26 -27 -28 -29 -30 -31
leaf_value=-4.3722717416217804 -18.951854549509449 6.3026795758678897 26.822260694818205 15.895553192896386 22.531962032379614 27.637821033350917 2.7223131189052019 -6.0360341237548427 10.712387122574917 5.4263737369571743 14.21253200005971 23.347178820485393 15.470556101109873 -26.4444792054624 9.9570727855829571 1.9137400058900533 8.6873150383885189 1.2178303355743341 28.451461988810838 7.1915054273584351 -2.7929793864233883 4.0053152540523493 -6.6829484947637461 -4.3480413301963479 -4.0451980192740082 -1.9912474596181533 19.69857077574909 -7.6386615520570338 14.047737222286717 8.9205685911550301
leaf_weight=12717 138 1206 1226 355 242 208 4477 70437 1366 1112 5642 1839 4602 235 301 3284 5078 9492 435 9225 4563 1978 3173 1287 3844 1892 932 318 3039 6167
leaf_count=12717 138 1206 1226 355 242 208 4477 70437 1366 1112 5642 1839 4602 235 301 3284 5078 9492 435 9225 4563 1978 3173 1287 3844 1892 932 318 3039 6167
internal_value=0 -3.81874 10.5798 1.23429 8.6975 10.4684 4.18525 -5.4144 8.71265 9.78467 17.9482 16.4361 14.9135 3.50504 -6.19459 3.7257 6.03981 1.76436 16.5587 9.0979 -3.13598 -0.737173 -3.25121 1.13883 -1.68734 1.24733 14.2947 2.48813 10.9401 9.4836
internal_weight=0 118019 42791 28324 34084 24454 9630 89695 3866 3728 8707 7481 5781 744 536 18209 8362 9847 5037 18673 19258 6541 10115 5764 6942 3098 2298 1430 9448 6409
internal_count=160810 118019 42791 28324 34084 24454 9630 89695 3866 3728 8707 7481 5781 744 536 18209 8362 9847 5037 18673 19258 6541 10115 5764 6942 3098 2298 1430 9448 6409
cat_boundaries=0 1 2 3 4 5 6 7 8 9 10 11 12 13 14 15 16 17 18
cat_threshold=1968192 919552 6158 480 64 133120 8960 64 4110 1024 72 128 49 133120 6158 133120 262144 256
is_linear=0
shrinkage=0.1


Tree=20
num_leaves=31
num_cat=19
split_feature=4 4 4 0 0 0 3 5 0 0 3 2 0 2 0 0 5 2 0 2 5 5 2 4 2 2 4 0 5 5
split_gain=5.28422e+08 8.6692e+07 4.40424e+07 2.26687e+07 2.09205e+07 1.60695e+07 1.23684e+07 1.18413e+07 9.90587e+06 9.88162e+06 9.84573e+06 1.65623e+07 1.28223e+07 9.70712e+06 9.08461e+06 8.90724e+06 8.30073e+06 8.20644e+06 8.1882e+06 8.07248e+06 7.72062e+06 6.91784e+06 6.85362e+06 6.22681e+06 5.68342e+06 5.50411e+06 5.08308e+06 5.02723e+06 7.80575e+06 5.008e+06
threshold=821.50000000000011 378.50000000000006 1527.5000000000002 0 1 2 3 514.17708333333337 4 5 6 7 8 9 10 11 434.43750000000006 12 13 14 549.97916666666686 724.81250000000011 15 1045.5000000000002 16 17 139.50000000000003 18 309.56250000000006 627.22916666666686
decision_type=2 2 2 1 1 1 1 2 1 1 1 1 1 1 1 1 2 1 1 1 2 2 1 2 1 1 2 1 2 2
left_child=1 5 4 6 8 17 29 24 -2 22 12 18 -11 -14 -4 -8 25 20 -12 -18 26 -16 -6 -13 -5 -10 -1 28 -26 -3
right_child=2 3 14 7 9 -7 15 -9 16 10 11 23 13 -15 21 -17 19 -19 -20 -21 -22 -23 -24 -25 27 -27 -28 -29 -30 -31
leaf_value=-2.3838760745704692 -0.25479125698629507 10.298093414881727 11.125058398361629 -13.218581997756417 12.549855949296937 -5.2314553406797941 -3.2588970019981702 -7.0050288378913086 5.6702229044579049 3.2998761352016879 4.7603498382844789 5.9728716100416399 29.76207326868952 14.602142758954088 16.227549896917132 5.7251849574571301 -11.276746054528987 -4.1851420480087809 -22.387337666984621 8.9356107510693583 7.5582878779078078 23.605222106235281 27.450057610755973 10.918733790185335 0.60710508638455563 -1.7650602454484237 4.1981108553571778 -1.1819823002521475 7.3524425251134691 24.628607071897644
leaf_weight=4969 2465 2435 2390 272 819 81065 1457 2241 2921 847 197 3887 536 2505 3783 4495 196 6683 244 8447 1320 1914 568 7376 5411 1506 1536 5542 2512 271
leaf_count=4969 2465 2435 2390 272 819 81065 1457 2241 2921 847 197 3887 536 2505 3783 4495 196 6683 244 8447 1320 1914 568 7376 5411 1506 1536 5542 2512 271
internal_value=0 -3.31959 9.87543 1.96978 8.23285 -4.68303 6.08691 -0.264817 5.56825 10.6613 9.92531 8.45588 14.3157 17.363 16.4795 3.52418 6.66583 -1.61395 -10.4235 8.47454 0.584526 18.6734 18.8046 9.20368 0.834562 3.14967 -0.829697 1.12742 2.74226 11.6901
internal_weight=0 120209 40601 24636 32514 95573 8658 15978 15535 16979 15592 11704 3888 3041 8087 5952 13070 14508 441 8643 7825 5697 1387 11263 13737 4427 6505 13465 7923 2706
internal_count=160810 120209 40601 24636 32514 95573 8658 15978 15535 16979 15592 11704 3888 3041 8087 5952 13070 14508 441 8643 7825 5697 1387 11263 13737 4427 6505 13465 7923 2706
cat_boundaries=0 1 2 3 4 5 6 7 8 9 10 11 12 13 14 15 16 17 18 19
cat_threshold=9088 989184 448 6158 786432 256 6150 64 32768 96 458752 512 51 512 64 30 64 49 56320
is_linear=0
shrinkage=0.1


Tree=21
num_leaves=31
num_cat=20
split_feature=4 4 0 4 0 5 0 4 2 2 2 0 0 5 3 0 2 5 3 2 0 3 0 3 0 2 5 4 0 4
split_gain=4.28375e+08 8.03718e+07 2.46016e+07 1.89255e+07 1.85614e+07 1.29212e+07 1.22063e+07 1.10378e+07 8.88422e+06 7.06992e+06 6.23833e+06 7.77796e+06 6.62992e+06 7.85972e+06 5.88546e+06 5.56861e+06 5.21771e+06 5.91816e+06 5.1198e+06 6.84135e+06 1.15087e+07 4.8054e+06 4.20046e+06 3.98523e+06 6.79656e+06 5.88508e+06 5.1322e+06 4.16871e+06 3.66348e+06 3.58645e+06
threshold=462.50000000000006 1126.5000000000002 0 1729.5000000000002 1 450.80208333333343 2 57.500000000000007 3 4 5 6 7 639.35416666666686 8 9 10 320.35416666666669 11 12 13 14 15 16 17 18 437.22916666666669 30.500000000000004 19 1320.5000000000002
decision_type=2 2 1 2 1 2 1 2 1 1 1 1 1 2 1 1 1 2 1 1 1 1 1 1 1 1 2 2 1 2
left_child=4 2 -2 6 7 9 -3 23 -7 22 11 21 14 -14 -12 -5 17 -9 28 20 -20 -8 -4 24 27 -25 -27 -1 -10 -23
right_child=1 3 5 15 -6 8 10 16 18 -11 12 -13 13 -15 -16 -17 -18 -19 19 -21 -22 29 -24 25 -26 26 -28 -29 -30 -31
leaf_value=-8.1445393085605158 -2.6740064960319767 17.157693169961885 11.516832743239465 11.094123563113781 -4.6867412699341093 18.141606056355624 3.5972883149310277 1.3366616681266335 20.818125401293567 1.6088107810271468 10.360552385408516 14.789677068710155 9.015975109422973 15.336479441014612 1.1904861279205323 19.069036993908295 -0.53125445166085672 10.099537306359984 -13.329373221921621 7.0061556666185885 7.3787395515351681 -14.870374862893115 4.5847628126209425 -5.5279229960722915 -1.9257657478588301 -2.1346289112773942 5.7296182341825954 -25.841945105072455 9.1319974235933881 -46.687921202624288
leaf_weight=2376 5144 2021 960 1338 80351 756 101 2126 384 10955 1156 141 11021 2395 1776 3383 5372 1209 463 6805 611 103 10135 2203 2805 2025 1406 141 1094 54
leaf_count=2376 5144 2021 960 1338 80351 756 101 2126 384 10955 1156 141 11021 2395 1776 3383 5372 1209 463 6805 611 103 10135 2203 2805 2025 1406 141 1094 54
internal_value=0 6.63091 3.74588 11.2132 -4.01298 4.77199 9.78951 -1.25672 7.73311 3.41607 8.88478 -3.47251 9.18832 10.1367 4.8289 16.8727 1.40035 4.49988 6.86542 5.83399 -1.58911 -13.6325 5.19439 -3.3695 -5.32936 -1.50604 1.08492 -9.09978 12.2877 -24.2682
internal_weight=0 60796 37307 23489 100014 32163 18768 19663 10113 22050 16747 399 16348 13416 2932 4721 8707 3335 9357 7879 1074 258 11095 10956 5322 5634 3431 2517 1478 157
internal_count=160810 60796 37307 23489 100014 32163 18768 19663 10113 22050 16747 399 16348 13416 2932 4721 8707 3335 9357 7879 1074 258 11095 10956 5322 5634 3431 2517 1478 157
cat_boundaries=0 1 2 3 4 5 6 7 8 9 10 11 12 13 14 15 16 17 18 19 20
cat_threshold=1835008 13248 8448 32 49 64 199680 917504 6158 458752 49 6146 65 207872 6152 384 6158 576 64 512
is_linear=0
shrinkage=0.1


Tree=22
num_leaves=31
num_cat=22
split_feature=4 4 4 0 0 0 4 0 3 2 0 0 2 0 0 5 2 5 5 2 0 3 0 4 3 2 2 0 3 2
split_gain=3.50698e+08 5.68387e+07 2.9549e+07 2.06444e+07 1.35903e+07 1.02972e+07 9.29368e+06 7.61859e+06 7.11488e+06 9.58657e+06 9.29075e+06 6.61982e+06 6.57502e+06 5.59362e+06 5.47871e+06 5.2861e+06 5.45438e+06 5.18028e+06 4.98643e+06 4.89258e+06 6.84547e+06 4.6785e+06 6.74265e+06 4.87728e+06 4.64447e+06 4.62175e+06 4.37773e+06 4.25886e+06 4.23715e+06 4.0501e+06
threshold=821.50000000000011 175.50000000000003 1417.5000000000002 0 1 2 1988.5000000000002 3 4 5 6 7 8 9 10 417.14583333333343 11 309.56250000000006 333.35416666666669 12 13 14 15 30.500000000000004 16 17 18 19 20 21
decision_type=2 2 2 1 1 1 2 1 1 1 1 1 1 1 1 2 1 2 2 1 1 1 1 2 1 1 1 1 1 1
left_child=1 11 4 24 7 -4 26 25 10 -10 -9 21 18 -12 -6 29 -17 -14 -5 20 28 22 -1 -24 -3 -2 -7 -11 -19 -16
right_child=2 3 5 12 14 6 -8 8 9 27 13 -13 17 -15 15 16 -18 19 -20 -21 -22 -23 23 -25 -26 -27 -28 -29 -30 -31
leaf_value=-2.0433315825954406 10.520647476664358 0.31360865083033873 20.040427609287228 4.5587976680931064 -0.28713441090622499 -8.7875389454080093 17.09052774234247 24.14038258277612 -8.5768325783582924 4.459835691968598 1.9603646434593263 -4.4439075274909792 -0.38522262554220982 11.925468333250658 6.0086931947202746 -10.333752089731044 6.9039645937722769 -2.4347922648208731 12.46901282469921 4.6770104160908366 2.778728546566462 -0.9025529419708701 -7.3554031522376535 -25.318867390244097 -3.6023604216584517 22.904331374593596 9.8284190802743243 8.6768148327593178 -21.375999227465499 -0.64541239137342332
leaf_weight=4805 819 4802 1575 3709 2331 124 2083 509 403 4023 764 70684 5730 2326 1499 181 7738 266 1015 6856 1164 10334 2256 162 8207 547 7120 6235 219 2324
leaf_count=4805 819 4802 1575 3709 2331 124 2083 509 403 4023 764 70684 5730 2326 1499 181 7738 266 1015 6856 1164 10334 2256 162 8207 547 7120 6235 219 2324
internal_value=0 -2.70325 8.0462 0.909449 6.4117 12.4989 11.1919 8.44298 7.74598 6.43154 11.611 -4.01205 3.01359 9.47588 4.14732 5.02714 6.50564 1.93753 6.24517 3.5047 -1.38932 -2.2696 -4.2215 -8.52366 -2.15773 15.61 9.5112 7.02895 -11.2467 1.97769
internal_weight=0 120209 40601 31968 29699 10902 9327 15626 14260 10661 3599 88241 18959 3090 14073 11742 7919 14235 4724 8505 1649 17557 7223 2418 13009 1366 7244 10258 485 3823
internal_count=160810 120209 40601 31968 29699 10902 9327 15626 14260 10661 3599 88241 18959 3090 14073 11742 7919 14235 4724 8505 1649 17557 7223 2418 13009 1366 7244 10258 485 3823
cat_boundaries=0 1 2 3 4 5 6 7 8 9 10 11 12 13 14 15 16 17 18 19 20 21 22
cat_threshold=2033728 59264 8960 256 6150 64 512 224 33 32768 786432 64 64 5120 6158 160 2062 30 64 16896 6414 1
is_linear=0
shrinkage=0.1


Tree=23
num_leaves=31
num_cat=19
split_feature=4 4 4 0 0 3 0 5 0 0 3 2 5 0 0 5 2 2 5 5 3 0 0 0 2 4 2 5 5 2
split_gain=2.84462e+08 4.9946e+07 2.29575e+07 1.39389e+07 1.18166e+07 1.0213e+07 8.94148e+06 8.37598e+06 7.35559e+06 7.07193e+06 6.53586e+06 6.05214e+06 9.65057e+06 5.91962e+06 5.22944e+06 5.29581e+06 5.13093e+06 4.89575e+06 5.07609e+06 4.75391e+06 4.59648e+06 9.52935e+06 6.90657e+06 3.89045e+06 3.87089e+06 3.83478e+06 3.81135e+06 8.36097e+06 3.76684e+06 3.72134e+06
threshold=850.50000000000011 378.50000000000006 1590.5000000000002 0 1 2 3 526.77083333333337 4 5 6 7 362.68750000000006 8 9 417.14583333333343 10 11 582.93750000000011 724.81250000000011 12 13 14 15 16 2092.2500000000005 17 61.979166666666679 665.89583333333337 18
decision_type=2 2 2 1 1 1 1 2 1 1 1 1 2 1 1 2 1 1 2 2 1 1 1 1 1 2 1 2 2 1
left_child=1 6 4 5 10 28 11 24 -4 -7 13 19 26 -2 -6 29 -17 18 -12 -1 22 -22 25 -23 -5 -10 27 -13 -3 -16
right_child=2 3 8 7 14 9 -8 -9 20 -11 17 12 -14 -15 15 16 -18 -19 -20 -21 21 23 -24 -25 -26 -27 -28 -29 -30 -31
leaf_value=-9.2091536008075732 12.762059713326577 8.6064242638978072 -8.8710474323343345 -10.575101400663456 -0.097748117552127603 -3.4778152184348059 -3.8436250414990734 -5.9225720457996189 7.6926104909587032 4.3142935204529529 7.0053375768494108 -5.0855135201299282 2.6492980084785609 6.8369098204944905 4.7891745717447893 -9.5186587809347643 6.6353877330079705 3.3197512381149568 15.627994877034013 -0.33889906479879717 20.127797299248179 -0.19388140365481377 22.926187412813306 9.9186402139836751 0.90231912586824758 18.737944907317342 -4.8059914105164996 7.8420628762434408 22.174521328119546 -1.6506340940356043
leaf_weight=1495 4381 2613 152 290 2306 1539 81065 2216 838 4716 5378 1156 5951 2894 1922 194 9382 3386 782 1014 927 446 1062 2935 14482 503 4010 882 222 1671
leaf_count=1495 4381 2613 152 290 2306 1539 81065 2216 838 4716 5378 1156 5951 2894 1922 194 9382 3386 782 1014 927 446 1062 2935 14482 503 4010 882 222 1671
internal_value=0 -2.37611 7.42319 1.50291 6.30702 4.66083 -3.43454 -0.189466 12.6757 2.39461 8.14344 -1.14531 -0.209532 10.4177 4.30283 5.0729 6.30511 6.40118 8.08684 -5.60196 13.1573 11.112 16.7627 8.58802 0.670449 11.748 -3.02286 0.506761 9.63491 1.80294
internal_weight=0 121651 39159 26078 32296 9090 95573 16988 6863 6255 16821 14508 11999 7275 15475 13169 9576 9546 6160 2509 6711 4308 2403 3381 14772 1341 6048 2038 2835 3593
internal_count=160810 121651 39159 26078 32296 9090 95573 16988 6863 6255 16821 14508 11999 7275 15475 13169 9576 9546 6160 2509 6711 4308 2403 3381 14772 1341 6048 2038 2835 3593
cat_boundaries=0 1 2 3 4 5 6 7 8 9 10 11 12 13 14 15 16 17 18 19
cat_threshold=9088 59264 6158 448 262144 512 6534 64 25344 786432 64 53 6158 12800 104448 131072 64 1 33
is_linear=0
shrinkage=0.1


Tree=24
num_leaves=31
num_cat=20
split_feature=4 4 4 0 0 3 3 4 2 0 0 5 2 3 0 0 0 5 5 5 2 3 0 0 2 2 0 2 5 4
split_gain=2.30668e+08 4.46884e+07 1.68539e+07 1.23805e+07 9.28462e+06 9.48741e+06 8.58219e+06 7.57716e+06 7.40444e+06 1.02792e+07 9.2488e+06 7.31662e+06 6.67298e+06 7.53165e+06 6.43425e+06 5.927e+06 5.77518e+06 6.10162e+06 4.64011e+06 4.59832e+06 4.33595e+06 3.59781e+06 7.67101e+06 4.96523e+06 3.57234e+06 3.35062e+06 3.32576e+06 3.70727e+06 3.68779e+06 3.3084e+06
threshold=893.50000000000011 386.50000000000006 1607.5000000000002 0 1 2 3 10.500000000000002 4 5 6 587.84375000000011 7 8 9 10 11 514.17708333333337 147.20833333333334 796.41666666666674 12 13 14 15 16 17 18 19 309.56250000000006 649.50000000000011
decision_type=2 2 2 1 1 1 1 2 1 1 1 2 1 1 1 1 1 2 2 2 1 1 1 1 1 1 1 1 2 2
left_child=1 7 4 6 5 12 25 -1 9 -7 -10 26 13 -2 -8 -4 17 -9 -6 -20 -19 23 -23 -17 -16 -3 -5 -28 -29 -30
right_child=2 3 15 11 18 8 14 16 10 -11 -12 -13 -14 -15 24 21 -18 20 19 -21 -22 22 -24 -25 -26 -27 27 28 29 -31
leaf_value=-3.6143269019868174 2.9699186632432135 15.98613338650236 -8.5094826623698747 -2.0646955446216859 -11.284541701755135 8.2718234435674987 -3.0173987095135781 -1.3640401506080684 11.592890747877981 -25.486241541551742 3.9604565704312793 -6.5482280280412901 9.562748807038167 23.99186963402985 7.8952258975328737 10.877569652227152 -2.8751874405831308 11.869929560520472 4.8603262961355611 -7.0389429392231193 2.1380519927821222 7.2261204067522833 16.766348598638857 20.588855897923118 2.2297493149227061 7.1795414664870068 -8.7867820525910219 0.263934135251914 10.138410944717272 2.6962597399832045
leaf_weight=70689 239 547 141 3752 185 178 1656 7441 2369 168 4895 1588 4062 735 1693 1295 14729 552 17219 331 2556 2875 1226 1020 3294 2396 344 7862 700 4073
leaf_count=70689 239 547 141 3752 185 178 1656 7441 2369 168 4895 1588 4062 735 1693 1295 14729 552 17219 331 2556 2875 1226 1020 3294 2396 344 7862 700 4073
internal_value=0 -2.05875 6.94507 1.46358 5.95272 8.026 4.37306 -3.08297 5.77744 -8.37485 6.46213 -0.061252 11.4057 18.9161 2.37272 11.543 -1.59704 0.190105 4.46731 4.6359 3.91156 11.9783 10.112 15.2266 4.16503 8.86497 0.554414 1.31213 1.59382 3.78771
internal_weight=0 123872 36938 27905 30381 12646 9586 95967 7610 346 7264 18319 5036 974 6643 6557 25278 10549 17735 17550 3108 6416 4101 2315 4987 2943 16731 12979 12635 4773
internal_count=160810 123872 36938 27905 30381 12646 9586 95967 7610 346 7264 18319 5036 974 6643 6557 25278 10549 17735 17550 3108 6416 4101 2315 4987 2943 16731 12979 12635 4773
cat_boundaries=0 1 2 3 4 5 6 7 8 9 10 11 12 13 14 15 16 17 18 19 20
cat_threshold=9088 26368 6414 6158 64 768 1280 96 256 512 262144 9664 32 6158 246784 104448 97 96 786432 64
is_linear=0
shrinkage=0.1


Tree=25
num_leaves=31
num_cat=20
split_feature=4 4 4 0 0 0 2 2 5 3 0 0 3 5 5 0 2 3 0 0 5 2 5 5 0 3 2 0 5 0
split_gain=1.87289e+08 2.8754e+07 2.03359e+07 1.32616e+07 8.07509e+06 7.37756e+06 7.13959e+06 5.27435e+06 5.20324e+06 4.84233e+06 4.61391e+06 4.49667e+06 1.34822e+07 4.52154e+06 3.89865e+06 4.40366e+06 3.92759e+06 5.25007e+06 6.69355e+06 3.84612e+06 3.4385e+06 3.27918e+06 4.1598e+06 3.27405e+06 3.20633e+06 7.51391e+06 2.8781e+06 3.98418e+06 2.86947e+06 3.21247e+06
threshold=787.50000000000011 79.500000000000014 1248.5000000000002 0 1 2 3 4 580.60416666666686 5 6 7 8 705.39583333333337 288.97916666666669 9 10 11 12 13 67.937500000000014 14 373.89583333333343 580.60416666666686 15 16 17 18 482.60416666666669 19
decision_type=2 2 2 1 1 1 1 1 2 1 1 1 1 2 2 1 1 1 1 1 2 1 2 2 1 1 1 1 2 1
left_child=1 -1 5 26 -4 -2 11 8 20 -9 23 12 -6 -13 15 -11 17 -16 -19 -8 -5 22 -12 -7 25 -18 -3 -28 29 -23
right_child=2 3 4 7 6 10 19 9 -10 14 21 13 -14 -15 16 -17 24 18 -20 -21 -22 28 -24 -25 -26 -27 27 -29 -30 -31
leaf_value=-3.0512700436996987 10.821004727764297 -6.817489222379888 -2.8598081331308576 -0.42649095312069085 16.165428998348357 2.2471430373924011 10.422189409506345 11.59876686521855 16.778075718076042 -5.2043384054873236 3.1034775598189626 10.599701657947412 2.5542429134189177 16.728139603523228 7.2444921573408614 1.1060934635869126 -3.8760958899828526 -20.470201722220267 -1.896329682898098 5.2502835668472638 5.9501468203466406 -5.3916031234751136 6.956508752444698 -3.7454074844461172 2.3747402659588981 15.761687604367097 0.75294466994005316 -2.5137587675422104 4.145702923231215 2.0636953610158035
leaf_weight=82991 1451 1005 618 1168 1160 3499 1956 427 356 1857 4992 3829 1960 1756 431 2709 298 231 1032 5818 3064 759 6387 1233 6175 552 5875 10227 4677 2317
leaf_count=82991 1451 1005 618 1168 1160 3499 1956 427 356 1857 4992 3829 1960 1756 431 2709 298 231 1032 5818 3064 759 6387 1233 6175 552 5875 10227 4677 2317
internal_value=0 -2.03337 5.71118 0.352508 8.37568 3.91165 8.79344 2.22301 5.15574 1.23868 3.48555 10.7752 7.65029 12.5042 0.897217 -1.46935 2.13758 -2.17986 -5.42757 6.56329 4.19024 4.17769 5.26155 0.68424 3.17726 8.9119 -1.64877 -1.32214 2.58219 0.213289
internal_weight=0 118398 42412 35407 17097 25315 16479 18300 4588 13712 23864 8705 3120 5585 13285 4566 8719 1694 1263 7774 4232 19132 11379 4732 7025 850 17107 16102 7753 3076
internal_count=160810 118398 42412 35407 17097 25315 16479 18300 4588 13712 23864 8705 3120 5585 13285 4566 8719 1694 1263 7774 4232 19132 11379 4732 7025 850 17107 16102 7753 3076
cat_boundaries=0 1 2 3 4 5 6 7 8 9 10 11 12 13 14 15 16 17 18 19 20
cat_threshold=4134912 786432 256 48 33 4096 917504 197632 6158 896 64 2062 1024 9984 53 1088 2062 64 202752 6144
is_linear=0
shrinkage=0.1


Tree=26
num_leaves=31
num_cat=23
split_feature=4 4 0 4 0 2 5 0 2 3 2 0 5 0 0 3 0 2 3 5 0 2 3 0 0 4 3 3 0 0
split_gain=1.5257e+08 3.012e+07 1.14223e+07 1.12923e+07 8.11502e+06 5.28651e+06 5.38011e+06 4.40392e+06 5.57382e+06 3.99711e+06 4.50279e+06 6.47129e+06 3.91931e+06 5.0845e+06 3.57382e+06 3.75421e+06 4.0493e+06 3.53763e+06 3.15104e+06 3.04285e+06 5.63572e+06 3.4629e+06 6.53599e+06 1.12258e+07 5.86156e+06 3.64672e+06 2.89967e+06 2.73734e+06 2.67027e+06 2.57573e+06
threshold=906.50000000000011 175.50000000000003 0 1840.5000000000002 1 2 595.81250000000011 3 4 5 6 7 523.43750000000011 8 9 10 11 12 13 419.63541666666669 14 15 16 17 18 1241.5000000000002 19 20 21 22
decision_type=2 2 1 2 1 1 2 1 1 1 1 1 2 1 1 1 1 1 1 2 1 1 1 1 1 2 1 1 1 1
left_child=1 14 9 4 17 6 -4 26 12 10 -3 -12 -9 18 15 29 -17 -2 -14 20 -10 22 23 -21 -24 -26 -6 -7 -5 -1
right_child=3 2 5 28 7 27 -8 8 19 -11 11 -13 13 -15 -16 16 -18 -19 -20 21 -22 -23 24 -25 25 -27 -28 -29 -30 -31
leaf_value=2.1213850951324345 12.198591687109976 -6.2874760088204908 3.1148044279685756 2.7083711339041909 4.1456271389886199 9.6398793887750358 12.47959997755142 4.9178331604580023 -9.4127637573676157 -2.7564970530438373 9.875850024601263 0.1660357067368724 11.98054572657535 9.923620179195197 -2.9677900842413458 -1.264079205233402 -5.783035930984326 6.1849460018362095 -0.92131344545541749 29.905424819273108 3.4867171929638561 4.4065918134106834 3.988877738450102 -7.6563225423018952 -13.397754424704601 -40.016979704032082 -3.4091754743437903 0.14397004249885473 12.021058313960815 -1.3495865045096558
leaf_weight=3644 2111 812 11513 366 924 304 648 7813 496 8660 803 4422 237 4343 70684 5733 3037 1978 810 126 1015 11168 157 187 169 74 1104 9169 3160 5143
leaf_count=3644 2111 812 11513 366 924 304 648 7813 496 8660 803 4422 237 4343 70684 5733 3037 1978 810 126 1015 11168 157 187 169 74 1104 9169 3160 5143
internal_value=0 -1.65282 0.77052 5.71941 5.13985 2.23138 3.61084 4.53902 4.88223 -1.38044 0.594779 1.6743 6.34408 8.42323 -2.65056 -1.37095 -2.83377 9.31176 2.08488 3.43735 -0.786878 3.97748 -2.76693 7.92211 -11.1203 -20.6541 0.0364054 0.458549 11.0962 0.0906129
internal_weight=0 124572 36331 36238 32712 21634 12161 28623 26595 14697 6037 5225 13203 5390 88241 17557 8770 4089 1047 13392 1511 11881 713 313 400 243 2028 9473 3526 8787
internal_count=160810 124572 36331 36238 32712 21634 12161 28623 26595 14697 6037 5225 13203 5390 88241 17557 8770 4089 1047 13392 1511 11881 713 313 400 243 2028 9473 3526 8787
cat_boundaries=0 1 2 3 4 5 6 7 8 9 10 11 12 13 14 15 16 17 18 19 20 21 22 23
cat_threshold=2033728 8448 53 786432 49 6158 96 2048 131072 224 1008 160 101 4110 6144 64 6154 17920 512 2062 4096 393216 64
is_linear=0
shrinkage=0.1


Tree=27
num_leaves=31
num_cat=14
split_feature=4 4 0 4 0 5 4 2 0 5 2 5 2 0 2 5 5 0 4 5 5 5 2 0 3 5 5 2 0 5
split_gain=1.24e+08 2.67586e+07 8.38461e+06 6.81832e+06 6.10634e+06 5.79241e+06 5.56794e+06 4.48131e+06 4.14576e+06 4.89441e+06 3.54474e+06 5.27648e+06 3.2866e+06 4.16512e+06 3.04823e+06 3.54883e+06 2.84315e+06 2.86241e+06 3.35997e+06 2.79231e+06 2.71819e+06 2.63027e+06 2.58963e+06 4.77843e+06 5.09671e+06 2.91717e+06 2.47123e+06 2.42494e+06 5.19044e+06 2.21772e+06
threshold=436.50000000000006 1086.5000000000002 0 1873.5000000000002 1 356.18750000000006 4.5000000000000009 2 3 333.35416666666669 4 67.937500000000014 5 6 7 877.03125000000011 77.562500000000014 8 821.50000000000011 248.64583333333334 648.85416666666686 796.41666666666674 9 10 11 909.02083333333337 829.02083333333337 12 13 645.43750000000011
decision_type=2 2 1 2 1 2 2 1 1 2 1 2 1 1 1 2 2 1 2 2 2 2 1 1 1 2 2 1 1 2
left_child=6 2 20 4 -3 12 -1 29 9 10 11 -8 13 -4 15 -11 -14 18 19 -18 -2 27 23 24 -6 -24 -16 28 -9 -7
right_child=1 3 5 -5 22 7 8 21 -10 14 -12 -13 16 -15 26 -17 17 -19 -20 -21 -22 -23 25 -25 -26 -27 -28 -29 -30 -31
leaf_value=-2.7423677306098679 -0.36992489586975408 10.041565599767786 7.3978704390932144 10.251874643340731 -26.553566868830536 6.4811934714294512 -2.538986206803461 -9.2995093150071835 -1.7439109790521639 -4.2022725670353358 -4.3840346220281647 11.703992455307349 21.684062453957857 1.0833140511796449 4.404447619656449 15.60671851938846 -6.3529133894754821 1.3700699561629668 -10.954738767644795 0.45562205739537315 -5.9392821699433291 11.99660357014773 5.0101794130721702 10.348740598567479 0.039569060395403609 -16.374115858599545 35.966621315002442 3.2293064431459713 4.7015486666502353 16.676795922455035
leaf_weight=64718 7348 2472 1655 3232 108 3319 727 488 26450 798 2110 405 61 2836 3219 102 785 6073 388 2589 995 313 19703 174 195 64 25 8673 557 228
leaf_count=64718 7348 2472 1655 3232 108 3319 727 488 26450 798 2110 405 61 2836 3219 102 785 6073 388 2589 995 313 19703 174 195 64 25 8673 557 228
internal_value=0 3.50197 1.74933 5.95436 5.34292 2.57882 -2.19888 4.0612 -1.15936 0.935056 -1.97405 2.53439 1.18159 3.42159 3.21321 -1.93575 0.161417 0.02809 -2.13623 -1.12846 -1.0329 2.97078 4.76185 -2.50727 -9.98469 4.93844 4.6334 2.68313 -1.86292 7.1165
internal_weight=0 62256 36308 25948 22716 27965 98554 13578 33836 7386 3242 1132 14387 4491 4144 900 9896 9835 3762 3374 8343 10031 20244 477 303 19767 3244 9718 1045 3547
internal_count=160810 62256 36308 25948 22716 27965 98554 13578 33836 7386 3242 1132 14387 4491 4144 900 9896 9835 3762 3374 8343 10031 20244 477 303 19767 3244 9718 1045 3547
cat_boundaries=0 1 2 3 4 5 6 7 8 9 10 11 12 13 14
cat_threshold=1966080 8448 49 384 1 1 1920 64 6912 64 199680 1776 64 76800
is_linear=0
shrinkage=0.1


Tree=28
num_leaves=31
num_cat=17
split_feature=4 4 4 0 3 0 2 0 5 0 2 5 0 3 0 5 0 3 0 2 4 4 5 4 5 2 5 0 5 3
split_gain=1.00968e+08 2.11808e+07 7.33857e+06 7.16233e+06 6.92311e+06 5.41655e+06 5.22883e+06 4.48434e+06 4.27878e+06 4.0011e+06 3.86263e+06 4.91454e+06 3.74247e+06 3.72969e+06 3.69844e+06 3.03715e+06 2.94181e+06 6.35113e+06 2.90269e+06 3.00916e+06 2.60443e+06 2.55529e+06 2.49351e+06 2.3688e+06 2.13094e+06 2.07009e+06 1.9913e+06 1.96198e+06 3.9942e+06 2.35818e+06
threshold=933.50000000000011 400.50000000000006 1310.5000000000002 0 1 2 3 4 578.10416666666686 5 6 475.18750000000006 7 8 9 639.35416666666686 10 11 12 13 30.500000000000004 2092.2500000000005 710.40625000000011 115.50000000000001 686.22916666666686 14 776.98958333333337 15 129.06250000000003 16
decision_type=2 2 2 1 1 1 1 1 2 1 1 2 1 1 1 2 1 1 1 1 2 2 2 2 2 1 2 1 2 1
left_child=1 9 7 4 24 13 26 -2 -5 10 22 23 -6 -4 -8 -14 -13 20 19 -19 -18 -16 -1 -12 -3 -15 -7 28 -9 -29
right_child=2 3 5 8 12 6 14 27 -10 -11 11 16 15 25 21 -17 17 18 -20 -21 -22 -23 -24 -25 -26 -27 -28 29 -30 -31
leaf_value=-5.8268202789124572 11.034887255308549 7.3607547162986853 14.737308054483908 0.40271271898721483 -1.7655081620682305 -22.471447763332492 -2.9271487939765519 -19.815674288876085 -4.7302996173442677 -2.3738976739441906 -2.2099507380079215 5.531253112462549 2.2924236710822092 10.127109864740966 5.3830281352214158 9.2798565101416628 -3.6399626165560512 14.659583994933005 0.23477801334011264 3.9379295392364186 -22.29307546110093 10.304050512587155 -0.64345754413298129 1.0516556320053916 19.184356378858741 4.7837457593918362 -1.6008320453319145 2.6527083709478139 2.2406744480458443 5.4871629591741602
leaf_weight=2289 764 2001 1065 17701 2103 89 487 83 1788 74556 9101 1736 4877 1683 8438 713 1426 341 1493 1143 79 1206 1561 2948 165 1392 94 5999 7602 5887
leaf_count=2289 764 2001 1065 17701 2103 89 487 83 1788 74556 9101 1736 4877 1683 8438 713 1426 341 1493 1143 79 1206 1561 2948 165 1392 94 5999 7602 5887
internal_value=0 -1.30923 4.77639 1.04372 3.23847 6.4991 5.25411 3.5519 -0.0681757 -2.02354 -0.841048 -0.233508 1.82606 9.56497 5.56098 3.17798 2.04964 0.687239 3.36084 6.48323 -4.58861 5.9922 -3.71555 -1.41194 8.22348 7.73161 -11.1422 3.25248 1.99986 4.06001
internal_weight=0 126021 34789 29348 9859 14454 10314 20335 19489 96673 22117 18267 7693 4140 10131 5590 6218 4482 2977 1484 1505 9644 3850 12049 2166 3075 183 19571 7685 11886
internal_count=160810 126021 34789 29348 9859 14454 10314 20335 19489 96673 22117 18267 7693 4140 10131 5590 6218 4482 2977 1484 1505 9644 3850 12049 2166 3075 183 19571 7685 11886
cat_boundaries=0 1 2 3 4 5 6 7 8 9 10 11 12 13 14 15 16 17
cat_threshold=9088 6150 25344 64 256 1504 64 512 6158 262144 384 6158 64 32 33 923648 1648
is_linear=0
shrinkage=0.1


Tree=29
num_leaves=31
num_cat=21
split_feature=4 4 4 0 0 3 5 0 3 5 2 0 0 3 3 0 0 2 0 5 3 2 2 0 2 4 0 3 5 4
split_gain=8.2166e+07 1.38774e+07 8.36077e+06 6.35817e+06 4.96926e+06 4.77691e+06 4.72074e+06 4.32577e+06 3.6822e+06 4.27028e+06 3.41493e+06 4.11599e+06 3.774e+06 4.50732e+06 3.97456e+06 3.36518e+06 3.13504e+06 2.65186e+06 2.60389e+06 2.59737e+06 2.54461e+06 2.37429e+06 2.12884e+06 2.36365e+06 2.12103e+06 2.04448e+06 2.00359e+06 6.37452e+06 1.9922e+06 1.879e+06
threshold=835.50000000000011 79.500000000000014 1270.5000000000002 0 1 2 710.40625000000011 3 4 627.22916666666686 5 6 7 8 9 10 11 12 13 705.39583333333337 14 15 16 17 18 355.50000000000006 19 20 299.72916666666669 429.50000000000006
decision_type=2 2 2 1 1 1 2 1 1 2 1 1 1 1 1 1 1 1 1 2 1 1 1 1 1 2 1 1 2 2
left_child=1 -1 7 22 5 17 24 21 9 15 11 20 13 -12 -14 -5 -7 -4 -19 -18 -10 -2 -3 28 -6 -16 27 -26 -24 -13
right_child=2 3 4 8 6 16 -8 -9 10 -11 12 29 14 -15 25 -17 19 18 -20 -21 -22 -23 23 -25 26 -27 -28 -29 -30 -31
leaf_value=-2.0156371579196732 14.311245624910937 -5.4466551876955878 3.7117996184100619 -3.1155616275479479 7.7693888544394554 3.5348247474520869 11.103602549160001 2.4340085237410136 0.44094014423234129 15.464024718024513 2.2739822304364372 -4.1509900698057534 -1.0658057817560873 -2.379127341777886 2.1495887559373164 5.2624546131562377 1.1621365484320041 16.231921103875905 5.8463662995395254 -7.555604073532372 -19.036864380557169 4.9769932510232229 -0.62179258746835508 -1.7162954709370375 -8.8540078047654038 6.2815190494643964 5.4379166509550902 8.7274342208662468 2.9590372720980676 3.6105393087233071
leaf_weight=82991 453 1029 977 610 3380 2943 2292 22572 102 330 4246 724 1644 4065 2007 2171 900 513 524 551 229 761 4256 10545 407 2969 3226 398 2447 548
leaf_count=82991 453 1029 977 610 3380 2943 2292 22572 102 330 4246 724 1644 4065 2007 2171 900 513 524 551 229 761 4256 10545 407 2969 3226 398 2447 548
internal_value=0 -1.29146 3.94209 0.293389 5.70104 3.52071 7.12998 2.7507 1.5419 4.69365 0.946396 -3.42664 1.41787 -0.00202807 3.19777 3.43249 1.66238 7.54684 11.09 -2.13362 -13.1977 8.5485 -1.04884 -0.783468 5.91067 4.60571 4.32214 -0.161139 0.684406 -0.80089
internal_weight=0 120913 39897 37922 16111 6408 9703 23786 19645 3111 16534 1603 14931 8311 6620 2781 4394 2014 1037 1451 331 1214 18277 17248 7411 4976 4031 805 6703 1272
internal_count=160810 120913 39897 37922 16111 6408 9703 23786 19645 3111 16534 1603 14931 8311 6620 2781 4394 2014 1037 1451 331 1214 18277 17248 7411 4976 4031 805 6703 1272
cat_boundaries=0 1 2 3 4 5 6 7 8 9 10 11 12 13 14 15 16 17 18 19 20 21
cat_threshold=4134912 985088 4110 256 6146 64 1024 25344 1292 268 33792 67584 96 133120 1036 97 64 202752 33 4608 6222
is_linear=0
shrinkage=0.1


Tree=30
num_leaves=31
num_cat=19
split_feature=4 4 2 0 5 0 3 3 0 5 4 5 3 0 0 0 5 0 0 5 2 5 2 3 0 3 2 3 4 4
split_gain=6.70567e+07 1.38026e+07 5.56111e+06 7.58879e+06 7.58192e+06 5.30135e+06 5.09601e+06 4.7449e+06 4.12768e+06 3.11064e+06 2.98459e+06 2.3813e+06 2.34513e+06 3.92202e+06 2.96992e+06 2.34248e+06 2.18173e+06 2.77095e+06 2.13044e+06 4.1228e+06 2.41711e+06 3.4899e+06 2.56241e+06 2.1183e+06 2.11683e+06 1.97847e+06 3.40234e+06 6.72241e+06 2.23834e+06 1.88514e+06
threshold=933.50000000000011 408.50000000000006 0 1 585.56250000000011 2 3 4 5 587.84375000000011 3.5000000000000004 648.85416666666686 6 7 8 9 401.31250000000006 10 11 403.81250000000006 12 67.937500000000014 13 14 15 16 17 18 1241.5000000000002 1807.5000000000002
decision_type=2 2 1 1 2 1 1 1 1 2 2 2 1 1 1 1 2 1 1 2 1 2 1 1 1 1 1 1 2 2
left_child=1 10 3 7 -5 6 -3 24 -8 -7 -1 -10 14 -14 -6 25 17 -17 19 20 21 -12 -23 -9 -2 -4 27 -27 -29 -26
right_child=2 5 15 4 12 9 8 23 11 -11 18 -13 13 -15 -16 16 -18 -19 -20 -21 -22 22 -24 -25 29 26 -28 28 -30 -31
leaf_value=-2.0433876198319099 8.5202921318400939 6.2244719920409874 13.797505952841986 4.2769514830093112 19.245018830456956 0.27737610828706633 -3.0006959408044609 -8.5489985477754242 1.8605306591403623 -4.2709488991566387 -3.2286934378290493 8.4370689053793217 14.337906749773381 5.8116810895747752 9.4861961224260316 -9.2848472838253944 2.2261635339210311 1.6404216557842535 -1.5153444867277652 1.9518798514243725 -3.0831428732811781 7.6345078277846277 -0.71041203133899911 -0.74247154005380345 2.3037004898081315 12.435845309750647 5.0789993821222792 -11.391739559173585 -35.885490539617706 -18.019411277770995
leaf_weight=63251 756 2942 221 9945 425 17613 1708 463 4416 1644 1213 629 660 3196 1556 377 11234 578 20591 6338 4186 832 658 1338 666 107 3053 108 57 49
leaf_count=63251 756 2942 221 9945 425 17613 1708 463 4416 1644 1213 629 660 3196 1556 377 11234 578 20591 6338 4186 832 658 1338 666 107 3053 108 57 49
internal_value=0 -1.06638 3.89309 5.04266 5.95237 0.849905 2.75553 0.650009 1.23729 -0.110864 -1.63793 2.67518 8.81713 7.30436 11.666 2.49625 1.83458 -2.75253 -0.879596 0.111161 -1.58217 0.750938 3.99577 -2.78549 4.84663 4.75911 4.1188 -6.45669 -18.7187 0.898363
internal_weight=0 126021 34789 19054 15782 28952 9695 3272 6753 19257 97069 5045 5837 3856 1981 15735 12189 955 33818 13227 6889 2703 1490 1801 1471 3546 3325 272 165 715
internal_count=160810 126021 34789 19054 15782 28952 9695 3272 6753 19257 97069 5045 5837 3856 1981 15735 12189 955 33818 13227 6889 2703 1490 1801 1471 3546 3325 272 165 715
cat_boundaries=0 1 2 3 4 5 6 7 8 9 10 11 12 13 14 15 16 17 18 19
cat_threshold=49 917504 9088 6158 6158 512 6666 4352 1792 9472 6144 1488 33 1 1536 131072 4096 64 2190
is_linear=0
shrinkage=0.1


Tree=31
num_leaves=31
num_cat=19
split_feature=4 4 0 2 0 5 2 5 3 3 0 2 5 5 5 5 3 0 0 3 0 5 0 3 0 0 2 4 3 5
split_gain=5.4365e+07 1.12854e+07 5.40532e+06 4.5085e+06 6.15551e+06 6.16655e+06 4.12106e+06 4.21252e+06 3.88879e+06 2.90545e+06 2.63002e+06 4.33194e+06 2.25772e+06 2.10788e+06 2.0148e+06 2.00474e+06 1.94744e+06 4.16002e+06 3.39095e+06 1.8894e+06 2.14163e+06 2.36773e+06 2.04291e+06 4.22892e+06 4.30438e+06 4.21353e+06 3.18214e+06 3.18202e+06 1.78141e+06 1.68038e+06
threshold=933.50000000000011 79.500000000000014 0 1 2 585.56250000000011 3 340.18750000000006 4 5 6 7 807.06250000000011 88.916666666666671 129.06250000000003 606.30208333333337 8 9 10 11 12 755.64583333333337 13 14 15 16 17 1329.5000000000002 18 694.27083333333337
decision_type=2 2 1 1 1 2 1 2 1 1 1 1 2 2 2 2 1 1 1 1 1 2 1 1 1 1 1 2 1 2
left_child=1 -1 9 4 8 -6 7 -4 -2 10 11 -3 13 -8 -5 -9 18 -18 -7 20 21 -16 23 25 -25 -21 27 28 -24 -10
right_child=3 2 6 14 5 16 12 15 29 -11 -12 -13 -14 -15 19 -17 17 -19 -20 22 -22 -23 26 24 -26 -27 -28 -29 -30 -31
leaf_value=-1.641104700047622 -5.9484279951665044 -11.074630800613576 1.1673031606904491 25.24801014097083 3.8492563310064387 17.917643285875759 14.991328949007121 3.9888966318268979 4.2738356034398413 -2.0173881260888846 -0.5257965145482647 5.4425948349899835 7.3449187890616887 -0.54998704542698373 4.7911737666173178 9.8479146893869434 13.821971191272823 4.7995818305884104 8.1842733222190311 8.6170322445486871 1.6783075972331911 14.079133938440362 5.902465079470379 8.9161489192177275 -11.023132195193384 -3.0903622985057941 2.4662845869877175 -30.984136384487154 -10.119030302036101 -1.093136625238029
leaf_weight=82991 704 167 9151 38 9945 471 88 4251 1672 10697 5431 1643 388 10537 2005 677 623 2939 1804 544 2233 318 113 126 596 684 8874 50 154 896
leaf_count=82991 704 167 9151 38 9945 471 88 4251 1672 10697 5431 1643 388 10537 2005 677 623 2939 1804 544 2233 318 113 126 596 684 8874 50 154 896
internal_value=0 -0.959696 0.354521 3.50584 4.54092 5.36023 1.30188 2.43494 0.584773 -0.97084 0.575857 3.86615 -0.147523 -0.421268 2.24813 4.7938 7.9438 6.41189 10.269 2.19388 3.90887 6.03663 1.48771 -1.44811 -7.46916 2.12369 2.11148 -7.59243 -3.49632 2.39193
internal_weight=0 126021 43030 34789 19054 15782 25092 14079 3272 17938 7241 1810 11013 10625 15735 4928 5837 3562 2275 15697 4556 2323 11141 1950 722 1228 9191 317 267 2568
internal_count=160810 126021 43030 34789 19054 15782 25092 14079 3272 17938 7241 1810 11013 10625 15735 4928 5837 3562 2275 15697 4556 2323 11141 1950 722 1228 9191 317 267 2568
cat_boundaries=0 1 2 3 4 5 6 7 8 9 10 11 12 13 14 15 16 17 18 19
cat_threshold=4130816 49 917504 53 1552 6158 133120 64 6670 4352 1792 4480 30464 528896 1648 512 4096 64 2058
is_linear=0
shrinkage=0.1


Tree=32
num_leaves=31
num_cat=21
split_feature=4 4 4 0 2 3 0 0 5 0 3 4 3 0 2 2 5 5 3 0 0 2 2 0 5 3 5 0 3 2
split_gain=4.42789e+07 7.90824e+06 4.74562e+06 3.5955e+06 4.65562e+06 4.29599e+06 3.29581e+06 3.11153e+06 2.83216e+06 2.63875e+06 2.39991e+06 2.42104e+06 2.35949e+06 4.1081e+06 2.53618e+06 2.34292e+06 3.78921e+06 2.1662e+06 2.05128e+06 2.57057e+06 1.99043e+06 1.92623e+06 1.88729e+06 1.81828e+06 1.63291e+06 1.62744e+06 1.6203e+06 2.72906e+06 5.5782e+06 1.92056e+06
threshold=636.50000000000011 1213.5000000000002 10.500000000000002 0 1 2 3 4 890.90625000000011 5 6 1485.5000000000002 7 8 9 10 560.43750000000011 829.02083333333337 11 12 13 14 15 16 829.02083333333337 17 282.81250000000006 18 19 20
decision_type=2 2 2 1 1 1 1 1 2 1 1 2 1 1 1 1 2 2 1 1 1 1 1 1 2 1 2 1 1 1
left_child=2 7 -1 5 10 -3 8 18 15 24 -5 -12 13 -9 20 -4 26 -11 19 -2 25 -7 -18 -16 -6 -14 29 28 -28 -17
right_child=1 3 6 4 9 21 -8 12 -10 17 11 -13 14 -15 23 16 22 -19 -20 -21 -22 -23 -24 -25 -26 -27 27 -29 -30 -31
leaf_value=-1.6124533424907768 2.962267249351354 11.001489562026793 -2.2490217008777926 0.4465995900771198 0.41220806887821682 2.3673028496333117 -0.91067021851760899 -1.2350995158090972 19.892498847804493 3.4713899525227507 -14.257856286310517 -50.51695723100142 2.6649098155572086 13.248341250524948 2.1029618893636459 2.0803340302763114 12.986300900699087 9.2690632786743805 -2.045493299185166 -4.5308032836044871 3.4634401104758794 6.77334704296468 4.1331156573586219 -0.61478875116695986 -10.425123846343675 -0.99129058424024441 28.568889751272685 1.4920863402545912 1.4936177938372763 -1.7653464584841398
leaf_weight=70689 2355 1412 2002 126 511 2043 25582 335 79 11706 113 22 2647 471 4382 2053 336 682 3618 559 9873 1992 916 5596 191 2242 108 4442 231 3496
leaf_count=70689 2355 1412 2002 126 511 2043 25582 335 79 11706 113 22 2647 471 4382 2053 336 682 3618 559 9873 1992 916 5596 191 2242 108 4442 231 3496
internal_value=0 2.44516 -1.1229 4.07382 3.18204 6.24234 -0.241116 1.49075 1.01245 3.44863 -9.82204 -18.7759 1.98832 7.28718 1.81281 0.903399 1.449 3.78751 -0.457553 1.51427 2.64537 4.55385 6.64579 0.579666 -2.50079 0.989647 0.82055 2.16981 10.6908 -0.341967
internal_weight=0 50876 109934 18798 13351 5447 39245 32078 13663 13090 261 135 25546 806 24740 13584 11582 12388 6532 2914 14762 4035 1252 9978 702 4889 10330 4781 339 5549
internal_count=160810 50876 109934 18798 13351 5447 39245 32078 13663 13090 261 135 25546 806 24740 13584 11582 12388 6532 2914 14762 4035 1252 9978 702 4889 10330 4781 339 5549
cat_boundaries=0 1 2 3 4 5 6 7 8 9 10 11 12 13 14 15 16 17 18 19 20 21
cat_threshold=25344 64 6158 173448 917504 786432 4096 4096 103424 53 64 6158 393216 100480 30 32 99712 2638 1024 1584 1
is_linear=0
shrinkage=0.1


Tree=33
num_leaves=31
num_cat=23
split_feature=4 4 0 3 0 5 2 5 3 2 0 2 0 3 3 2 0 0 2 5 0 3 0 4 2 0 5 2 0 0
split_gain=3.64742e+07 7.78614e+06 3.39721e+06 4.20785e+06 3.29117e+06 4.13387e+06 3.83528e+06 3.67549e+06 3.00857e+06 3.31979e+06 3.09038e+06 2.80423e+06 3.92553e+06 6.31005e+06 2.67547e+06 3.13748e+06 3.08387e+06 2.6163e+06 2.57419e+06 2.26035e+06 2.0659e+06 2.72468e+06 4.39661e+06 3.90276e+06 2.10862e+06 2.75982e+06 2.40268e+06 1.75999e+06 5.45788e+06 1.69806e+06
threshold=954.50000000000011 408.50000000000006 0 1 2 705.39583333333337 3 129.06250000000003 4 5 6 7 8 9 10 11 12 13 14 279.39583333333343 15 16 17 30.500000000000004 18 19 534.31250000000011 20 21 22
decision_type=2 2 1 1 1 2 1 2 1 1 1 1 1 1 1 1 1 1 1 2 1 1 1 2 1 1 2 1 1 1
left_child=1 20 3 -3 6 14 -2 -8 10 17 -7 12 13 -4 16 -16 -6 -10 -5 -17 21 22 23 -1 25 26 -23 28 -18 -29
right_child=4 2 11 18 5 8 7 -9 9 -11 -12 -13 -14 -15 15 19 27 -19 -20 -21 -22 24 -24 -25 -26 -27 -28 29 -30 -31
leaf_value=-4.3899818989233585 -11.613217723369599 6.0168069418708807 10.045129512703937 2.8621135599583685 -1.3554866326419739 8.1917363247978567 -20.016803741455078 2.1730353965323492 4.9926792368292814 7.1902872796886061 23.33283358707763 0.31904084093855434 -1.2249796954459176 -17.080965348094775 6.7844962203142734 30.329318192004962 -8.1026736780402384 -15.454121609032155 -0.76603973073553344 2.8117526105839645 -1.4859926905071139 2.3115201685979003 -0.55494835249890695 -20.367227417085232 -0.92465693780215907 0.27793060749215048 9.2681141534197504 6.41211903241489 8.8474848106909896 1.3915607450440288
leaf_weight=2256 198 2182 105 3914 2216 435 75 15817 118 1510 218 17670 1870 387 3334 30 438 118 3895 5999 70820 1847 7522 164 7230 6551 679 1780 320 1112
leaf_count=2256 198 2182 105 3914 2216 435 75 15817 118 1510 218 17670 1870 387 3334 30 438 118 3895 5999 70820 1847 7522 164 7230 6551 679 1780 320 1112
internal_value=0 -0.769877 0.637515 2.14262 2.92976 3.87412 1.89156 2.06701 7.73463 5.46137 13.5222 -0.114174 -3.34271 -11.2071 3.26852 4.31718 1.58465 -5.44335 1.05379 2.9438 -1.20518 -0.446798 -1.75079 -5.45022 0.348803 1.36304 4.16499 3.3685 -0.924906 4.49312
internal_weight=0 127092 30023 9991 33718 17628 16090 15892 2399 1746 653 20032 2362 492 15229 9363 5866 236 7809 6029 97069 26249 9942 2420 16307 9077 2526 3650 758 2892
internal_count=160810 127092 30023 9991 33718 17628 16090 15892 2399 1746 653 20032 2362 492 15229 9363 5866 236 7809 6029 97069 26249 9942 2420 16307 9077 2526 3650 758 2892
cat_boundaries=0 1 2 3 4 5 6 7 8 9 10 11 12 13 14 15 16 17 18 19 20 21 22 23
cat_threshold=9088 6150 989184 64 6154 64 57344 96 1024 6150 624 97 16896 768 101 1264 6158 64 51 1088 96 33792 33792
is_linear=0
shrinkage=0.1


Tree=34
num_leaves=31
num_cat=20
split_feature=4 4 0 0 3 2 5 2 2 0 0 2 5 3 5 2 0 3 5 0 0 2 5 4 5 0 2 0 5 2
split_gain=2.95606e+07 6.38025e+06 3.47816e+06 2.81722e+06 6.79868e+06 5.07115e+06 2.99204e+06 2.61366e+06 2.58918e+06 2.97516e+06 2.44651e+06 2.42816e+06 2.85732e+06 2.40615e+06 2.37142e+06 3.22823e+06 3.06041e+06 5.15268e+06 3.1897e+06 2.68398e+06 2.1951e+06 5.20215e+06 2.02922e+06 2.02323e+06 2.01318e+06 1.90302e+06 1.9447e+06 1.87963e+06 1.67758e+06 1.83283e+06
threshold=954.50000000000011 68.500000000000014 0 1 2 3 135.39583333333334 4 5 6 7 8 356.18750000000006 9 417.14583333333343 10 11 12 612.02083333333337 13 14 15 710.40625000000011 1473.5000000000002 715.18750000000011 16 17 18 829.02083333333337 19
decision_type=2 2 1 1 1 1 2 1 1 1 1 1 2 1 2 1 1 1 2 1 1 1 2 2 2 1 1 1 2 1
left_child=1 -1 13 4 5 10 -5 -8 9 -6 -2 12 -4 20 15 -9 17 27 -18 -17 21 -3 -19 -11 25 -10 -27 -16 29 -13
right_child=3 2 11 6 8 -7 7 14 24 23 -12 28 -14 -15 16 19 18 22 -20 -21 -22 -23 -24 -25 -26 26 -28 -29 -30 -31
leaf_value=-1.2160778076316385 8.849729755986294 -9.8799032388948937 1.1177132652219801 -16.313567397859362 4.3730834705901875 5.2159890047158122 -8.300042287484418 2.1441602881009332 3.7070549320053114 -10.780533520522573 20.001249559947823 -2.6043967540535946 4.71323400229518 -1.8599755776512534 4.9823878947375304 -9.6364483557835676 2.2317317355281556 -0.81944445501548846 5.7083613119319478 -0.37924730757120073 -0.53472575252334764 5.4994702994265232 -7.1267389293513013 -41.819917678833008 7.0910156727001397 3.6264317803500479 -0.7680756472590613 -7.4586072457559185 7.406840820346452 0.46839430912333468
leaf_weight=82249 483 245 8162 90 155 2206 236 2010 4923 168 418 2236 3031 9977 1969 532 7386 2127 4106 756 4940 1645 671 24 998 1572 2766 122 316 14291
leaf_count=82249 483 245 8162 90 155 2206 236 2010 4923 168 418 2236 3031 9977 1969 532 7386 2127 4106 756 4940 1645 671 24 998 1572 2766 122 316 14291
internal_value=0 -0.692909 0.266663 2.6377 3.74243 7.85437 1.87761 1.96077 2.53159 -5.86344 14.186 0.948377 2.08949 -0.870561 2.08698 -0.358476 2.58059 0.479814 3.47088 -4.24766 0.575344 3.46434 -2.32372 -13.9347 2.82097 2.36386 0.829079 4.22447 0.18926 0.0513724
internal_weight=0 127092 44843 33718 13713 3107 20005 19915 10606 347 901 28036 11193 16807 19679 3298 16381 4889 11492 1288 6830 1890 2798 192 10259 9261 4338 2091 16843 16527
internal_count=160810 127092 44843 33718 13713 3107 20005 19915 10606 347 901 28036 11193 16807 19679 3298 16381 4889 11492 1288 6830 1890 2798 192 10259 9261 4338 2091 16843 16527
cat_boundaries=0 1 2 3 4 5 6 7 8 9 10 11 12 13 14 15 16 17 18 19 20
cat_threshold=4065280 26368 6150 96 64 64 768 24576 49 6158 33 917504 6158 6144 133120 96 9472 33 393216 64
is_linear=0
shrinkage=0.1


Tree=35
num_leaves=31
num_cat=18
