tree
version=v4
num_class=1
num_tree_per_iteration=1
label_index=0
max_feature_idx=9
objective=regression
feature_names=hour day dayofweek month lag1 lag24 lag168 lag720 rolling_mean_24 rolling_mean_168
feature_infos=-1:23:0:1:2:3:4:5:6:7:8:9:10:11:12:13:14:15:16:17:18:19:20:21:22 [1:31] -1:0:1:2:3:6:5:4 -1:3:1:5:7:8:10:4:6:9:2:12:11 [0:4369] [0:4369] [0:4369] [0:4369] [0:1508.6666666666667] [0:952.11904761904759]
tree_sizes=2901 2908 2892 2895 2888 2896 2866 2898 2851 2873 2866 2822 2859 2829 2851 2823 2832 2823 2834 2805 2802 2788 2807 2810 2813 2803 2791 2841 2777 2778 2786 2787 2793 2789 2798 2785 2821 2780 2786 2785 2775 2770 2726 2763 2733 2708 2734 2703 2710 2689 2677 2707 2681 2762 2665 2672 2777 2725 2666 2661 2668 2684 2684 2711 2662 2655 2626 2703 2701 2706 2650 2721 2679 2693 2715 2711 2640 2650 2644 2746 2659 2646 2676 2653 2686 2591 2735 2658 2674 2654 2664 2599 2666 2686 2613 2740 2603 2675 2712 2589 2651 2657 2671 2691 2683 2650 2688 2648 2665 2654 2628 2734 2622 2655 2691 2689 2642 2617 2650 2650 2616 2621 2613 2627 2635 2685 2742 2651 2734 2656 2604 2678 2654 2604 2724 2668 2714 2679 2615 2661 2692 2722 2656 2651 2645 2684 2664 2700 2710 2693 2695 2716 2636 2679 2637 2699 2676 2722 2612 2640 2656 2671 2656 2730 2613 2645 2697 2668 2614 2619 2631 2680 2674 2642 2700 2665 2701 2653 2658 2698 2691 2673 2674 2663 2641 2631 2607 2647 2641 2676 2663 2620 2716 2744 2627 2718 2704 2698 2609 2677 2723 2670 2630 2643 2645 2677 2679 2710 2717 2677 2652 2636 2626 2635 2721 2625 2677 2695 2651 2668 2594 2734 2627 2662 2688 2614 2623 2632 2668 2735 2660 2652 2613 2656 2673 2681 2626 2700 2707 2619 2676 2632 2681 2639 2727 2630 2667 2645 2662 2645 2714 2691 2666 2660 2673 2663 2706 2687 2657 2682 2633 2664 2655 2689 2678 2704 2710 2651 2655 2701 2684 2621 2650 2689 2677 2630 2625 2621 2649 2637 2654 2678 2660 2693 2666 2625 2635 2705 2648 2622 2635 2748 2654 2677 2675 2640 2736 2680 2677 2656 2649 2704 2651 2653 2749 2615 2646 2692 2681 2637 2636 2619 2679 2620 2685 2684 2666 2615 2698 2631 2634 2668 2635 2677 2716 2686 2654 2713 2648 2606 2661 2621 2655 2626 2647 2643 2633 2685 2636 2688 2662 2665 2670 2662 2682 2672 2615 2619 2624 2608 2670 2648 2679 2683 2682 2655 2693 2643 2690 2648 2666 2696 2650 2706 2641 2670 2622 2728 2609 2641 2669 2680 2649 2696 2690 2642 2691 2692 2689 2647 2646 2645 2639 2652 2686 2674 2656 2629 2673 2677 2672 2639 2735 2691 2689 2684 2692 2679 2688 2677 2615 2713 2666 2644 2666 2677 2725 2665 2686 2689 2679 2645 2636 2687 2668 2663 2655 2673 2692 2699 2653 2675 2656 2627 2684 2667 2653 2637 2668 2682 2642 2713 2700 2696 2669 2638 2629 2692 2697 2737 2687 2648 2689 2663 2715 2664 2614 2706 2645 2661 2656 2694 2669 2619 2674 2698 2665 2725 2662 2704 2635 2692 2691 2606 2644 2652 2709 2643 2695 2630 2636 2675 2680 2683 2615 2669 2631 2622 2663 2640 2642 2663 2643 2653 2712 2675 2688 2656 2700 2644 2650 2645 2654 2704 2648 2659 2641 2640 2679 2643

Tree=0
num_leaves=31
num_cat=1
split_feature=6 6 6 4 6 4 4 6 4 4 4 4 6 6 6 0 6 6 4 6 4 4 4 6 4 8 6 4 6 6
split_gain=3.79837e+10 4.41143e+09 2.70263e+09 1.11672e+09 1.0619e+09 7.64219e+08 2.44388e+08 2.14003e+08 1.82182e+08 1.75167e+08 1.53545e+08 1.36755e+08 1.31861e+08 1.08112e+08 1.0033e+08 9.99716e+07 6.96899e+07 6.36266e+07 4.90127e+07 4.50801e+07 4.47529e+07 4.21822e+07 4.04693e+07 3.27736e+07 3.17904e+07 3.09337e+07 2.75566e+07 2.55509e+07 1.95482e+07 1.88638e+07
threshold=612.50000000000011 1297.5000000000002 242.50000000000003 1826.5000000000002 915.50000000000011 891.50000000000011 1373.5000000000002 2330.5000000000005 1052.5000000000002 407.50000000000006 271.50000000000006 57.500000000000007 431.50000000000006 47.500000000000007 782.50000000000011 0 1654.5000000000002 62.500000000000007 2228.5000000000005 1121.5000000000002 1500.5000000000002 9.5000000000000018 2739.5000000000005 1068.5000000000002 6.5000000000000009 561.02083333333337 1862.5000000000002 1416.5000000000002 532.50000000000011 1561.5000000000002
decision_type=2 2 2 2 2 2 2 2 2 2 2 2 2 2 2 1 2 2 2 2 2 2 2 2 2 2 2 2 2 2
left_child=2 4 5 6 14 9 10 18 11 17 -3 -6 -4 20 21 -11 -8 -1 26 -10 -7 -2 -9 -13 -16 -12 -5 -21 -14 -27
right_child=1 3 12 7 8 13 16 22 19 15 25 23 28 -15 24 -17 -18 -19 -20 27 -22 -23 -24 -25 -26 29 -28 -29 -30 -31
leaf_value=392.45291750052627 398.25582659556966 396.58292855554203 427.67595131587842 571.5654745402893 396.65274779431093 498.55806321420141 543.58472584381786 636.86072127237117 504.58036923163138 409.7633581858596 519.33349144172212 488.94674694330837 441.0804308055495 429.28184300556859 392.03839615396026 465.0061614301236 566.70292690265399 403.74202770659542 613.1705344583246 514.07091905089646 564.59141997840993 462.59970855338355 690.12298912234155 500.73574616615645 478.29164964777215 527.85465204142042 595.85651750188811 530.19271379369275 449.94146166694566 546.60884697065842
leaf_weight=81104 103 94 7818 1124 146 474 3328 539 5000 3565 3452 5321 5671 208 43 354 2144 5320 664 4617 131 9420 194 4235 6837 1615 799 1249 4438 803
leaf_count=81104 103 94 7818 1124 146 474 3328 539 5000 3565 3452 5321 5671 208 43 354 2144 5320 664 4617 131 9420 194 4235 6837 1615 799 1249 4438 803
internal_value=435.402 505.979 401.934 552.204 487.529 394.954 537.381 603.261 502.664 394.086 523.379 492.704 437.428 491.474 468.551 414.764 552.643 393.148 589.746 511.557 512.856 461.904 650.957 494.171 477.753 525.409 581.658 517.504 444.971 534.083
internal_weight=0 51727 109083 14756 36971 91156 11436 3320 20568 90343 5964 9702 17927 813 16403 3919 5472 86424 2587 10866 605 9523 733 9556 6880 5870 1923 5866 10109 2418
internal_count=160810 51727 109083 14756 36971 91156 11436 3320 20568 90343 5964 9702 17927 813 16403 3919 5472 86424 2587 10866 605 9523 733 9556 6880 5870 1923 5866 10109 2418
cat_boundaries=0 1
cat_threshold=1969152
is_linear=0
shrinkage=1


Tree=1
num_leaves=31
num_cat=1
split_feature=6 6 6 6 4 4 4 4 6 4 4 6 4 6 6 0 6 6 6 5 4 4 4 4 4 6 8 6 6 4
split_gain=3.07792e+10 3.40355e+09 2.464e+09 9.15737e+08 7.51652e+08 6.19186e+08 1.81634e+08 1.77311e+08 1.4153e+08 1.39833e+08 1.33384e+08 1.28849e+08 1.06788e+08 9.69565e+07 9.12544e+07 7.34405e+07 5.60319e+07 4.79896e+07 4.20714e+07 4.15729e+07 3.80965e+07 3.49448e+07 3.35346e+07 2.97188e+07 2.48594e+07 2.45583e+07 2.2075e+07 2.09047e+07 1.96838e+07 1.90653e+07
threshold=636.50000000000011 1373.5000000000002 242.50000000000003 951.50000000000011 1898.5000000000002 877.50000000000011 1405.5000000000002 1174.5000000000002 2330.5000000000005 442.50000000000006 39.500000000000007 446.50000000000006 360.50000000000006 816.50000000000011 47.500000000000007 0 46.500000000000007 1772.5000000000002 1140.5000000000002 1298.5000000000002 1343.5000000000002 7.5000000000000009 2492.5000000000005 2492.5000000000005 15.500000000000002 1179.5000000000002 561.02083333333337 347.50000000000006 1798.5000000000002 917.50000000000011
decision_type=2 2 2 2 2 2 2 2 2 2 2 2 2 2 2 1 2 2 2 2 2 2 2 2 2 2 2 2 2 2
left_child=2 3 5 13 6 9 12 10 22 16 -5 27 -3 21 20 -11 -1 -8 -12 25 -7 -2 28 -10 -15 -9 -14 -4 -6 -26
right_child=1 4 11 7 8 14 17 19 23 15 18 -13 26 24 -16 -17 -18 -19 -20 -21 -22 -23 -24 -25 29 -27 -28 -29 -30 -31
leaf_value=-38.774564519635334 -35.614905897776289 -32.802026151999449 -11.918262433557608 -38.682338298929153 127.14017052767053 51.084412242156532 103.98444749830389 65.426084063868288 176.77010901666458 -22.614029625134275 53.242758055512539 10.22440454318737 78.745616054772739 -31.418558518782909 -5.8095993134352542 22.0730172168332 -30.024967329209808 125.00903160244812 64.930402192213492 88.113988196077798 103.54830299740746 26.981038783664101 178.04127705891926 218.06121517274437 37.998394816810155 77.926015149252223 92.897639596333306 -1.9569027655803173 148.42787167002103 48.752824963290266
leaf_weight=78948 90 78 3671 145 777 406 3243 3267 372 2888 7964 10715 2406 46 222 415 8067 1632 5022 1961 210 9846 252 328 4082 3029 2034 4944 985 2765
leaf_count=78948 90 78 3671 145 777 406 3243 3267 372 2888 7964 10715 2406 46 222 415 8067 1632 5022 1961 210 9846 252 328 4082 3029 2034 4944 985 2765
internal_value=0 64.8244 -29.5261 50.1868 111.029 -36.4029 97.6358 63.9178 157.383 -37.1968 56.6977 2.90365 83.1911 32.7361 49.1595 -17.001 -37.9634 111.023 57.7627 75.3998 68.9698 26.414 143.92 196.118 41.8491 71.4398 85.2288 -6.20161 139.041 42.3413
internal_weight=0 50324 110486 38217 12107 91156 9393 21388 2714 90318 13131 19330 4518 16829 838 3303 87015 4875 12986 8257 616 9936 2014 700 6893 6296 4440 8615 1762 6847
internal_count=160810 50324 110486 38217 12107 91156 9393 21388 2714 90318 13131 19330 4518 16829 838 3303 87015 4875 12986 8257 616 9936 2014 700 6893 6296 4440 8615 1762 6847
cat_boundaries=0 1
cat_threshold=1967104
is_linear=0
shrinkage=0.1


Tree=2
num_leaves=31
num_cat=3
split_feature=6 6 6 4 6 4 6 4 4 4 6 4 4 6 6 6 0 4 4 6 4 6 6 4 4 4 2 6 6 0
split_gain=2.49502e+10 3.03304e+09 1.58842e+09 8.1819e+08 6.76018e+08 5.3279e+08 1.80561e+08 1.55566e+08 1.18416e+08 1.15088e+08 8.76835e+07 7.96971e+07 7.8888e+07 7.82084e+07 5.7138e+07 5.48191e+07 5.41041e+07 5.26966e+07 3.7193e+07 3.60559e+07 3.3152e+07 2.97713e+07 2.61691e+07 2.44609e+07 2.14163e+07 1.94043e+07 1.89487e+07 2.09151e+07 1.70803e+07 1.68331e+07
threshold=592.50000000000011 1257.5000000000002 218.50000000000003 1740.5000000000002 882.50000000000011 792.50000000000011 2146.5000000000005 1282.5000000000002 1046.5000000000002 271.50000000000006 402.50000000000006 39.500000000000007 368.50000000000006 47.500000000000007 731.50000000000011 1561.5000000000002 0 2492.5000000000005 1559.5000000000002 80.500000000000014 2146.5000000000005 1056.5000000000002 1019.5000000000001 6.5000000000000009 10.500000000000002 1473.5000000000002 1 1579.5000000000002 1654.5000000000002 2
decision_type=2 2 2 2 2 2 2 2 2 2 2 2 2 2 2 2 1 2 2 2 2 2 2 2 2 2 1 2 2 1
left_child=2 4 5 7 14 12 20 9 11 -3 -4 -6 19 18 24 -9 -14 -8 29 -1 28 -10 -13 -16 -2 -23 27 -11 -5 -7
right_child=1 3 10 6 8 13 17 15 21 26 -12 22 16 -15 23 -17 -18 -19 -20 -21 -22 25 -24 -25 -26 -27 -28 -29 -30 -31
leaf_value=-34.773818482647158 -31.768202225367233 -32.057244919486671 -8.6527912139909571 101.09142208178508 -31.769667075828274 11.668929745507066 148.32514557386318 81.633427329974737 52.130013164321909 73.979561009380106 5.7851812641476776 40.402289586826171 -22.978031667291873 -6.2809742509168096 -33.642006550906068 100.05548627081389 22.964614684964928 192.78931181798529 110.79138332094465 -24.720419500968731 135.81911174381011 61.38491441965347 50.490140939930811 30.986292646827952 19.000830034014687 76.811583681519465 65.275427791924145 103.31696039973079 118.82199298904602 56.337962796179653
leaf_weight=81829 84 115 7019 964 135 127 791 3783 3452 708 10497 5023 3635 259 59 2819 270 402 112 3730 718 5866 5269 7914 7667 947 4528 370 1245 473
leaf_count=81829 84 115 7019 964 135 127 791 3783 3452 708 10497 5023 3635 259 59 2819 270 402 112 3730 718 5866 5269 7914 7667 947 4528 370 1245 473
internal_value=0 56.2905 -27.563 91.9384 40.1942 -32.9015 130.517 79.0403 52.0714 66.9705 -0.000393572 44.5655 -33.7011 40.7742 24.5645 89.4995 -19.8015 163.308 57.8912 -34.3355 117.152 59.6958 45.5668 30.508 18.4506 63.5292 69.0019 83.2765 111.084 48.0165
internal_weight=0 52859 107951 16443 36416 90435 4120 12323 20692 5721 17516 10427 89464 971 15724 6602 3905 1193 712 85559 2927 10265 10292 7973 7751 6813 5606 1078 2209 600
internal_count=160810 52859 107951 16443 36416 90435 4120 12323 20692 5721 17516 10427 89464 971 15724 6602 3905 1193 712 85559 2927 10265 10292 7973 7751 6813 5606 1078 2209 600
cat_boundaries=0 1 2 3
cat_threshold=2034688 32 917504
is_linear=0
shrinkage=0.1


Tree=3
num_leaves=31
num_cat=2
split_feature=6 6 6 6 4 4 4 4 4 6 6 4 6 4 6 0 6 6 5 4 4 4 4 4 6 2 4 4 4 4
split_gain=2.02201e+10 2.15842e+09 1.76475e+09 5.53913e+08 4.84386e+08 3.96608e+08 1.15507e+08 1.08706e+08 1.07777e+08 9.45919e+07 8.71535e+07 8.58252e+07 7.79141e+07 7.11202e+07 6.59889e+07 5.31571e+07 4.53304e+07 3.17794e+07 2.87698e+07 2.45069e+07 2.43242e+07 2.36608e+07 2.19122e+07 2.12753e+07 2.10679e+07 1.92438e+07 1.75175e+07 1.66951e+07 1.66506e+07 1.62641e+07
threshold=656.50000000000011 1384.5000000000002 265.50000000000006 989.50000000000011 1898.5000000000002 917.50000000000011 1427.5000000000002 455.50000000000006 1194.5000000000002 2330.5000000000005 480.50000000000006 236.50000000000003 838.50000000000011 360.50000000000006 68.500000000000014 0 87.500000000000014 1898.5000000000002 1353.5000000000002 1796.5000000000002 2739.5000000000005 7.5000000000000009 2739.5000000000005 47.500000000000007 1193.5000000000002 1 938.50000000000011 1187.5000000000002 740.50000000000011 1.0000000180025095e-35
decision_type=2 2 2 2 2 2 2 2 2 2 2 2 2 2 2 1 2 2 2 2 2 2 2 2 2 1 2 2 2 2
left_child=2 3 5 12 6 7 13 16 11 20 -4 -5 21 -3 19 -9 -1 -8 -10 -7 -6 -2 -11 -14 -13 -15 -25 -27 -23 -12
right_child=1 4 10 8 9 14 17 15 18 22 29 24 23 25 -16 -17 -18 -19 -20 -21 -22 28 -24 26 -26 27 -28 -29 -30 -31
leaf_value=-31.227737616017773 -30.155750922697138 -26.888190192680856 -3.0887075103631472 -24.591538188281969 114.41593024386509 51.697481175126704 86.556090021644422 -17.361503820555509 59.626525195923264 148.63499533913352 -35.27466813295316 45.632732935496591 -19.394633607303398 83.607914765027104 -5.0871433945078604 19.735916454966713 -21.207285718257516 106.82796314575072 75.083140893966444 121.30867244175502 166.26314446700246 19.714666381725138 188.16398548244203 32.68662634685387 54.671616280618736 57.075451063375183 42.205011699967706 71.377556548030995 27.985997343480012 10.569254800303788
leaf_weight=82769 83 77 9794 163 1905 522 3546 3106 5916 506 78 8236 68 1117 228 434 4775 989 1512 56 95 5373 194 4495 3754 1428 3393 1905 4449 9844
leaf_count=82769 83 77 9794 163 1905 522 3546 3106 5916 506 78 8236 68 1117 228 434 4775 989 1512 56 95 5373 194 4495 3754 1428 3393 1905 4449 9844
internal_value=0 53.4055 -23.5438 41.6666 90.7741 -29.3685 79.697 -29.9865 53.2831 127.952 3.60324 47.4829 28.9313 68.3971 40.4708 -12.8067 -30.6812 90.977 62.7728 58.4418 116.879 23.012 159.59 36.3008 48.4628 70.0459 36.7809 65.0547 23.4613 10.2089
internal_weight=0 49204 111606 37442 11762 91890 9062 91084 19581 2700 19716 12153 17861 4527 806 3540 87544 4535 7428 578 2000 9905 700 7956 11990 4450 7888 3333 9822 9922
internal_count=160810 49204 111606 37442 11762 91890 9062 91084 19581 2700 19716 12153 17861 4527 806 3540 87544 4535 7428 578 2000 9905 700 7956 11990 4450 7888 3333 9822 9922
cat_boundaries=0 1 2
cat_threshold=1967104 32
is_linear=0
shrinkage=0.1


Tree=4
num_leaves=31
num_cat=4
split_feature=6 6 6 4 6 4 4 4 4 4 6 0 4 4 4 6 6 0 6 0 5 6 4 4 8 6 0 4 4 6
split_gain=1.63951e+10 2.08149e+09 9.33168e+08 6.13237e+08 4.10033e+08 3.702e+08 1.50125e+08 9.97613e+07 7.78426e+07 6.67151e+07 6.14251e+07 5.85306e+07 4.60597e+07 4.55178e+07 4.48886e+07 4.17982e+07 4.07473e+07 4.05072e+07 2.45593e+07 2.36483e+07 2.35381e+07 2.19353e+07 1.9042e+07 1.77327e+07 1.60132e+07 1.55402e+07 1.49158e+07 1.6267e+07 1.47482e+07 1.20144e+07
threshold=573.50000000000011 1214.5000000000002 196.50000000000003 1672.5000000000002 874.50000000000011 792.50000000000011 2330.5000000000005 1236.5000000000002 271.50000000000006 1004.5000000000001 379.50000000000006 0 43.500000000000007 1343.5000000000002 368.50000000000006 704.50000000000011 1561.5000000000002 1 2738.5000000000005 2 1208.5000000000002 36.500000000000007 6.5000000000000009 2088.5000000000005 550.52083333333337 1720.5000000000002 3 1316.5000000000002 760.50000000000011 1038.5000000000002
decision_type=2 2 2 2 2 2 2 2 2 2 2 1 2 2 2 2 2 1 2 1 2 2 2 2 2 2 1 2 2 2
left_child=2 4 5 7 15 14 11 8 -3 12 -4 23 -6 19 21 -2 -9 -16 -8 -7 26 -1 -17 -5 -10 -13 -11 -28 -24 -14
right_child=1 3 10 6 9 13 18 16 24 20 -12 25 29 -15 17 22 -18 -19 -20 -21 -22 -23 28 -25 -26 -27 27 -29 -30 -31
leaf_value=-28.363327234411855 13.525936752563892 -23.926127592961592 -8.9056050645833817 106.56797239447484 -25.3463090821514 -9.8749963232656821 131.08529815228965 63.578490361494644 49.544527295708811 38.221794484412491 3.3950524310504484 76.400580045010187 32.383980742930099 77.716702177912694 -20.084946398906268 -27.535351872444153 79.209600356756482 13.958272689775118 171.8818125947993 34.732599648491373 55.1976681701004 -22.74770997003111 20.221090404587059 133.50549689845036 60.272762573696241 92.167492141112191 45.770063871961838 64.155631290594457 28.307208705873258 39.980491153720706
leaf_weight=77672 7284 133 6583 1246 127 154 686 4820 3855 3548 10591 1410 5406 215 3137 72 2550 389 188 513 2302 7640 4707 304 2177 1123 3708 553 4331 3386
leaf_count=77672 7284 133 6583 1246 127 154 686 4820 3855 3548 10591 1410 5406 215 3137 72 2550 389 188 513 2302 7640 4707 304 2177 1123 3708 553 4331 3386
internal_value=0 44.9605 -22.6756 72.1553 30.7643 -26.7634 102.247 61.1347 51.7479 40.7501 -1.31994 94.195 34.4459 37.7038 -27.4034 19.1728 68.9868 -16.3466 139.861 24.8061 46.3111 -27.8604 23.6879 111.134 53.4164 83.0629 43.6915 48.0434 24.0959 35.3096
internal_weight=0 53916 106894 18492 35424 89720 4957 13535 6165 19030 17174 4083 8919 882 88838 16394 7370 3526 874 667 10111 85312 9110 1550 6032 2533 7809 4261 9038 8792
internal_count=160810 53916 106894 18492 35424 89720 4957 13535 6165 19030 17174 4083 8919 882 88838 16394 7370 3526 874 667 10111 85312 9110 1550 6032 2533 7809 4261 9038 8792
cat_boundaries=0 1 2 3 4
cat_threshold=29184 1838080 786432 460800
is_linear=0
shrinkage=0.1


Tree=5
num_leaves=31
num_cat=4
split_feature=6 6 6 4 6 4 6 4 4 6 6 0 4 4 6 6 0 4 4 0 4 2 4 4 4 4 5 6 4 6
split_gain=1.32803e+10 1.68886e+09 7.56358e+08 4.61439e+08 3.67829e+08 3.1055e+08 1.35437e+08 7.64121e+07 5.72203e+07 5.35732e+07 4.71007e+07 4.42879e+07 4.25095e+07 4.22532e+07 4.14206e+07 3.07833e+07 2.84145e+07 2.80929e+07 2.50561e+07 1.99012e+07 3.18915e+07 1.97581e+07 1.94416e+07 1.48382e+07 1.44331e+07 1.43306e+07 1.42635e+07 1.40443e+07 1.17833e+07 1.09038e+07
threshold=573.50000000000011 1242.5000000000002 186.50000000000003 1613.5000000000002 895.50000000000011 727.50000000000011 2089.5000000000005 407.50000000000006 1099.5000000000002 356.50000000000006 1531.5000000000002 0 57.500000000000007 2330.5000000000005 738.50000000000011 43.500000000000007 1 1343.5000000000002 1980.5000000000002 2 1500.5000000000002 3 1194.5000000000002 2.5000000000000004 521.50000000000011 6.5000000000000009 840.50000000000011 1044.5000000000002 1258.5000000000002 500.50000000000006
decision_type=2 2 2 2 2 2 2 2 2 2 2 1 2 2 2 2 1 2 2 1 2 1 2 2 2 2 2 2 2 2
left_child=2 4 5 7 14 15 16 -3 12 -4 22 -7 -6 -8 23 24 -5 -13 -18 -10 -21 -12 -9 -2 -1 -16 -27 -14 -23 -11
right_child=1 3 9 6 8 11 13 10 19 29 21 17 27 -15 25 -17 18 -19 -20 20 -22 28 -24 -25 -26 26 -28 -29 -30 -31
leaf_value=-25.475737155809654 -28.831660875067655 -18.230496857690476 -9.2161201312542982 67.483662639919274 -23.729771409293477 -7.5783884668791748 102.15485667060403 45.943765006498865 31.749672064473557 0.2550817198362787 76.733176753074616 31.763559411107153 30.636072772482454 136.26721647870195 -24.892705400528449 -19.325109633412403 82.176103661238415 75.583499988244498 104.67018684253358 44.56850162596885 68.554599279184814 48.556527974925096 55.950945540543728 13.642000463280759 -0.27931075064759509 20.474134787781381 29.358013089666976 37.723536366354061 63.873033319430412 6.6600381284739285
leaf_weight=78816 83 141 5860 1600 129 233 952 3465 1261 7574 1304 577 5883 587 62 9315 1794 196 684 6072 610 776 4415 9113 228 5554 2679 5328 1424 4095
leaf_count=78816 83 141 5860 1600 129 233 952 3465 1261 7574 1304 577 5883 587 62 9315 1794 196 684 6072 610 776 4415 9113 228 5554 2679 5328 1424 4095
internal_value=0 40.4651 -20.4078 66.3877 28.3815 -24.1333 89.8891 54.9337 37.9067 -1.41489 55.8399 31.1137 33.3476 115.166 17.8804 -24.7623 80.3499 42.3269 88.0299 44.4155 46.6883 65.4859 51.5506 13.2586 -25.4031 23.0042 23.3649 34.0044 58.2059 2.50277
internal_weight=0 53916 106894 17142 36774 89365 5617 11525 19283 17529 11384 1006 11340 1539 17491 88359 4078 773 2478 7943 6682 3504 7880 9196 79044 8295 8233 11211 2200 11669
internal_count=160810 53916 106894 17142 36774 89365 5617 11525 19283 17529 11384 1006 11340 1539 17491 88359 4078 773 2478 7943 6682 3504 7880 9196 79044 8295 8233 11211 2200 11669
cat_boundaries=0 1 2 3 4
cat_threshold=786432 460800 393216 32
is_linear=0
shrinkage=0.1


Tree=6
num_leaves=31
num_cat=5
split_feature=6 6 6 6 4 4 4 4 4 4 4 6 6 6 4 0 6 0 0 0 4 4 5 2 4 4 4 5 6 4
split_gain=1.0765e+10 1.15703e+09 9.66816e+08 3.17083e+08 2.37776e+08 2.11381e+08 6.57615e+07 6.56384e+07 5.88128e+07 5.29152e+07 5.0883e+07 4.64682e+07 4.19064e+07 4.03568e+07 3.99519e+07 3.45156e+07 2.98295e+07 2.73942e+07 2.13788e+07 2.00091e+07 1.88539e+07 1.57313e+07 1.56612e+07 1.54515e+07 1.44854e+07 1.26949e+07 1.21398e+07 1.14687e+07 1.12382e+07 1.11055e+07
threshold=663.50000000000011 1428.5000000000002 287.50000000000006 1013.5000000000001 1937.5000000000002 959.50000000000011 474.50000000000006 1266.5000000000002 1529.5000000000002 271.50000000000006 2739.5000000000005 823.50000000000011 514.50000000000011 47.500000000000007 521.50000000000011 0 100.50000000000001 1 2 3 1545.5000000000002 833.50000000000011 1160.5000000000002 4 1796.5000000000002 2228.5000000000005 9.5000000000000018 1075.5000000000002 1743.5000000000002 5.5000000000000009
decision_type=2 2 2 2 2 2 2 2 2 2 2 2 2 2 2 1 2 1 1 1 2 2 2 1 2 2 2 2 2 2
left_child=2 3 5 11 8 6 16 9 14 -5 17 26 -4 24 -3 -8 -1 -6 20 -10 -9 29 -11 28 -7 -19 -2 -23 -16 -13
right_child=1 4 12 7 10 13 15 18 19 22 -12 21 -14 -15 23 -17 -18 25 -20 -21 -22 27 -24 -25 -26 -27 -28 -29 -30 -31
leaf_value=-22.75428487907795 -22.664388881585538 -16.393408163094229 -0.81575576314288245 -19.694238688417538 78.64293900472974 40.370960303356775 -12.22410159155482 51.24658686405801 61.483490952682921 34.619010185160064 135.79833161357388 -24.488330407236138 8.5816145399253454 -2.5529622612964538 58.585229664231704 17.371427429118864 -14.494757529900552 99.585373271595358 41.653829526963115 80.397661419384832 70.625596624736389 27.432397542073375 41.973919627981736 49.94508383810556 94.144792257036485 125.23253714732635 16.962103841642417 37.828998326261129 77.906964853029436 22.460246230767261
leaf_weight=83562 78 81 10963 167 1293 475 3221 2519 1816 9151 287 51 8367 252 847 441 4614 506 2784 1532 627 4473 4235 3322 56 312 8749 1391 467 4171
leaf_count=83562 78 81 10963 167 1293 475 3221 2519 1816 9151 287 51 8367 252 847 441 4614 506 2784 1532 627 4473 4235 3322 56 312 8749 1391 467 4171
internal_value=0 39.167 -17.0902 31.1338 68.6461 -21.3356 -21.7768 40.0874 60.426 36.248 96.2922 21.9104 3.2519 30.4023 53.2316 -8.64597 -22.3221 90.9211 48.8623 70.5621 54.9342 26.5475 36.9459 54.4481 46.042 108.047 16.6119 29.8986 64.9579 21.8931
internal_weight=0 48859 111951 38396 10463 92621 91838 19483 8065 13553 2398 18913 19330 783 4717 3662 88176 2111 5930 3348 3146 10086 13386 4636 531 818 8827 5864 1314 4222
internal_count=160810 48859 111951 38396 10463 92621 91838 19483 8065 13553 2398 18913 19330 783 4717 3662 88176 2111 5930 3348 3146 10086 13386 4636 531 818 8827 5864 1314 4222
cat_boundaries=0 1 2 3 4 5
cat_threshold=1967104 232448 62976 232448 32
is_linear=0
shrinkage=0.1


Tree=7
num_leaves=31
num_cat=3
split_feature=6 6 6 6 4 4 6 4 4 6 4 4 4 6 0 6 4 5 4 4 4 4 0 4 5 6 4 0 8 5
split_gain=8.72354e+09 9.27196e+08 8.05134e+08 2.35097e+08 2.06112e+08 1.69411e+08 7.35525e+07 5.64223e+07 5.05997e+07 4.09762e+07 3.91623e+07 3.87443e+07 3.87423e+07 3.2945e+07 2.27205e+07 2.18144e+07 2.15023e+07 2.14046e+07 1.91598e+07 1.84603e+07 1.65995e+07 1.53174e+07 1.45082e+07 1.17393e+07 1.13515e+07 1.89588e+07 1.12536e+07 1.10516e+07 1.02308e+07 1.00281e+07
threshold=670.50000000000011 1405.5000000000002 298.50000000000006 1019.5000000000001 1796.5000000000002 714.50000000000011 47.500000000000007 2330.5000000000005 1141.5000000000002 46.500000000000007 1081.5000000000002 282.50000000000006 766.50000000000011 500.50000000000006 0 1798.5000000000002 521.50000000000011 966.50000000000011 1717.5000000000002 1141.5000000000002 11.500000000000002 2739.5000000000005 1 5.5000000000000009 132.50000000000003 47.500000000000007 1343.5000000000002 2 507.47916666666669 714.50000000000011
decision_type=2 2 2 2 2 2 2 2 2 2 2 2 2 2 1 2 2 2 2 2 2 2 1 2 2 2 2 1 2 2
left_child=2 3 5 12 10 9 19 14 11 -1 16 -5 20 -4 -6 -12 -3 27 22 -7 -2 -9 -10 -15 -11 -26 -24 -14 -13 -22
right_child=1 4 13 8 7 6 -8 21 18 24 15 28 17 23 -16 -17 -18 -19 -20 -21 29 -23 26 -25 25 -27 -28 -29 -30 -31
leaf_value=-20.59339894900079 -19.499836934223282 -12.550279782892584 -0.79779801689350915 -17.674791502474267 87.437685221474908 19.916853755498288 -6.866654458003187 94.07681670130242 33.808967303393864 -16.90082908183258 51.483339868853733 29.003455956979622 16.140216410368755 -25.020194640809841 63.957567954422053 64.981439808890059 38.299667314198352 30.946601031933149 57.614947417696612 50.136609109619862 12.006816775038601 122.37965775065953 40.373640300339552 7.8384053177205004 16.692820320124468 -12.012777946217238 50.322280946980158 24.392326559325788 35.819033330971585 18.965441658560419
leaf_weight=79335 137 91 9818 162 1001 473 1073 569 3042 6834 5117 5661 2922 110 1519 1563 965 3201 665 353 4016 288 3697 9408 242 4671 1642 4354 3605 4276
leaf_count=79335 137 91 9818 162 1001 473 1073 569 3042 6834 5117 5661 2922 110 1519 1563 965 3201 665 353 4016 288 3697 9408 242 4671 1642 4354 3605 4276
internal_value=0 35.4506 -15.2999 27.9111 60.8107 -19.1609 10.4007 81.4231 35.9339 -19.7772 51.8127 30.8075 20.0717 3.26638 73.8852 54.6417 33.9177 24.132 41.2767 32.8316 15.0248 103.588 39.9804 7.45866 -14.2651 -10.5988 43.3521 21.134 31.6551 15.5952
internal_weight=0 48493 112317 37380 11113 92981 1899 3377 18474 91082 7736 9428 18906 19336 2520 6680 1056 10477 9046 826 8429 857 8381 9518 11747 4913 5339 7276 9266 8292
internal_count=160810 48493 112317 37380 11113 92981 1899 3377 18474 91082 7736 9428 18906 19336 2520 6680 1056 10477 9046 826 8429 857 8381 9518 11747 4913 5339 7276 9266 8292
cat_boundaries=0 1 2 3
cat_threshold=29184 460800 395264
is_linear=0
shrinkage=0.1


Tree=8
num_leaves=31
num_cat=7
split_feature=6 6 6 4 4 6 6 4 6 0 4 4 4 0 4 0 4 4 4 5 6 5 4 8 2 4 0 0 0 6
split_gain=7.07456e+09 9.32542e+08 3.86106e+08 2.87608e+08 1.74128e+08 1.66097e+08 8.689e+07 4.43628e+07 3.08462e+07 3.06044e+07 3.02738e+07 2.66455e+07 2.65878e+07 2.6439e+07 2.44854e+07 2.26322e+07 1.95889e+07 1.89588e+07 1.4861e+07 1.48586e+07 1.46612e+07 1.35158e+07 1.25131e+07 1.04032e+07 1.0277e+07 9.99703e+06 9.86589e+06 9.45932e+06 9.26484e+06 9.19613e+06
threshold=566.50000000000011 1193.5000000000002 175.50000000000003 1576.5000000000002 688.50000000000011 867.50000000000011 2034.5000000000002 39.500000000000007 379.50000000000006 0 938.50000000000011 2330.5000000000005 1201.5000000000002 1 647.50000000000011 2 2146.5000000000005 43.500000000000007 1650.5000000000002 826.50000000000011 24.500000000000004 1105.5000000000002 2.5000000000000004 537.06250000000011 3 1461.5000000000002 4 5 6 1696.5000000000002
decision_type=2 2 2 2 2 2 2 2 2 1 2 2 2 1 2 1 2 2 2 2 2 2 2 2 1 2 1 1 1 2
left_child=2 5 4 7 20 14 13 -3 -4 -6 17 -8 23 -5 22 29 28 -7 24 -16 -1 26 -2 -9 -11 -23 -12 -22 -15 -14
right_child=1 3 8 6 9 10 11 12 -10 18 21 -13 15 16 19 -17 -18 -19 -20 -21 27 25 -24 -25 -26 -27 -28 -29 -30 -31
leaf_value=-18.64227467025071 -21.835829307030941 -22.21099845822118 -6.3608600542415319 31.722706294059755 -1.410992825276391 -17.405744873531283 74.429799541751706 30.712152757287853 2.1489853895872058 3.0181408189971681 22.402929303047323 100.19995302561841 47.740846274925644 51.971962396734355 13.475606536350069 38.472231111922994 78.393308155120366 21.72895246881939 76.697054644266771 22.987620160218299 13.740338826229175 32.281367368700892 8.5607027350728249 39.230545763850706 35.831239950424965 48.098299115948976 30.33476214854328 -15.12914011532815 65.999956941336947 61.283206961935413
leaf_weight=76048 138 119 7307 456 373 126 1165 3539 10213 132 3278 612 2002 2242 6861 4596 504 7060 75 2159 110 3447 7274 2410 504 452 3948 11754 1237 669
leaf_count=76048 138 119 7307 456 373 126 1165 3539 10213 132 3278 612 2002 2242 6861 4596 504 7060 75 2159 110 3447 7274 2410 504 452 3948 11754 1237 669
internal_value=0 29.3833 -14.9697 46.8539 -17.641 19.5521 64.6185 38.573 -1.40018 22.1935 26.102 83.3051 39.1204 57.1381 12.2531 43.1786 59.8179 21.0428 34.1167 15.7524 -18.1322 29.3699 7.99477 34.163 29.6318 34.115 26.8096 -14.8626 57.2989 50.9421
internal_weight=0 54294 106516 19551 88996 34743 6216 13335 17520 1084 18311 1777 13216 4439 16432 7267 3983 7186 711 9020 87912 11125 7412 5949 636 3899 7226 11864 3479 2671
internal_count=160810 54294 106516 19551 88996 34743 6216 13335 17520 1084 18311 1777 13216 4439 16432 7267 3983 7186 711 9020 87912 11125 7412 5949 636 3899 7226 11864 3479 2671
cat_boundaries=0 1 2 3 4 5 6 7
cat_threshold=917504 393216 13056 64 460800 256 101376
is_linear=0
shrinkage=0.1


Tree=9
num_leaves=31
num_cat=6
split_feature=6 4 6 6 6 4 0 4 4 4 6 0 8 6 4 0 6 4 6 4 6 4 5 4 5 0 4 0 4 0
split_gain=5.73902e+09 6.17289e+08 5.40965e+08 1.80032e+08 1.24265e+08 1.14975e+08 5.1821e+07 4.17977e+07 4.17653e+07 3.84033e+07 3.04982e+07 2.47433e+07 2.37489e+07 2.25676e+07 2.01017e+07 1.98719e+07 1.96698e+07 1.62462e+07 1.23231e+07 1.15607e+07 1.14048e+07 1.06776e+07 1.012e+07 1.0019e+07 9.96072e+06 9.94825e+06 6.79825e+06 7.21751e+06 1.16668e+07 6.59982e+06
threshold=677.50000000000011 1438.5000000000002 298.50000000000006 1080.5000000000002 1828.5000000000002 1022.5000000000001 0 271.50000000000006 508.50000000000006 2228.5000000000005 846.50000000000011 1 565.14583333333337 459.50000000000006 1860.5000000000002 2 138.50000000000003 1034.5000000000002 2738.5000000000005 39.500000000000007 1546.5000000000002 2.5000000000000004 985.50000000000011 1980.5000000000002 573.50000000000011 3 688.50000000000011 4 449.50000000000006 5
decision_type=2 2 2 2 2 2 1 2 2 2 2 1 2 2 2 1 2 2 2 2 2 2 2 2 2 1 2 1 2 1
left_child=2 3 5 10 6 8 -3 -5 15 -6 26 -10 17 -4 25 -1 23 29 -11 -12 -14 -15 -21 -7 -23 -8 27 -2 -29 -9
right_child=1 4 13 7 9 16 14 12 11 18 19 -13 20 21 -16 -17 -18 -19 -20 22 -22 24 -24 -25 -26 -27 -28 28 -30 -31
leaf_value=-12.058189145782809 12.908083774254846 25.103004326213515 -1.5983879928742342 -16.053420161440016 60.689105283620769 32.091911246865081 58.628759005092299 28.318487029224084 -7.6151947089103746 78.906166949552656 -13.969030458099988 22.11974031723939 34.573325841254345 -23.826252549309885 60.092145650690249 -16.789689705643664 -2.9924393438611716 31.391862975228726 106.67029781067771 18.254208718047249 46.142962149133425 3.5248942892330941 24.192699172589922 87.601741856166299 9.5194598446143228 42.630247867035109 15.099152347466541 -22.68742957850089 6.9680827716761202 19.1080633694516
leaf_weight=10297 2520 1313 7516 188 2130 458 624 1612 3120 680 98 298 4167 124 1100 78598 175 7771 209 7537 1071 7751 4634 35 4315 3948 4884 146 1452 2039
leaf_count=10297 2520 1313 7516 188 2130 458 624 1612 3120 680 98 298 4167 124 1100 78598 175 7771 209 7537 1071 7751 4634 35 4315 3948 4884 146 1452 2039
internal_value=0 28.9147 -12.339 23.1126 51.0228 -15.5287 43.6956 30.8345 -15.8278 67.9755 16.9963 -4.9803 31.3636 2.71136 47.8709 -16.2449 25.8091 28.8068 85.4334 20.2398 36.9389 5.36862 20.5152 36.0328 5.66865 45.0352 12.5758 9.58299 4.23215 23.3046
internal_weight=0 48123 112687 38119 10004 92981 6985 16848 92313 3019 21271 3418 16660 19706 5672 88895 668 11422 889 12269 5238 12190 12171 493 12066 4572 9002 4118 1598 3651
internal_count=160810 48123 112687 38119 10004 92981 6985 16848 92313 3019 21271 3418 16660 19706 5672 88895 668 11422 889 12269 5238 12190 12171 493 12066 4572 9002 4118 1598 3651
cat_boundaries=0 1 2 3 4 5 6
cat_threshold=393216 2034688 264128 8704 960 2944
is_linear=0
shrinkage=0.1


Tree=10
num_leaves=31
num_cat=7
split_feature=6 4 6 4 6 4 0 0 4 4 4 6 5 4 0 8 0 6 0 1 4 4 2 4 4 5 7 4 6 0
split_gain=4.65133e+09 4.89221e+08 4.61351e+08 1.19788e+08 1.1724e+08 9.64587e+07 5.2128e+07 3.43263e+07 3.33364e+07 3.19706e+07 2.81572e+07 2.32176e+07 2.22359e+07 2.01958e+07 1.8098e+07 1.78254e+07 1.73661e+07 1.55734e+07 1.39023e+07 1.30248e+07 1.18115e+07 1.08132e+07 1.02098e+07 9.64007e+06 8.88697e+06 7.87755e+06 7.71219e+06 7.70395e+06 6.88406e+06 6.55924e+06
threshold=691.50000000000011 1373.5000000000002 275.50000000000006 1937.5000000000002 1080.5000000000002 1022.5000000000001 0 1 376.50000000000006 540.50000000000011 2492.5000000000005 459.50000000000006 855.50000000000011 80.500000000000014 2 554.64583333333337 3 107.50000000000001 4 8.5000000000000018 938.50000000000011 521.50000000000011 5 1630.5000000000002 1980.5000000000002 644.50000000000011 1419.5000000000002 1.0000000180025095e-35 1633.5000000000002 6
decision_type=2 2 2 2 2 2 1 1 2 2 2 2 2 2 1 2 1 2 1 2 2 2 1 2 2 2 2 2 2 1
left_child=2 4 5 6 12 9 18 -5 -6 17 -9 -4 26 -14 -11 20 -8 29 -3 24 -10 27 28 -18 -7 -23 -2 -13 -17 -1
right_child=1 3 11 7 8 19 16 10 15 14 -12 21 13 -15 -16 22 23 -19 -20 -21 -22 25 -24 -25 -26 -27 -28 -29 -30 -31
leaf_value=-7.7953869109667018 11.53801109459617 33.774798698554314 -1.8202583227454014 41.455855556840227 -10.49112890882042 28.775154581861205 55.039218804547829 63.842947208441586 18.358238281168635 23.087973618355207 93.293560883830651 -25.370252659741571 -18.292702078650183 19.862638400794879 -5.9993976452924018 36.81796856884057 37.246784943233408 -9.0724848908218831 20.303613673876722 -2.8252907622944226 26.919293654731913 5.5922623174657895 30.203944807444731 47.342681043859834 80.375940916273336 13.160103918838701 19.196611047865144 2.3474975616071352 55.780405669776023 -15.057631580130028
leaf_weight=1340 9953 2375 8248 713 233 458 1453 1545 2011 225 411 102 141 8593 2408 493 2520 4772 1332 132 8114 4996 4155 1514 36 1898 1515 5933 313 82878
leaf_count=1340 9953 2375 8248 713 233 458 1453 1545 2011 225 411 102 141 8593 2408 493 2520 4772 1332 132 8114 4996 4155 1514 36 1898 1515 5933 313 82878
internal_value=0 26.3199 -10.9856 43.9025 20.4479 -14.0413 38.4883 62.5529 27.0453 -14.3086 69.675 2.32532 15.4451 19.2467 -3.44887 27.6251 44.7628 -14.6299 29.002 25.0793 25.2189 4.96997 32.5358 40.9344 32.5355 7.67578 12.5498 1.87903 43.6403 -14.9448
internal_weight=0 47384 113426 11863 35521 92249 9194 2669 15319 91623 1956 21177 20202 8734 2633 15086 5487 88990 3707 626 10125 12929 4961 4034 494 6894 11468 6035 806 84218
internal_count=160810 47384 113426 11863 35521 92249 9194 2669 15319 91623 1956 21177 20202 8734 2633 15086 5487 88990 3707 626 10125 12929 4961 4034 494 6894 11468 6035 806 84218
cat_boundaries=0 1 2 3 4 5 6 7
cat_threshold=460800 458752 29440 8960 67584 32 896
is_linear=0
shrinkage=0.1


Tree=11
num_leaves=31
num_cat=10
split_feature=6 6 6 6 4 4 0 4 4 4 4 4 4 0 0 4 2 6 0 0 4 2 4 5 0 4 0 0 4 5
split_gain=3.76974e+09 4.78112e+08 2.4635e+08 1.21576e+08 1.12232e+08 8.53234e+07 3.48261e+07 2.42791e+07 2.30385e+07 2.2712e+07 1.72113e+07 1.71079e+07 1.69354e+07 2.76214e+07 1.67053e+07 1.63452e+07 1.54148e+07 1.5225e+07 1.31611e+07 1.21384e+07 1.19895e+07 1.14408e+07 1.08924e+07 1.0864e+07 8.83992e+06 1.79227e+07 8.4677e+06 7.78261e+06 8.89813e+06 7.19354e+06
threshold=599.50000000000011 1325.5000000000002 230.50000000000003 929.50000000000011 1769.5000000000002 826.50000000000011 0 772.50000000000011 1135.5000000000002 2228.5000000000005 248.50000000000003 695.50000000000011 282.50000000000006 1 2 2739.5000000000005 3 410.50000000000006 4 5 1353.5000000000002 6 1529.5000000000002 798.50000000000011 7 384.50000000000006 8 9 99.500000000000014 1258.5000000000002
decision_type=2 2 2 2 2 2 1 2 2 2 2 2 2 1 1 2 1 2 1 1 2 1 2 2 1 2 1 1 2 2
left_child=2 3 5 11 7 12 9 -3 10 -6 -5 24 27 -14 -7 -8 18 -4 -9 22 -18 -16 -10 -13 -2 -26 -12 28 -1 -21
right_child=1 4 17 8 6 14 15 16 19 -11 26 23 13 -15 21 -17 20 -19 -20 29 -22 -23 -24 -25 25 -27 -28 -29 -30 -31
leaf_value=-10.410117833055722 10.340627276574484 3.1135708413855006 -3.3967188535781356 -10.586344343998711 58.152043523601463 -7.2030427827390744 42.05379169971922 45.095543066136059 28.131879906579936 86.117678569925246 14.436002745470077 10.529291078233014 -9.4568266765209437 20.507421206657938 -2.6163240268400738 72.148515507654494 26.722727980743674 2.616339851454573 29.013140677852473 19.92507760245795 35.107263074623596 30.857818884378396 46.720749256299889 17.437591127150327 -23.16392518383795 5.3018578178852565 20.786870434824426 -13.68710825598929 22.946957210699718 30.24902746855561
leaf_weight=6284 3912 274 7031 197 1020 212 2151 1884 3652 406 3045 6085 5315 318 130 197 3743 10498 938 3751 3133 577 345 3637 234 4039 9011 77887 81 823
leaf_count=6284 3912 274 7031 197 1020 212 2151 1884 3652 406 3045 6085 5315 318 130 197 3743 10498 938 3751 3133 577 345 3637 234 4039 9011 77887 81 823
internal_value=0 22.0058 -10.649 16.3194 38.028 -12.7442 52.7159 32.4692 21.5148 65.6538 18.733 10.2776 -13.0542 -7.74564 17.5715 44.3897 33.2986 0.204461 39.8713 25.4918 30.4987 24.7521 29.6622 13.1137 6.90895 3.73426 19.212 -13.4091 -9.96996 21.7351
internal_weight=0 52477 108333 38731 13746 90804 3774 9972 20824 1426 12253 17907 89885 5633 919 2348 9698 17529 2822 8571 6876 707 3997 9722 8185 4273 12056 84252 6365 4574
internal_count=160810 52477 108333 38731 13746 90804 3774 9972 20824 1426 12253 17907 89885 5633 919 2348 9698 17529 2822 8571 6876 707 3997 9722 8185 4273 12056 84252 6365 4574
cat_boundaries=0 1 2 3 4 5 6 7 8 9 10
cat_threshold=29184 1973248 786432 32 29440 59136 64 448 245760 448
is_linear=0
shrinkage=0.1


Tree=12
num_leaves=31
num_cat=9
split_feature=6 4 6 6 4 6 0 4 4 0 4 0 8 4 5 4 4 0 0 4 4 0 0 4 0 4 4 0 4 7
split_gain=3.05863e+09 3.32334e+08 3.03238e+08 1.0142e+08 6.31485e+07 6.07619e+07 3.09469e+07 2.42957e+07 2.30372e+07 2.24694e+07 2.08986e+07 1.71367e+07 1.55491e+07 1.48139e+07 1.41617e+07 1.29449e+07 1.18263e+07 1.15035e+07 1.12782e+07 1.19051e+07 1.01102e+07 9.99951e+06 9.48054e+06 1.3675e+07 7.82483e+06 7.2147e+06 7.07975e+06 6.77562e+06 6.56006e+06 6.27921e+06
threshold=691.50000000000011 1500.5000000000002 308.50000000000006 1104.5000000000002 1046.5000000000002 2034.5000000000002 0 39.500000000000007 391.50000000000006 1 840.50000000000011 2 594.02083333333337 2739.5000000000005 500.50000000000006 2088.5000000000005 4.5000000000000009 3 4 161.50000000000003 1099.5000000000002 5 6 461.50000000000006 7 1208.5000000000002 494.50000000000006 8 785.50000000000011 922.50000000000011
decision_type=2 2 2 2 2 2 1 2 2 1 2 1 2 2 2 2 2 1 1 2 2 1 1 2 1 2 2 1 2 2
left_child=2 3 4 10 8 6 -3 -5 18 -10 22 -12 20 -7 29 21 -16 -6 19 -1 -9 -8 -2 -24 -14 -13 -18 -22 -26 -4
right_child=1 5 14 7 17 13 15 12 9 -11 11 25 24 -15 16 -17 26 -19 -20 -21 27 -23 23 -25 28 -27 -28 -29 -30 -31
leaf_value=-8.7235902934506999 12.315338995356298 19.026398089037549 -0.8584316642164409 -16.767031992594401 8.9679390628382851 51.844033336077359 32.105456714629256 18.368872615872586 -7.2182687258284588 15.415298705444267 9.9314481661691829 17.253125091719767 17.684065879759093 78.386447212912827 -23.649978980743629 50.968400926150679 2.4485471998355286 37.147451072857706 -12.275427197735219 22.640284482347287 32.185026925513547 42.632066085297787 -18.691812686920834 7.4557927339043566 18.294888490835827 25.701471564296931 8.2592934185857647 22.808011764641449 32.264748904583051 6.9775486713458967
leaf_weight=7534 6203 1117 10247 150 414 1604 3049 4959 5112 471 3444 6877 648 242 139 673 3685 233 79467 123 1043 1801 210 4207 375 1185 4865 6353 3244 1136
leaf_count=7534 6203 1117 10247 150 414 1604 3049 4959 5112 471 3444 6877 648 242 139 673 3685 233 79467 123 1043 1801 210 4207 375 1185 4865 6353 3244 1136
internal_value=0 21.345 -8.90654 17.4334 -11.3041 39.2752 34.8135 23.2982 -11.5214 -5.29415 12.9877 15.9403 23.6598 55.3236 2.24428 37.9033 5.2845 19.8288 -11.9204 -8.20905 21.8624 36.1685 9.78874 6.19861 28.8642 18.472 5.7549 24.2047 30.7323 -0.0764169
internal_weight=0 47384 113426 38898 93354 8486 6640 16772 92707 5583 22126 11506 16622 1846 20072 5523 8689 647 87124 7657 12355 4850 10620 4417 4267 8062 8550 7396 3619 11383
internal_count=160810 47384 113426 38898 93354 8486 6640 16772 92707 5583 22126 11506 16622 1846 20072 5523 8689 647 87124 7657 12355 4850 10620 4417 4267 8062 8550 7396 3619 11383
cat_boundaries=0 1 2 3 4 5 6 7 8 9
cat_threshold=393216 1969152 395264 924672 960 101376 1984 198656 8448
is_linear=0
shrinkage=0.1


Tree=13
num_leaves=31
num_cat=10
split_feature=6 6 6 4 4 6 6 4 0 0 4 0 0 2 4 6 4 0 0 4 4 4 0 4 0 4 4 4 8 0
split_gain=2.48024e+09 3.46099e+08 1.23602e+08 1.01417e+08 6.94049e+07 6.708e+07 2.92205e+07 1.93161e+07 1.87616e+07 1.61266e+07 1.59404e+07 1.38469e+07 1.25356e+07 1.07119e+07 1.06841e+07 1.03177e+07 9.99031e+06 9.47354e+06 9.29064e+06 9.75375e+06 8.82125e+06 7.18223e+06 7.1772e+06 6.34924e+06 1.39241e+07 1.37497e+07 6.1268e+06 5.98331e+06 5.74536e+06 5.5955e+06
threshold=553.50000000000011 1214.5000000000002 165.50000000000003 1693.5000000000002 667.50000000000011 846.50000000000011 2330.5000000000005 911.50000000000011 0 1 959.50000000000011 2 3 4 2492.5000000000005 347.50000000000006 641.50000000000011 5 6 1316.5000000000002 1559.5000000000002 1307.5000000000002 7 12.500000000000002 8 62.500000000000007 333.50000000000006 695.50000000000011 409.35416666666669 9
decision_type=2 2 2 2 2 2 2 2 1 1 2 1 1 1 2 2 2 1 1 2 2 2 1 2 1 2 2 2 2 1
left_child=2 5 4 7 23 16 9 12 13 -5 17 -6 -3 -9 -11 -4 29 27 -12 -20 -13 -10 -18 -1 25 -25 -19 -7 -24 -2
right_child=1 3 15 6 11 10 -8 8 21 14 18 20 -14 -15 -16 -17 22 26 19 -21 -22 -23 28 24 -26 -27 -28 -29 -30 -31
leaf_value=-11.192893750621119 6.8429975354324561 17.677876743587266 -4.4365566582997111 26.128260877030613 -5.8845162829812976 -12.501407102416543 58.67062199161311 40.055064962935688 19.438475427126214 40.359081310195613 14.894540455792683 17.03762326037565 -5.8080039640300054 27.448271905825322 68.317646985583835 0.66905388764643758 5.9602655724171356 0.76823543769729241 19.16376205119499 31.504004605697901 47.911526280529102 25.202749680542997 10.335179208439911 -3.6308616245637126 -9.6122021276243395 28.975814237008549 14.437712830622758 7.2930801249966084 20.19654120062518 1.388626226632701
leaf_weight=70013 3744 949 6202 1079 255 170 785 1113 3990 2689 6009 729 297 2729 144 10940 4011 345 5076 733 106 4717 3847 466 16877 179 6612 1501 698 3805
leaf_count=70013 3744 949 6202 1079 255 170 785 1113 3990 2689 6009 729 297 2729 144 10940 4011 345 5076 733 106 4717 3847 466 16877 179 6612 1501 698 3805
internal_value=0 17.2233 -8.9511 28.3716 -10.4546 11.5832 41.0631 24.0503 25.2294 37.5299 15.3852 14.6235 12.175 31.1949 41.6332 -1.17816 6.75623 12.1174 17.771 20.6853 20.7089 22.5354 9.0957 -10.7668 -9.06441 5.3354 13.7401 5.24787 11.8236 4.10468
internal_weight=0 55043 105767 18492 88625 36551 4697 13795 12549 3912 20446 1090 1246 3842 2833 17142 16105 8628 11818 5809 835 8707 8556 87535 17522 645 6957 1671 4545 7549
internal_count=160810 55043 105767 18492 88625 36551 4697 13795 12549 3912 20446 1090 1246 3842 2833 17142 16105 8628 11818 5809 835 8707 8556 87535 17522 645 6957 1671 4545 7549
cat_boundaries=0 1 2 3 4 5 6 7 8 9 10
cat_threshold=8960 458752 786432 3968 32 245760 464896 396288 896 448
is_linear=0
shrinkage=0.1


Tree=14
num_leaves=31
num_cat=8
split_feature=6 4 6 6 4 0 4 4 6 4 0 0 0 4 4 5 4 4 0 4 4 0 4 0 4 3 4 4 4 6
split_gain=2.0101e+09 2.23042e+08 2.03957e+08 7.24241e+07 4.2699e+07 3.71037e+07 2.75177e+07 1.74256e+07 1.68464e+07 1.56485e+07 1.49995e+07 1.34903e+07 1.30284e+07 1.21892e+07 1.0913e+07 1.03104e+07 9.07589e+06 8.38934e+06 8.11495e+06 8.0854e+06 7.96768e+06 6.60278e+06 6.58878e+06 6.05311e+06 5.99957e+06 1.22839e+07 5.9959e+06 5.55051e+06 5.22023e+06 5.17932e+06
threshold=698.50000000000011 1559.5000000000002 319.50000000000006 1121.5000000000002 1069.5000000000002 0 2146.5000000000005 391.50000000000006 30.500000000000004 877.50000000000011 1 2 3 2146.5000000000005 1243.5000000000002 500.50000000000006 2.5000000000000004 1500.5000000000002 4 1105.5000000000002 575.50000000000011 5 481.50000000000006 6 112.50000000000001 7 314.50000000000006 467.50000000000006 2739.5000000000005 107.50000000000001
decision_type=2 2 2 2 2 1 2 2 2 2 1 1 1 2 2 2 2 2 1 2 2 1 2 1 2 1 2 2 2 2
left_child=2 3 4 9 8 6 -3 -5 20 18 -7 -11 14 -12 -9 -4 -17 29 22 -14 -1 24 -2 -13 -10 -26 -20 -18 -8 -6
right_child=1 5 15 7 17 10 28 12 21 11 13 23 19 -15 -16 16 27 -19 26 -21 -22 -23 -24 -25 25 -27 -28 -29 -30 -31
leaf_value=-9.9778057887040656 -18.238699209781096 38.43742566349578 -0.060566225862563043 -8.9649905275291122 18.524743015680716 16.273365947423137 59.6610407161252 21.047136849701317 -5.4379651462141227 5.8850722919750034 27.993179255136859 13.231092467918211 13.103474873350951 41.694232965398726 30.70540081259357 -23.536602766890276 1.7111173445343093 38.590289066008161 2.3592381391264712 19.330653718899793 6.0604980639490478 -7.4308567419863367 4.6985995571291719 18.884966037670772 20.854413156141373 -2.5105889253680775 10.73560558647744 6.8590952527404161 85.879501578628378 -3.1914217519481283
leaf_weight=77234 131 2039 11154 213 307 953 414 4100 2366 2004 2896 6480 2815 837 1637 114 3423 140 963 8041 311 11987 2845 2954 288 915 7589 5396 93 171
leaf_count=77234 131 2039 11154 213 307 953 414 4100 2366 2004 2896 6480 2815 837 1637 114 3423 140 963 8041 311 11987 2845 2954 288 915 7589 5396 93 171
internal_value=0 17.4047 -7.1772 14.4673 -9.13709 33.5589 43.4509 19.4557 -9.31099 10.8169 28.0319 13.4374 19.8205 30.9822 23.7616 1.96695 4.49856 17.0615 8.21675 17.6996 -9.91348 -6.30766 3.67657 15.0196 -2.50738 3.23551 9.78095 4.86096 64.4703 10.756
internal_weight=0 47004 113806 39772 93719 7232 2546 16806 93101 22966 4686 11438 16593 3733 5737 20087 8933 618 11528 10856 77545 15556 2976 9434 3569 1203 8552 8819 507 478
internal_count=160810 47004 113806 39772 93719 7232 2546 16806 93101 22966 4686 11438 16593 3733 5737 20087 8933 618 11528 10856 77545 15556 2976 9434 3569 1203 8552 8819 507 478
cat_boundaries=0 1 2 3 4 5 6 7 8
cat_threshold=29184 393216 393216 8960 247808 223104 105472 2
is_linear=0
shrinkage=0.1


Tree=15
num_leaves=31
num_cat=12
split_feature=6 4 4 6 6 0 6 0 6 4 4 4 0 4 0 5 0 4 0 0 6 4 0 5 4 0 3 4 2 2
split_gain=1.63103e+09 2.33754e+08 8.22511e+07 6.19024e+07 6.07892e+07 3.03784e+07 2.63794e+07 2.28923e+07 2.1361e+07 1.71571e+07 1.61512e+07 1.28979e+07 1.22663e+07 1.07912e+07 1.02916e+07 9.78647e+06 8.70045e+06 8.54341e+06 8.43486e+06 7.90641e+06 7.18444e+06 6.63097e+06 6.35872e+06 4.66683e+06 4.47013e+06 4.44106e+06 4.10966e+06 4.03787e+06 3.91133e+06 3.68216e+06
threshold=553.50000000000011 1274.5000000000002 342.50000000000006 1772.5000000000002 929.50000000000011 0 131.50000000000003 1 47.500000000000007 2088.5000000000005 39.500000000000007 1613.5000000000002 2 848.50000000000011 3 707.50000000000011 4 80.500000000000014 5 6 2738.5000000000005 938.50000000000011 7 1769.5000000000002 778.50000000000011 8 9 1395.5000000000002 10 11
decision_type=2 2 2 2 2 1 2 1 2 2 2 2 1 2 1 2 1 2 1 1 2 2 1 2 2 1 1 2 1 1
left_child=2 4 6 7 15 24 -1 -3 19 16 -6 22 13 -12 26 28 -5 -17 -8 27 25 -14 -9 -13 -4 -11 -15 -7 -2 -19
right_child=1 3 5 9 10 8 18 11 -10 20 12 23 21 14 -16 17 -18 29 -20 -21 -22 -23 -24 -25 -26 -27 -28 -29 -30 -31
leaf_value=-8.8888327260038533 5.4967509281617213 11.168939672085315 -6.8491273732322107 36.44157201232386 -13.006593860585594 5.4578325748723699 -1.9287081715927787 27.498320191614813 1.7651466898531603 34.154894685952563 11.951628752288801 27.201192886543744 5.4979436549394496 29.915714681468245 27.428343239492392 -9.9206417820581194 23.493054118445396 13.828375259301581 -19.008751561744326 26.32721945027836 60.985990261556836 12.567814668470389 19.066832537226961 39.647661973282652 -1.2560697011974029 51.665905526494868 16.22362856395797 26.504908572327011 1.6748926675122779 8.0709441391453165
leaf_weight=83590 6895 2114 4878 1336 223 532 7049 1222 6817 680 3624 2285 1611 251 1168 243 1174 1401 292 478 226 7516 5712 347 2021 393 5662 110 4423 6537
leaf_count=83590 6895 2114 4878 1336 223 532 7049 1222 6817 680 3624 2285 1611 251 1168 243 1174 1401 292 478 226 7516 5712 347 2021 393 5662 110 4423 6537
internal_value=0 13.968 -7.25767 24.3819 9.89001 -0.353786 -8.38408 20.7717 3.86307 35.4521 13.7556 22.8583 14.0565 16.3744 18.6611 5.91422 30.624 8.54927 -2.63662 16.6668 44.7814 11.3075 20.6199 28.8421 -5.20315 41.3683 16.8544 8.92501 4.00953 9.11468
internal_weight=0 55043 105767 15489 39554 14836 90931 11680 7937 3809 20055 9566 19832 10705 7081 19499 2510 8181 7341 1120 1299 9127 6934 2632 6899 1073 5913 642 11318 7938
internal_count=160810 55043 105767 15489 39554 14836 90931 11680 7937 3809 20055 9566 19832 10705 7081 19499 2510 8181 7341 1120 1299 9127 6934 2632 6899 1073 5913 642 11318 7938
cat_boundaries=0 1 2 3 4 5 6 7 8 9 10 11 12
cat_threshold=1835008 393216 10112 9728 14080 14304 235520 8960 232448 4096 49 49
is_linear=0
shrinkage=0.1


Tree=16
num_leaves=31
num_cat=10
split_feature=6 4 6 6 4 0 4 0 0 4 6 4 5 4 6 4 2 3 4 4 0 0 4 5 0 0 6 4 0 5
split_gain=1.32204e+09 1.92725e+08 6.43151e+07 5.8871e+07 4.24184e+07 2.14233e+07 2.06124e+07 1.65459e+07 1.51175e+07 1.40714e+07 1.17072e+07 9.71276e+06 8.61524e+06 8.20456e+06 1.04101e+07 8.10644e+06 7.56387e+06 7.24857e+06 7.10833e+06 6.58876e+06 6.55569e+06 6.0412e+06 5.82681e+06 5.80115e+06 5.54079e+06 4.70522e+06 4.6112e+06 4.37008e+06 4.13488e+06 4.06101e+06
threshold=545.50000000000011 1343.5000000000002 46.500000000000007 929.50000000000011 1937.5000000000002 0 1181.5000000000002 1 2 351.50000000000006 1186.5000000000002 602.50000000000011 694.50000000000011 106.50000000000001 47.500000000000007 2492.5000000000005 3 4 80.500000000000014 1937.5000000000002 5 6 2739.5000000000005 938.50000000000011 7 8 218.50000000000003 973.50000000000011 9 219.50000000000003
decision_type=2 2 2 2 2 1 2 1 1 2 2 2 2 2 2 2 1 1 2 2 1 1 2 2 1 1 2 2 1 2
left_child=2 3 11 12 5 21 7 13 15 -5 28 -1 -2 25 -15 -6 23 27 -14 -8 -7 -3 -10 -12 -13 -4 -27 -18 -11 -9
right_child=1 4 6 9 8 20 19 29 22 10 16 24 18 14 -16 -17 17 -19 -20 -21 -22 -23 -24 -25 -26 26 -28 -29 -30 -31
leaf_value=-8.052952865406743 3.5223319122307313 30.623450101971116 -2.7262170387748759 -6.0316120677708822 40.807594167509045 18.173334968100271 13.749342893464473 -6.4029776100510052 26.237590619600553 13.545366189800939 15.472498124614132 -3.2421210136016207 -8.5016951955543281 17.173744246579169 0.70543825643550662 63.766450520253557 2.4057644526440165 16.683143793143707 8.1897170489604445 59.118089653463926 10.280654787806439 22.368094194259832 44.433420413043635 27.945477728228326 18.634798932304751 -9.0610756103193104 -34.195470341769131 12.265028233896338 9.6864985865634541 -2.4664795419918502
leaf_weight=79225 11351 1629 2733 390 757 3930 547 8773 1522 4674 656 260 263 401 8972 193 575 5216 8539 34 1582 3104 199 864 198 428 88 2061 7909 3737
leaf_count=79225 11351 1629 2733 390 757 3930 547 8773 1522 4674 656 260 263 401 8972 193 575 5216 8539 34 1582 3104 199 864 198 428 88 2061 7909 3737
internal_value=0 12.5133 -6.56575 9.26213 23.2107 20.2846 -2.21713 -2.64762 34.4343 12.7968 13.1312 -7.96901 5.34303 -0.0909984 1.40999 44.9982 15.8069 14.4807 7.69098 16.4043 15.9308 25.268 28.1779 22.4149 6.55167 -4.42147 -13.0938 10.0762 11.1384 -5.22289
internal_weight=0 55414 105396 42498 12916 10245 25713 25132 2671 22345 21955 79683 20153 12622 9373 950 9372 7852 8802 581 5512 4733 1721 1520 458 3249 516 2636 12583 12510
internal_count=160810 55414 105396 42498 12916 10245 25713 25132 2671 22345 21955 79683 20153 12622 9373 950 9372 7852 8802 581 5512 4733 1721 1520 458 3249 516 2636 12583 12510
cat_boundaries=0 1 2 3 4 5 6 7 8 9 10
cat_threshold=30464 262016 29184 32 546 100352 8960 1017856 384 9088
is_linear=0
shrinkage=0.1


Tree=17
num_leaves=31
num_cat=13
split_feature=6 6 6 4 4 4 0 4 4 0 4 0 0 0 8 4 4 0 0 0 0 4 8 4 0 4 4 0 3 2
split_gain=1.07338e+09 1.24554e+08 1.12018e+08 3.6098e+07 2.46092e+07 2.40069e+07 1.56079e+07 1.07169e+07 1.05472e+07 1.02747e+07 9.15259e+06 8.48459e+06 8.42394e+06 8.0842e+06 7.6285e+06 7.27056e+06 7.13118e+06 8.23788e+06 7.05474e+06 6.43609e+06 6.24626e+06 8.80931e+06 6.24061e+06 5.84416e+06 5.20092e+06 5.15793e+06 4.82021e+06 4.62849e+06 4.10053e+06 3.80882e+06
threshold=704.50000000000011 1502.5000000000002 319.50000000000006 979.50000000000011 1181.5000000000002 2088.5000000000005 0 589.50000000000011 1438.5000000000002 1 798.50000000000011 2 3 4 708.93750000000011 515.50000000000011 555.50000000000011 5 6 7 8 161.50000000000003 985.10416666666686 547.50000000000011 9 1.0000000180025095e-35 1075.5000000000002 10 11 12
decision_type=2 2 2 2 2 2 1 2 2 1 2 1 1 1 2 2 2 1 1 1 1 2 2 2 1 2 2 1 1 1
left_child=2 3 4 9 7 10 -5 20 19 23 -3 22 -9 14 29 25 24 -18 26 -8 21 -1 -7 -2 -11 -4 -17 -6 -15 -12
right_child=1 5 15 6 27 11 8 12 -10 16 13 -13 -14 28 -16 18 17 -19 -20 -21 -22 -23 -24 -25 -26 -27 -28 -29 -30 -31
leaf_value=-3.9048320208961345 -13.954500490746847 -6.0958894390705209 -14.400378134116421 6.1642056591426986 32.993732029550216 39.07351775863453 18.442374987965405 22.388931018354111 19.715116371396075 6.2527057400180714 25.26202850546742 23.999976929716578 -2.0263229392574331 24.280292502179773 34.854157190145905 -0.56033182568379214 14.563662926375116 7.8463440752943674 6.2896517264267278 12.294110037523204 -7.1293930037262463 17.972377190856161 70.264273980735013 3.3711553772418221 -3.6838822055386617 -0.0014694740381137486 6.8303490613059923 9.4105146348871145 16.326949595162411 14.057488002885419
leaf_weight=2802 205 121 255 2878 126 912 2060 139 2887 2823 1719 614 2738 1012 714 4290 2575 6719 4603 13430 87425 197 69 3871 643 10200 1111 292 2892 488
leaf_count=2802 205 121 255 2878 126 912 2060 139 2887 2823 1719 614 2738 1012 714 4290 2575 6719 4603 13430 87425 197 69 3871 643 10200 1111 292 2892 488
internal_value=0 12.7928 -5.21248 10.3455 -6.67594 23.707 13.0853 -6.7844 14.1582 6.88658 21.1665 34.7707 -0.775942 21.6498 25.7811 1.49136 8.2814 9.73156 3.41852 13.1316 -6.97557 -2.45955 40.8509 2.49365 4.41672 -0.352662 0.958177 17.5338 18.4454 22.9627
internal_weight=0 46632 114178 38091 93719 8541 21255 93301 18377 16836 6946 1595 2877 6825 2921 20459 12760 9294 10004 15490 90424 2999 981 4076 3466 10455 5401 418 3904 2207
internal_count=160810 46632 114178 38091 93719 8541 21255 93301 18377 16836 6946 1595 2877 6825 2921 20459 12760 9294 10004 15490 90424 2999 981 4076 3466 10455 5401 418 3904 2207
cat_boundaries=0 1 2 3 4 5 6 7 8 9 10 11 12 13
cat_threshold=393216 507904 61952 8960 13056 384 919552 8448 896 448 57856 6156 37
is_linear=0
shrinkage=0.1


Tree=18
num_leaves=31
num_cat=10
split_feature=6 4 6 4 0 4 0 4 0 0 4 4 0 4 4 4 0 4 5 8 0 4 3 4 5 5 7 4 0 0
split_gain=8.69758e+08 1.03904e+08 9.07956e+07 3.35995e+07 2.01236e+07 1.98681e+07 1.86391e+07 1.44312e+07 1.03348e+07 9.77344e+06 1.28407e+07 9.22843e+06 1.05478e+07 1.0697e+07 8.06077e+06 7.87884e+06 7.73744e+06 7.65078e+06 6.17221e+06 5.74114e+06 5.17501e+06 5.04912e+06 4.66387e+06 4.5686e+06 3.78561e+06 3.48589e+06 3.29668e+06 3.16118e+06 3.13667e+06 3.10304e+06
threshold=704.50000000000011 1559.5000000000002 329.50000000000006 973.50000000000011 0 1181.5000000000002 1 2739.5000000000005 2 3 494.50000000000006 9.5000000000000018 4 161.50000000000003 1236.5000000000002 615.50000000000011 5 2088.5000000000005 532.50000000000011 742.06250000000011 6 14.500000000000002 7 2032.5000000000002 1860.5000000000002 1282.5000000000002 922.50000000000011 634.50000000000011 8 9
decision_type=2 2 2 2 1 2 1 2 1 1 2 2 1 2 2 2 1 2 2 2 1 2 1 2 2 2 2 2 1 1
left_child=2 3 5 9 20 11 17 16 -6 15 -11 -1 13 -13 -10 -2 25 -3 26 -18 22 -20 -5 29 -9 -8 -4 -23 -14 -7
right_child=1 6 18 4 8 23 7 24 14 10 -12 12 28 -15 -16 -17 19 -19 21 -21 -22 27 -24 -25 -26 -27 -28 -29 -30 -31
leaf_value=-6.6872331528066695 5.4669171445176072 31.581240222299961 -0.52166710026921759 13.768686384246799 26.240905698448849 25.973821359384257 10.878265544955731 34.221660362063226 11.573343358872163 -13.094554751406832 4.7417790052230702 -1.5418251572662258 -3.5999251494370785 15.182792879233554 16.376719202262837 11.87951483670434 19.672660970821788 53.886669434552417 -12.700063850557482 28.118147943761613 3.5107048011680506 2.3865549052816362 7.2661187797691147 51.312854564551152 58.695369064807892 19.445346555094343 4.938552225708313 6.5756074698070623 -6.0349182513115158 6.0649055878869422
leaf_weight=68870 3712 789 11107 1689 685 112 1250 185 8583 423 8812 1742 8822 490 5892 3960 2829 191 185 1125 2145 4617 3500 33 96 766 1228 2954 13738 280
leaf_count=68870 3712 789 11107 1689 685 112 1250 185 8583 423 8812 1742 8822 490 5892 3960 2829 191 185 1125 2145 4617 3500 33 96 766 1228 2954 13738 280
internal_value=0 11.517 -4.69069 9.49487 12.0266 -5.99379 22.5357 20.4034 14.1109 6.12655 3.92056 -6.09168 -4.43727 2.1203 13.5192 8.76544 19.3936 35.5656 1.41177 22.0199 7.68827 3.62217 9.40509 15.5787 42.5828 14.0637 0.0219202 4.02101 -5.08474 12.5705
internal_weight=0 46632 114178 39401 22494 94087 7231 6251 15160 16907 9235 93662 24792 2232 14475 7672 5970 980 20091 3954 7334 7756 5189 425 281 2016 12335 7571 22560 392
internal_count=160810 46632 114178 39401 22494 94087 7231 6251 15160 16907 9235 93662 24792 2232 14475 7672 5970 980 20091 3954 7334 7756 5189 425 281 2016 12335 7571 22560 392
cat_boundaries=0 1 2 3 4 5 6 7 8 9 10
cat_threshold=460800 8704 256 960 25472 458752 67584 6158 498752 29184
is_linear=0
shrinkage=0.1


Tree=19
num_leaves=31
num_cat=12
split_feature=4 4 6 0 4 0 4 0 0 0 4 2 8 5 5 2 0 3 4 2 4 4 2 4 5 0 5 4 4 9
split_gain=7.04774e+08 1.03685e+08 6.26493e+07 5.5196e+07 2.22551e+07 1.6448e+07 1.41082e+07 1.38087e+07 9.0436e+06 8.55617e+06 1.28695e+07 8.15363e+06 6.5759e+06 5.83473e+06 5.74137e+06 5.5477e+06 5.32632e+06 5.26632e+06 4.58636e+06 4.61022e+06 3.53113e+06 3.46514e+06 3.3652e+06 3.06957e+06 3.04907e+06 3.037e+06 3.00151e+06 2.95952e+06 2.93776e+06 2.93769e+06
threshold=609.50000000000011 1395.5000000000002 155.50000000000003 0 2032.5000000000002 1 1046.5000000000002 2 3 4 314.50000000000006 5 846.04166666666686 973.50000000000011 473.50000000000006 6 7 8 4.5000000000000009 9 1016.5000000000001 848.50000000000011 10 1740.5000000000002 2146.5000000000005 11 1282.5000000000002 1069.5000000000002 1650.5000000000002 356.09226190476198
decision_type=2 2 2 1 2 1 2 1 1 1 2 1 2 2 2 1 1 1 2 1 2 2 1 2 2 1 2 2 2 2
left_child=2 3 -1 20 7 11 22 23 -6 14 -11 13 -10 -5 -4 24 -9 21 -16 -20 -2 -13 -7 -3 -8 -19 -17 -27 -18 -12
right_child=1 4 9 5 8 6 15 16 12 10 29 17 -14 -15 18 26 28 25 19 -21 -22 -23 -24 -25 -26 27 -28 -29 -30 -31
leaf_value=-5.7897126347545838 -1.8878363555593851 22.445493947237328 -0.70482603820912393 13.50436662354187 15.298267492325161 -3.4665597199160034 -9.145611053518115 8.512621544206322 27.10019077304699 -18.348504476911494 -0.75046655332310563 10.669152079740732 41.328379209988334 25.90682452590125 -11.425669120951287 9.5519343531503367 13.645787791405477 12.868893411350889 7.1293503628076085 2.0144184146752995 2.4981551116864411 17.901564133343328 5.3349170364974814 33.197566049624996 19.13109367930371 5.9147225239137962 13.79110371637813 11.184388747496577 17.965832962596856 -8.3972777648520687
leaf_weight=86982 5112 1110 6935 828 560 449 223 1485 1083 504 4534 1146 464 700 211 8364 3888 1879 2479 6135 2864 1570 11133 349 46 2733 2087 1747 2645 565
leaf_count=86982 5112 1110 6935 828 560 449 223 1485 1083 504 4534 1146 464 700 211 8364 3888 1879 2479 6135 2864 1570 11133 349 46 2733 2087 1747 2645 565
internal_value=0 9.52224 -4.598 7.15582 17.8735 8.96348 7.41174 15.8068 27.1694 0.25418 -3.09901 12.2173 31.1663 19.0614 1.44735 10.0294 14.1132 11.0452 3.14025 3.49705 -0.312535 14.7954 4.99532 24.8471 -4.1557 9.42274 10.3885 7.95191 15.3713 -1.59778
internal_weight=0 52465 108345 40881 11584 32905 22302 9477 2107 21363 5603 10603 1547 1528 15760 10720 8018 9075 8825 8614 7976 2716 11582 1459 269 6359 10451 4480 6533 5099
internal_count=160810 52465 108345 40881 11584 32905 22302 9477 2107 21363 5603 10603 1547 1528 15760 10720 8018 9075 8825 8614 7976 2716 11582 1459 269 6359 10451 4480 6533 5099
cat_boundaries=0 1 2 3 4 5 6 7 8 9 10 11 12
cat_threshold=917504 9088 8960 458752 10176 32 64 393216 6406 49 64 384
is_linear=0
shrinkage=0.1


Tree=20
num_leaves=31
num_cat=13
split_feature=4 4 6 0 4 0 0 0 4 0 4 5 4 4 2 0 4 3 2 0 0 8 8 6 4 0 5 2 5 5
split_gain=5.70925e+08 8.42211e+07 5.08123e+07 4.19243e+07 2.309e+07 1.29066e+07 1.12501e+07 1.07898e+07 8.56278e+06 7.47065e+06 7.15653e+06 6.48407e+06 6.3041e+06 6.03658e+06 5.629e+06 4.23304e+06 3.66352e+06 3.6332e+06 3.59268e+06 3.26178e+06 3.15075e+06 2.89915e+06 2.88564e+06 2.87848e+06 2.6166e+06 2.56958e+06 2.79284e+06 2.4972e+06 2.62298e+06 2.44811e+06
threshold=609.50000000000011 1307.5000000000002 138.50000000000003 0 1796.5000000000002 1 2 3 1034.5000000000002 4 304.50000000000006 1274.5000000000002 2492.5000000000005 848.50000000000011 5 6 2739.5000000000005 7 8 9 10 586.47916666666686 708.93750000000011 816.50000000000011 938.50000000000011 11 1545.5000000000002 12 1010.5000000000001 1826.5000000000002
decision_type=2 2 2 1 2 1 1 1 2 1 2 2 2 2 1 1 2 1 1 1 1 2 2 2 2 1 2 1 2 2
left_child=2 3 -1 21 7 13 12 22 27 10 -4 15 25 -5 -15 -11 -8 -16 -10 -13 -9 24 -3 -19 -2 26 -6 -7 -29 -14
right_child=1 4 9 5 6 8 16 20 18 11 -12 19 29 14 17 -17 -18 23 -20 -21 -22 -23 -24 -25 -26 -27 -28 28 -30 -31
leaf_value=-5.2334958035503547 -1.253096416935418 15.663443242319284 0.046626554877102572 7.7658796833345889 28.754441412851033 -2.9708996721195433 16.327138453174097 12.133236821348099 -3.5122738352809773 -4.9711993605674047 5.795041390126225 -4.2087883633136016 38.192574732231371 20.773967733224737 14.85846922984712 -0.069577492451710285 30.326868880088696 24.709620789001729 8.8619481196130554 -19.545567385625347 7.6348398780199318 -4.2215573356523031 23.199667552203238 8.6561392999878048 3.1175623619967934 21.450241985294028 45.656738343920033 3.9633753385062818 7.9488727409109403 62.28239355394917
leaf_weight=86273 3511 3379 5380 4168 324 437 2360 3598 241 2113 3625 314 132 780 2005 10371 203 116 8923 269 3056 1725 598 3008 2246 729 140 8685 2039 62
leaf_count=86273 3511 3379 5380 4168 324 437 2360 3598 241 2113 3625 314 132 780 2005 10371 203 116 8923 269 3056 1725 598 3008 2246 729 140 8685 2039 62
internal_value=0 8.57075 -4.13812 6.08509 15.0289 7.73403 21.5573 12.6033 6.2741 0.143389 2.35806 -1.38357 28.9642 10.6695 12.7357 -0.903247 17.3682 11.4504 8.54236 -11.6927 10.0818 -0.624635 16.7545 9.22271 0.452045 26.4544 33.14 4.41732 4.71676 45.8914
internal_weight=0 52465 108345 37884 14581 30402 3950 10631 20325 22072 9005 13067 1387 10077 5909 12484 2563 5129 9164 583 6654 7482 3977 3124 5757 1193 464 11161 10724 194
internal_count=160810 52465 108345 37884 14581 30402 3950 10631 20325 22072 9005 13067 1387 10077 5909 12484 2563 5129 9164 583 6654 7482 3977 3124 5757 1193 464 11161 10724 194
cat_boundaries=0 1 2 3 4 5 6 7 8 9 10 11 12 13
cat_threshold=917504 9088 29184 29440 384 32 917536 6534 64 17920 99328 8704 64
is_linear=0
shrinkage=0.1


Tree=21
num_leaves=31
num_cat=15
split_feature=4 4 6 0 4 0 0 4 0 4 6 5 0 3 2 5 4 0 8 9 5 3 0 0 5 8 3 0 3 3
split_gain=4.63289e+08 6.18473e+07 5.42102e+07 3.47435e+07 1.27031e+07 1.18277e+07 1.09987e+07 8.4872e+06 6.86403e+06 5.9078e+06 5.65584e+06 4.82671e+06 4.4193e+06 4.28726e+06 4.28599e+06 4.24287e+06 5.50409e+06 3.8343e+06 3.82672e+06 3.8053e+06 3.75834e+06 3.32168e+06 3.65239e+06 3.26057e+06 3.05062e+06 2.94188e+06 2.70711e+06 2.67659e+06 2.86728e+06 2.53181e+06
threshold=688.50000000000011 1559.5000000000002 387.50000000000006 0 1135.5000000000002 1 2 2146.5000000000005 3 3.5000000000000004 12.500000000000002 1545.5000000000002 4 5 6 1316.5000000000002 376.50000000000006 7 684.68750000000011 443.15178571428578 1826.5000000000002 8 9 10 1545.5000000000002 985.10416666666686 11 12 13 14
decision_type=2 2 2 1 2 1 1 2 1 2 2 2 1 1 1 2 2 1 2 2 2 1 1 1 2 2 1 1 1 1
left_child=2 3 10 23 6 7 -5 -3 13 -4 -1 27 19 18 20 -14 -17 -15 -6 -11 -10 -8 29 26 -16 -13 -2 -7 -29 -23
right_child=1 5 9 4 8 11 21 -9 14 12 -12 25 15 17 24 16 -18 -19 -20 -21 -22 22 -24 -25 -26 -27 -28 28 -30 -31
leaf_value=-4.9250599732218703 -0.28293001609792512 19.398977653473256 -9.487956534280416 13.297582852891777 19.906549676337121 8.9708807400785258 2.8540105400184501 33.774926704214884 -13.842517689069112 1.14766160335445 -3.1093339541089344 17.438309721499682 0.73329259525998247 24.499017978434296 9.1041039904872143 -26.668685964227635 -0.75559773238282224 11.204253829456778 43.555698095394092 5.6671528226808476 11.185271733403207 5.8233490728366659 5.3563128797163824 -1.6256206314023132 15.900641685263182 32.584889598020773 4.8858573327392492 20.150870573291414 11.520092124572153 11.134070951587898
leaf_weight=71049 1871 2075 489 2130 511 1811 3420 512 150 3534 22616 920 10764 255 9281 131 219 2091 79 3940 100 1612 10409 3528 711 149 2209 666 1267 2311
leaf_count=71049 1871 2075 489 2130 511 1811 3420 512 150 3534 22616 920 10764 255 9281 131 219 2091 79 3940 100 1612 10409 3528 711 149 2209 666 1267 2311
internal_value=0 8.22794 -3.49703 6.69783 8.09886 16.6369 6.50544 22.1585 10.509 1.36179 -4.48664 13.5948 1.64722 14.8152 9.25114 0.380626 -10.4545 12.7472 22.6886 3.52544 -3.68404 5.67978 6.35163 0.59833 9.57814 19.5495 2.52067 11.9309 14.5822 8.9722
internal_weight=0 48068 112742 40668 33060 7400 19882 2587 13178 19077 93665 4813 18588 2936 10242 11114 350 2346 590 7474 250 17752 14332 7608 9992 1069 4080 3744 1933 3923
internal_count=160810 48068 112742 40668 33060 7400 19882 2587 13178 19077 93665 4813 18588 2936 10242 11114 350 2346 590 7474 250 17752 14332 7608 9992 1069 4080 3744 1933 3923
cat_boundaries=0 1 2 3 4 5 6 7 8 9 10 11 12 13 14 15
cat_threshold=917504 29184 384 8960 384 6158 64 256 544 8704 131072 1952 458752 6158 464
is_linear=0
shrinkage=0.1


Tree=22
num_leaves=31
num_cat=12
split_feature=4 4 6 0 4 0 0 0 8 4 0 4 0 4 0 4 3 0 5 0 2 5 3 8 4 8 6 4 9 6
split_gain=3.7731e+08 6.0036e+07 2.90318e+07 2.65691e+07 2.01336e+07 9.4545e+06 9.2898e+06 8.62831e+06 6.64528e+06 5.77054e+06 5.42694e+06 5.46731e+06 4.96736e+06 3.40352e+06 3.59077e+06 3.32505e+06 3.21422e+06 2.71026e+06 2.56182e+06 2.54839e+06 2.5541e+06 2.53174e+06 2.48626e+06 2.46849e+06 2.41299e+06 2.32858e+06 2.32207e+06 2.31518e+06 2.92781e+06 2.29867e+06
threshold=575.50000000000011 1201.5000000000002 138.50000000000003 0 1769.5000000000002 1 2 3 820.64583333333337 904.50000000000011 4 293.50000000000006 5 399.50000000000006 6 917.50000000000011 7 8 1353.5000000000002 9 10 500.50000000000006 11 548.56250000000011 213.50000000000003 713.97916666666686 983.50000000000011 2739.5000000000005 599.83630952380963 1207.5000000000002
decision_type=2 2 2 1 2 1 1 1 2 2 1 2 1 2 1 2 1 1 2 1 1 2 1 2 2 2 2 2 2 2
left_child=2 3 -1 23 5 22 15 18 17 -8 13 -12 16 14 21 -5 25 -9 -6 20 -11 -4 -3 -2 -16 -7 -18 -10 -29 -19
right_child=1 4 10 6 7 12 9 8 27 19 11 -13 -14 -15 24 -17 26 29 -20 -21 -22 -23 -24 -25 -26 -27 -28 28 -30 -31
leaf_value=-4.2556094654091501 0.10929712616979921 3.0024837163648446 -0.80749307823681404 9.0826647725684762 6.0668751793068676 20.058623758946148 3.4233345863008724 25.47267724842661 25.336596689159556 9.5608277323008846 -13.833721808349186 -2.054519849458655 9.8465188918384889 2.8885394902846926 -13.485491411558545 16.750756485752223 33.025199824366076 31.841693936946783 15.539895815831811 5.0499915061019518 5.520405648019036 2.5095537254140119 7.9046498790903872 -3.9448390237521163 -2.9358406937195842 38.42423270469488 12.748064124116327 20.970957345811147 47.592692021926247 15.120684465300492
leaf_weight=86171 5157 2106 5876 2337 711 350 11415 422 516 3887 444 3502 8274 5135 262 746 58 86 477 6499 2823 3782 2112 2119 1257 86 2149 63 120 1868
leaf_count=86171 5157 2106 5876 2337 711 350 11415 422 516 3887 444 3502 8274 5135 262 746 58 86 477 6499 2823 3782 2112 2119 1257 86 2149 63 120 1868
internal_value=0 6.78406 -3.45481 4.30988 11.2461 9.53628 5.72096 17.3165 20.1277 5.06802 -0.0484598 -3.37136 11.0922 0.756978 -0.221638 10.9028 14.9401 17.6717 9.78805 6.49317 7.8717 0.490929 5.46994 -1.06992 -4.72436 23.1502 13.221 28.7639 38.4278 15.7759
internal_weight=0 54381 106429 34983 19398 15135 27707 4263 3075 24624 20258 3946 10917 16312 11177 3083 2643 2376 1188 13209 6710 9658 4218 7276 1519 436 2207 699 183 1954
internal_count=160810 54381 106429 34983 19398 15135 27707 4263 3075 24624 20258 3946 10917 16312 11177 3083 2643 2376 1188 13209 6710 9658 4218 7276 1519 436 2207 699 183 1954
cat_boundaries=0 1 2 3 4 5 6 7 8 9 10 11 12
cat_threshold=917504 919552 384 458752 14272 8960 448 6154 8704 13824 53 1952
is_linear=0
shrinkage=0.1


Tree=23
num_leaves=31
num_cat=13
split_feature=4 6 4 0 0 2 8 4 0 3 2 3 4 0 6 0 4 5 2 5 5 5 6 8 5 0 3 8 9 0
split_gain=3.05953e+08 4.06305e+07 3.88984e+07 2.16544e+07 9.48397e+06 7.18958e+06 6.91215e+06 6.4572e+06 5.65721e+06 5.44482e+06 5.98522e+06 4.86147e+06 4.57436e+06 5.07349e+06 6.35551e+06 5.74964e+06 4.12512e+06 3.71474e+06 3.52667e+06 3.46924e+06 3.16313e+06 2.99882e+06 2.63308e+06 2.57177e+06 2.54974e+06 2.44309e+06 2.28645e+06 2.2513e+06 2.24173e+06 1.96497e+06
threshold=733.50000000000011 387.50000000000006 1515.5000000000002 0 1 2 567.35416666666686 2146.5000000000005 3 4 5 6 4.5000000000000009 7 47.500000000000007 8 14.500000000000002 1081.5000000000002 9 1545.5000000000002 2492.5000000000005 89.500000000000014 329.50000000000006 708.93750000000011 624.50000000000011 10 11 985.10416666666686 607.3005952380953 12
decision_type=2 2 2 1 1 1 2 2 1 1 1 1 2 1 2 1 2 2 1 2 2 2 2 2 2 1 1 2 2 1
left_child=1 12 3 8 7 6 29 -4 9 10 -2 22 -1 14 15 -14 -3 -12 24 -6 25 -13 -7 -8 -18 -20 -27 -21 -9 -5
right_child=2 16 4 5 19 11 23 28 -10 -11 17 21 13 -15 -16 -17 18 -19 20 27 -22 -23 -24 -25 -26 26 -28 -29 -30 -31
leaf_value=-4.0992180458330605 -11.801690310628519 -5.6237592764216142 15.624782961011542 10.244524792316881 9.2570613633186394 -7.1595884581582743 12.437733986315898 22.044014419232248 -1.292680716757324 1.5412418916465722 5.0621558299228582 18.759569174152261 -0.53084293606752719 -3.0716535782467624 -0.96071109979199232 19.128246683813071 2.2871714658663409 11.466304762517707 -4.8231760415264029 13.737920754299459 -29.387855599908267 2.6177485110461767 8.3428510749633471 23.448210081355327 9.6902068892260473 0.14381273992575494 2.4173537036712904 26.886926340818405 35.357742194308528 7.0509111298796512
leaf_weight=64190 174 845 2450 2624 4272 113 2478 284 3102 6121 3533 118 277 26475 2852 323 1022 1218 653 987 34 4670 3602 232 854 8261 9532 150 228 9136
leaf_count=64190 174 845 2450 2624 4272 113 2478 284 3102 6121 3533 118 277 26475 2852 323 1022 1218 653 987 34 4670 3602 232 854 8261 9532 150 228 9136
internal_value=0 -2.73231 6.95199 5.56338 13.1097 7.45824 8.8213 17.6995 2.47956 3.53911 6.01399 5.13103 -3.62319 -2.60218 1.00445 10.3623 1.22257 6.68989 1.50677 10.5441 1.08485 3.00928 7.85018 13.3803 5.62721 1.14161 1.36246 15.4726 27.9728 7.77821
internal_weight=0 115318 45492 37121 8371 22973 14470 2962 14148 11046 4925 8503 94117 29927 3452 600 21201 4751 20356 5409 18480 4788 3715 2710 1876 18446 17793 1137 512 11760
internal_count=160810 115318 45492 37121 8371 22973 14470 2962 14148 11046 4925 8503 94117 29927 3452 600 21201 4751 20356 5409 18480 4788 3715 2710 1876 18446 17793 1137 512 11760
cat_boundaries=0 1 2 3 4 5 6 7 8 9 10 11 12 13
cat_threshold=985088 29440 53 198656 6174 64 5520 10112 8192 32 393216 682 8576
is_linear=0
shrinkage=0.1


Tree=24
num_leaves=31
num_cat=12
split_feature=4 4 0 0 4 0 0 0 4 6 4 6 5 3 2 9 0 8 6 8 3 5 0 6 6 4 4 0 5 2
split_gain=2.49626e+08 4.17946e+07 1.82393e+07 1.82294e+07 1.39631e+07 7.15072e+06 6.77663e+06 6.22471e+06 5.30274e+06 8.50214e+06 4.68865e+06 3.75319e+06 4.98954e+06 3.67834e+06 3.89362e+06 3.47507e+06 3.28438e+06 3.26086e+06 2.89572e+06 2.82785e+06 2.79532e+06 2.76776e+06 2.68618e+06 2.40512e+06 2.38691e+06 2.24898e+06 2.21374e+06 2.20156e+06 2.16017e+06 2.99496e+06
threshold=562.50000000000011 1187.5000000000002 0 1 1740.5000000000002 2 3 4 33.500000000000007 93.500000000000014 2739.5000000000005 119.50000000000001 1251.5000000000002 5 6 470.95535714285717 7 388.89583333333343 1019.5000000000001 548.56250000000011 8 1545.5000000000002 9 618.50000000000011 1200.5000000000002 1016.5000000000001 812.50000000000011 10 1016.5000000000001 11
decision_type=2 2 1 1 2 1 1 1 2 2 2 2 2 1 1 2 1 2 2 2 1 2 1 2 2 2 2 1 2 1
left_child=2 3 8 19 6 21 18 23 -1 -10 22 -4 -13 -9 17 -11 -8 -15 -3 25 -20 -6 -7 -5 -24 -2 -25 -22 -16 -30
right_child=1 4 11 7 5 10 16 13 9 15 -12 12 -14 14 28 -17 -18 -19 20 -21 27 -23 24 26 -26 -27 -28 -29 29 -31
leaf_value=-2.9037839334677287 -0.20080620722667294 29.093744879109519 -3.5280486652881176 32.495646911443671 20.02493113949895 7.3149335697833351 7.8271707289446644 11.122401330421434 24.594641813853894 0.18533322890040893 24.732156987786297 -1.0384109931813694 -12.246882217708562 3.9581205266917951 0.5979374698231984 4.346668731386707 4.3963258839787249 7.4169287306603593 18.341983303682177 -3.3882948132211057 19.975737107341942 34.755366940024011 27.700367585603182 6.4960075638873711 12.700829926107689 3.7962586618243663 11.902989139389129 8.715809708135227 4.887710384587006 -1.8303764175628285
leaf_weight=2864 6333 98 83587 43 384 1204 8478 744 164 5834 285 9765 414 7964 3874 3059 4317 4144 517 2152 199 191 111 1871 2399 1810 1272 1957 3981 795
leaf_count=2864 6333 98 83587 43 384 1204 8478 744 164 5834 285 9765 414 7964 3874 3059 4317 4144 517 2152 199 191 111 1871 2399 1810 1272 1957 3981 795
internal_value=0 5.46217 -2.83871 3.3729 9.09122 13.9486 7.6639 4.84599 0.846097 2.03282 12.3405 -3.30692 -1.49428 4.22993 3.97766 1.61674 6.67395 5.13767 12.167 -0.164201 11.5919 24.492 11.4228 8.97745 13.3111 0.687649 8.68426 9.84253 2.34986 3.77584
internal_weight=0 55123 105687 34983 20140 4574 15566 24688 11921 9057 3999 93766 10179 21502 20758 8893 12795 12108 2771 10295 2673 575 3714 3186 2510 8143 3143 2156 8650 4776
internal_count=160810 55123 105687 34983 20140 4574 15566 24688 11921 9057 3999 93766 10179 21502 20758 8893 12795 12108 2771 10295 2673 575 3714 3186 2510 8143 3143 2156 8650 4776
cat_boundaries=0 1 2 3 4 5 6 7 8 9 10 11 12
cat_threshold=896 983040 8704 8960 384 4096 53 119808 6158 458752 256 10
is_linear=0
shrinkage=0.1


Tree=25
num_leaves=31
num_cat=12
split_feature=4 5 2 0 0 2 5 5 3 0 0 4 6 8 0 4 8 2 0 5 1 4 4 6 4 5 1 0 6 0
split_gain=2.02348e+08 3.60446e+07 1.85868e+07 1.4447e+07 1.31227e+07 9.87174e+06 7.13077e+06 5.40518e+06 4.45899e+06 4.77321e+06 4.42323e+06 4.33778e+06 5.13172e+06 3.93404e+06 3.59967e+06 3.45172e+06 3.39026e+06 4.86311e+06 6.25979e+06 4.81479e+06 2.81615e+06 2.78147e+06 2.63409e+06 2.61052e+06 2.53876e+06 2.27574e+06 2.20968e+06 2.18271e+06 2.1499e+06 2.08297e+06
threshold=547.50000000000011 1081.5000000000002 0 1 2 3 1860.5000000000002 71.500000000000014 4 5 6 136.50000000000003 107.50000000000001 668.60416666666686 7 1057.5000000000002 985.10416666666686 8 9 1545.5000000000002 21.500000000000004 1500.5000000000002 946.50000000000011 882.50000000000011 391.50000000000006 2492.5000000000005 27.500000000000004 10 1214.5000000000002 11
decision_type=2 2 1 1 1 1 2 2 1 1 1 2 2 2 1 2 2 1 1 2 2 2 2 2 2 2 2 1 2 1
left_child=3 4 6 11 22 15 8 -7 9 13 21 -1 -13 -3 24 27 17 18 -4 23 -9 -10 -2 -19 -5 -8 -25 -6 -15 -17
right_child=1 2 16 14 5 7 25 20 10 -11 -12 12 -14 28 -16 29 -18 19 -20 -21 -22 -23 -24 26 -26 -27 -28 -29 -30 -31
leaf_value=-1.135702767331036 -1.7379441448874227 14.207950891429171 -6.4077812479863034 -2.3131286530671846 8.3606252828898953 15.344280603826931 23.948718764256533 1.3777453798050792 13.223242468868023 9.509728649572077 7.6901786949238558 29.759282911065181 2.6880262806821431 56.07973575592041 -3.2950729189182475 11.045174309478634 21.748932743408627 12.39117415257418 6.4851262012264357 11.087720340819056 4.285146036669639 27.685629753697487 1.5516614594651874 4.487557936332573 0.58013087359555671 52.058995091915136 9.418375688847588 3.6484526027861315 22.818769078821205 6.6665837194152351
leaf_weight=4712 5125 1107 713 17888 1325 324 288 10579 638 1264 3429 71 5093 20 73484 1989 133 517 776 1845 4863 168 4636 7616 3652 32 1032 4039 686 2766
leaf_count=4712 5125 1107 713 17888 1325 324 288 10579 638 1264 3429 71 5093 20 73484 1989 133 517 776 1845 4863 168 4636 7616 3652 32 1032 4039 686 2766
internal_value=0 4.86541 8.23299 -2.58318 2.95101 4.12841 12.1324 2.55993 11.5089 14.4538 9.31311 1.05721 3.06023 17.8297 -2.96133 6.56726 5.86277 5.69842 0.309862 6.42106 2.29335 16.0387 -0.175362 5.48862 -1.82175 26.7597 5.07597 4.83483 23.761 8.53538
internal_weight=0 55910 20264 104900 35646 25885 7632 15766 7312 3077 4235 9876 5164 1813 95024 10119 12632 12499 1489 11010 15442 806 9761 9165 21540 320 8648 5364 706 4755
internal_count=160810 55910 20264 104900 35646 25885 7632 15766 7312 3077 4235 9876 5164 1813 95024 10119 12632 12499 1489 11010 15442 806 9761 9165 21540 320 8648 5364 706 4755
cat_boundaries=0 1 2 3 4 5 6 7 8 9 10 11 12
cat_threshold=48 384 917504 33 6670 59136 4352 15968 64 199680 896 26368
is_linear=0
shrinkage=0.1


Tree=26
num_leaves=31
num_cat=13
split_feature=4 6 4 0 0 2 8 3 3 2 5 4 3 4 0 6 2 5 5 2 5 6 5 5 0 4 3 2 7 1
split_gain=1.65217e+08 2.24965e+07 2.10438e+07 1.24145e+07 5.79683e+06 5.21478e+06 4.28925e+06 3.89774e+06 3.6638e+06 3.63551e+06 4.57065e+06 3.43776e+06 3.05948e+06 3.01686e+06 3.08724e+06 4.0985e+06 3.86981e+06 2.8801e+06 2.46414e+06 2.25373e+06 2.14482e+06 2.14021e+06 2.11213e+06 2.07826e+06 2.06995e+06 2.84089e+06 1.95573e+06 2.60306e+06 1.99769e+06 1.93684e+06
threshold=760.50000000000011 387.50000000000006 1650.5000000000002 0 1 2 574.06250000000011 3 4 5 1181.5000000000002 2492.5000000000005 6 3.5000000000000004 7 47.500000000000007 8 1980.5000000000002 624.50000000000011 9 2330.5000000000005 329.50000000000006 1153.5000000000002 526.50000000000011 10 293.50000000000006 11 12 1239.5000000000002 23.500000000000004
decision_type=2 2 2 1 1 1 2 1 1 1 2 2 1 2 1 2 1 2 2 1 2 2 2 2 1 2 1 1 2 2
left_child=1 13 3 7 -4 6 26 -2 21 -9 -11 -6 17 -1 15 16 -15 24 -14 22 -13 -7 -20 -10 -3 -26 28 -28 -5 -23
right_child=2 12 4 5 11 8 -8 9 23 10 -12 20 18 14 -16 -17 -18 -19 19 -21 -22 29 -24 -25 25 -27 27 -29 -30 -31
leaf_value=-3.0388278283406169 0.2545712544971146 2.2179823800392167 21.081061361428631 5.9263132891520565 8.9378927981275211 -6.5922996425280607 10.166333353324596 -1.0982833629747304 13.750117213601497 3.4259349052713066 10.755482718419426 15.658624060682767 0.60893448148687623 1.1194039325771639 -2.1925811611744734 -0.65092961829661655 16.83855862675847 -14.672761365212502 6.3994420715600571 2.2522730669124118 41.578505785325 4.8388521069787434 35.742634823799129 1.0737643350508037 -8.2034077891106527 -0.6748284465365576 9.2375479720981879 4.1421899470141987 10.177968156299801 9.5528478439511932
leaf_weight=62762 6484 2186 509 2632 4762 137 3213 1401 134 5768 998 523 8029 363 28017 2923 276 144 1306 4908 34 3265 25 3714 553 5353 1218 6079 1905 1189
leaf_count=62762 6484 2186 509 2632 4762 137 3213 1401 134 5768 998 523 8029 363 28017 2923 276 144 1306 4908 34 3265 25 3714 553 5353 1218 6079 1905 1189
internal_value=0 -1.96001 5.23158 4.37632 10.8281 5.80105 6.9215 2.08705 3.79743 3.53982 4.50041 9.78896 0.881 -2.6377 -1.84049 0.932446 8.18993 -0.653775 1.76615 3.2582 17.2408 5.70616 6.89876 1.51127 -0.40511 -1.37742 6.04636 5.00417 7.69454 6.09726
internal_weight=0 116845 43965 38137 5828 23486 15047 14651 8439 8167 6766 5319 22504 94341 31579 3562 639 8236 14268 6239 557 4591 1331 3848 8092 5906 11834 7297 4537 4454
internal_count=160810 116845 43965 38137 5828 23486 15047 14651 8439 8167 6766 5319 22504 94341 31579 3562 639 8236 14268 6239 557 4591 1331 3848 8092 5906 11834 7297 4537 4454
cat_boundaries=0 1 2 3 4 5 6 7 8 9 10 11 12 13
cat_threshold=985088 8192 53 1952 5584 96 674 10112 64 48 192 5520 32
is_linear=0
shrinkage=0.1


Tree=27
num_leaves=31
num_cat=9
split_feature=4 5 2 0 0 2 5 4 5 3 5 8 2 0 5 9 6 6 6 1 9 1 4 1 6 8 3 0 4 6
split_gain=1.34195e+08 2.61375e+07 1.32904e+07 9.53141e+06 9.35467e+06 7.22313e+06 5.95032e+06 4.87954e+06 4.15289e+06 3.23468e+06 2.99355e+06 2.79167e+06 3.17186e+06 4.84396e+06 3.76051e+06 2.59081e+06 2.45923e+06 2.40096e+06 2.60391e+06 2.08245e+06 2.04925e+06 2.02283e+06 1.9796e+06 1.8606e+06 1.76654e+06 1.7067e+06 1.68074e+06 1.65511e+06 1.65383e+06 3.17082e+06
threshold=521.50000000000011 1057.5000000000002 0 1 2 3 1545.5000000000002 30.500000000000004 89.500000000000014 4 2330.5000000000005 985.10416666666686 5 6 1545.5000000000002 537.80952380952397 888.50000000000011 951.50000000000011 1862.5000000000002 21.500000000000004 356.09226190476198 3.5000000000000004 1075.5000000000002 27.500000000000004 1.0000000180025095e-35 414.64583333333343 7 8 384.50000000000006 526.50000000000011
decision_type=2 2 1 1 1 1 2 2 2 1 2 2 1 1 2 2 2 2 2 2 2 2 2 2 2 2 1 1 2 2
left_child=4 3 6 22 7 15 17 -1 -7 -8 -11 12 13 -4 16 21 -14 -3 -19 -10 -9 -5 -2 -18 -22 -23 -21 -20 29 -6
right_child=1 2 11 5 28 8 9 20 19 10 -12 -13 14 -15 -16 -17 23 18 27 26 24 25 -24 -25 -26 -27 -28 -29 -30 -31
leaf_value=-1.7113861988133501 -1.3427541549035464 22.089132600897599 -5.631369503870931 9.5146874061995046 -2.6212091499833456 13.023799543337127 10.32439445603603 -0.19300343533663269 0.86471348611119847 19.920259642002563 51.285301971435551 19.007585314997922 10.254655251192286 5.5217138403740584 9.2612911991401514 8.5932131858166994 3.4080301251076586 7.2562349820553464 14.704397026815242 0.63203351703245381 24.788497156710239 3.2313557096829353 1.6546327190902923 7.7671761630324099 2.8571188189920265 6.8420699202954527 4.6796767441385061 8.0528880796225497 -0.929112247231479 -9.9117648040004909
leaf_weight=7997 6851 131 726 745 80672 328 612 3286 10487 620 32 135 658 817 1845 1959 8196 4973 931 1524 37 5773 3248 1112 4988 1693 3218 802 5813 601
leaf_count=7997 6851 131 726 745 80672 328 612 3286 10487 620 32 135 658 817 1845 1959 8196 4973 931 1524 37 5773 3248 1112 4988 1693 3218 802 5813 601
internal_value=0 3.88239 6.63084 2.22608 -2.14681 3.24732 9.83457 0.0519867 1.88961 16.1499 21.1355 4.69603 4.55487 0.271584 5.10989 5.32031 4.34647 8.6814 8.41948 1.65105 1.7488 4.54594 -0.378372 3.9288 3.0186 4.05013 3.39003 11.7575 -2.55828 -2.67512
internal_weight=0 57416 21590 35826 103394 25727 8101 16308 15557 1264 652 13489 13354 1543 11811 10170 9966 6837 6706 15229 8311 8211 10099 9308 5025 7466 4742 1733 87086 81273
internal_count=160810 57416 21590 35826 103394 25727 8101 16308 15557 1264 652 13489 13354 1543 11811 10170 9966 6837 6706 15229 8311 8211 10099 9308 5025 7466 4742 1733 87086 81273
cat_boundaries=0 1 2 3 4 5 6 7 8 9
cat_threshold=48 1966080 448 33 1456 64 199680 4258 14080
is_linear=0
shrinkage=0.1


Tree=28
num_leaves=31
num_cat=14
split_feature=4 0 5 4 2 0 3 0 2 0 8 0 5 0 3 4 2 6 9 0 2 0 4 7 5 8 5 8 6 1
split_gain=1.09372e+08 1.52105e+07 1.45788e+07 7.96588e+06 7.94726e+06 7.24601e+06 5.394e+06 5.7872e+06 4.26014e+06 3.98077e+06 3.36735e+06 3.12473e+06 3.0385e+06 2.83738e+06 3.18097e+06 3.03099e+06 2.77175e+06 4.56228e+06 3.5903e+06 3.38304e+06 2.75976e+06 3.04536e+06 2.67025e+06 1.99711e+06 1.78024e+06 1.73348e+06 1.72014e+06 1.65767e+06 1.57008e+06 1.50888e+06
threshold=772.50000000000011 0 1243.5000000000002 39.500000000000007 1 2 3 4 5 6 749.39583333333337 7 89.500000000000014 8 9 1251.5000000000002 10 62.500000000000007 470.95535714285717 11 12 13 2032.5000000000002 1491.5000000000002 1717.5000000000002 952.18750000000011 2228.5000000000005 1026.0833333333337 809.50000000000011 26.500000000000004
decision_type=2 1 2 2 1 1 1 1 1 1 2 1 2 1 1 2 1 2 2 1 1 1 2 2 2 2 2 2 2 2
left_child=1 3 5 -1 6 8 7 -4 12 22 -9 -7 -2 -10 -15 -16 27 19 -19 -18 21 -6 -8 29 -22 -23 -12 -5 -14 -13
right_child=2 -3 4 16 20 11 9 10 13 -11 26 23 28 14 15 -17 17 18 -20 -21 24 25 -24 -25 -26 -27 -28 -29 -30 -31
leaf_value=-1.9175449475908497 16.79812656195767 -2.3309746002740193 8.0290506367814043 -0.58139647862657118 7.3023146501346332 -1.1742418734580726 11.326874625920979 16.236565413867378 14.772194085858011 5.3822158430928049 26.649052695297684 1.5024290863756309 7.3886795172087751 3.2971475823257475 5.6741630668061109 11.867924277345878 24.196388834639443 0.93016573606231556 4.6081470133335491 3.2566701366853068 5.3902790505300047 -5.2264848262458656 26.533892858454159 5.7140332726201279 10.269117891925664 11.27482466706088 50.687299508759473 14.076435082310287 2.706855903564362 4.6658450480461733
leaf_weight=12369 166 81612 647 7112 411 2984 876 534 426 1968 304 10451 789 2222 1874 1366 148 12718 3354 175 5367 616 133 1602 869 71 33 78 7773 1762
leaf_count=12369 166 81612 647 7112 411 2984 876 534 426 1968 304 10451 789 2222 1874 1366 148 12718 3354 175 5367 616 133 1602 869 71 33 78 7773 1762
internal_value=0 -1.57616 4.30557 0.137806 7.29779 3.17889 10.6142 15.5232 4.80674 8.06742 20.9357 1.75866 3.3942 6.8913 6.25077 8.25999 1.21578 1.93301 1.69771 13.7013 5.24357 0.591401 13.2005 2.39255 6.06044 -3.47059 29.0029 -0.421796 3.13829 1.95882
internal_weight=0 117566 43244 35954 11829 31415 4495 1518 14616 2977 871 16799 8728 5888 5462 3240 23585 16395 16072 323 7334 1098 1009 13815 6236 687 337 7190 8562 12213
internal_count=160810 117566 43244 35954 11829 31415 4495 1518 14616 2977 871 16799 8728 5888 5462 3240 23585 16395 16072 323 7334 1098 1009 13815 6236 687 337 7190 8562 12213
cat_boundaries=0 1 2 3 4 5 6 7 8 9 10 11 12 13 14
cat_threshold=65472 48 59264 6158 202752 30 14592 786432 256 624 72 3456 64 25344
is_linear=0
shrinkage=0.1


Tree=29
num_leaves=31
num_cat=16
split_feature=4 5 2 0 0 5 2 5 3 0 4 1 6 3 3 1 5 2 0 6 3 7 0 6 3 0 1 3 3 5
split_gain=8.95923e+07 1.81845e+07 1.07123e+07 6.01847e+06 6.01782e+06 4.54344e+06 4.41913e+06 3.12344e+06 2.90296e+06 4.62271e+06 2.86985e+06 2.72755e+06 2.44955e+06 2.25541e+06 2.18818e+06 2.16531e+06 2.01495e+06 1.93323e+06 2.11702e+06 1.93258e+06 1.88779e+06 2.14857e+06 1.83628e+06 1.72646e+06 1.71827e+06 1.63609e+06 1.58499e+06 1.58471e+06 1.55731e+06 1.53753e+06
threshold=501.50000000000006 973.50000000000011 0 1 2 1545.5000000000002 3 187.50000000000003 4 5 30.500000000000004 25.500000000000004 951.50000000000011 6 7 4.5000000000000009 2330.5000000000005 8 9 1862.5000000000002 10 1115.5000000000002 11 751.50000000000011 12 13 23.500000000000004 14 15 1334.5000000000002
decision_type=2 2 1 1 1 2 1 2 1 1 2 2 2 1 1 2 2 1 1 2 1 2 1 2 1 1 2 1 1 2
left_child=3 4 5 10 13 12 20 -8 9 -4 -1 15 -3 -2 -7 -10 -16 18 -17 -14 21 -6 -15 -19 -21 -26 -9 -13 -28 -25
right_child=1 2 8 -5 6 14 7 26 11 -11 -12 27 19 22 16 17 -18 23 -20 24 -22 -23 -24 29 25 -27 28 -29 -30 -31
leaf_value=-1.348493067850123 -1.604381548940863 17.409475872251722 -0.71683082839651924 -2.1129325931841065 3.1897992778317033 8.5300958938249831 11.565070944167164 0.39899894234628647 5.4816493871132472 12.663433958022633 1.3230101363696449 7.9762495142761454 5.7962470226505438 2.6323610803147695 16.430085149657341 -8.0885376771396178 42.162769913673401 11.254080439738509 1.6394120024650225 12.841978143361713 3.0773817154799588 8.16719161198451 -0.56625722928093913 1.3066568822175888 10.28589813447941 2.1400132861883954 8.3745644737019447 3.0280887510816523 2.0551515026176932 4.1925763208162499
leaf_weight=7997 5730 216 388 86141 1461 612 292 8301 2027 791 8088 1625 6394 3630 620 380 32 212 522 843 4855 2134 3539 6509 534 485 468 1143 2264 2577
leaf_count=7997 5730 216 388 86141 1461 612 292 8301 2027 791 8088 1625 6394 3630 620 380 32 212 522 843 4855 2134 3539 6509 534 485 468 1143 2264 2577
internal_value=0 3.12331 5.10178 -1.78149 1.55442 7.7234 2.64979 1.35558 3.51673 8.29109 -0.0051813 3.13607 6.89692 -0.126811 13.324 2.49645 17.4258 1.90322 -2.50259 6.62188 4.38068 6.12735 1.05476 2.33081 9.45706 6.46728 1.08661 5.97274 3.17586 2.12517
internal_weight=0 58584 25910 102226 32674 9736 19775 11325 16174 1179 16085 14995 8472 12899 1264 12227 652 10200 902 8256 8450 3595 7169 9298 1862 1019 11033 2768 2732 9086
internal_count=160810 58584 25910 102226 32674 9736 19775 11325 16174 1179 16085 14995 8472 12899 1264 12227 652 10200 902 8256 8450 3595 7169 9298 1862 1019 11033 2768 2732 9086
cat_boundaries=0 1 2 3 4 5 6 7 8 9 10 11 12 13 14 15 16
cat_threshold=48 448 1968128 33 4096 102400 1952 1456 64 3072 5520 133120 3086 13056 3412 1088
is_linear=0
shrinkage=0.1


Tree=30
num_leaves=31
num_cat=15
split_feature=4 4 5 2 0 0 3 0 0 9 2 0 6 8 3 3 0 7 6 5 5 8 0 1 3 3 1 6 6 0
split_gain=7.30547e+07 1.17914e+07 9.02009e+06 5.49336e+06 5.38289e+06 5.29438e+06 4.2475e+06 4.78581e+06 3.83493e+06 3.04209e+06 2.66522e+06 2.58149e+06 3.86432e+06 2.47884e+06 2.37769e+06 2.31722e+06 2.52761e+06 2.26951e+06 2.17223e+06 2.12989e+06 2.05193e+06 1.91178e+06 1.87153e+06 1.86976e+06 1.80155e+06 1.74995e+06 1.74799e+06 1.73315e+06 1.54038e+06 1.5166e+06
threshold=819.50000000000011 271.50000000000006 1243.5000000000002 0 1 2 3 4 5 383.50297619047626 6 7 165.50000000000003 730.56250000000011 8 9 10 1026.5000000000002 308.50000000000006 938.50000000000011 539.50000000000011 764.93750000000011 11 11.500000000000002 12 13 5.5000000000000009 1026.5000000000002 298.50000000000006 14
decision_type=2 2 2 1 1 1 1 1 1 2 1 1 2 2 1 1 1 2 2 2 2 2 1 2 1 1 2 2 2 1
left_child=1 11 4 6 14 18 7 29 21 19 15 -1 -13 -9 23 16 -6 26 -3 -7 -12 -8 24 -2 -11 -5 -16 -24 -27 -4
right_child=2 5 3 25 10 9 8 13 -10 22 20 12 -14 -15 17 -17 -18 -19 -20 -21 -22 -23 27 -25 -26 28 -28 -29 -30 -31
leaf_value=-0.77717139994497941 -3.1940433183401984 20.801585200173516 -3.2284204879309986 0.34999620944024185 14.441109669807568 0.31062756009766823 9.5316792763432598 14.428619748010314 4.5665803769547813 4.7304550326821371 15.465497941719859 -1.9972713349556448 -9.4585397589223703 26.409166685392648 4.5368693476853892 8.4513441693009419 2.4684500262114573 4.0850035136434641 3.0743727048551261 5.9198900747685448 2.9078364598542699 20.208253178834916 -2.4113283908743433 1.17186029793712 -5.5906299888825108 -4.0136579113128859 0.8230490020483755 -11.257667518638332 5.0836030920719715 8.8961438539494644
leaf_weight=19742 1514 70 118 1222 189 16442 1039 503 3208 667 133 70939 701 263 1509 2484 1702 4823 5520 706 6009 200 4878 2786 217 195 7914 232 4090 795
leaf_count=19742 1514 70 118 1222 189 16442 1039 503 3208 667 133 70939 701 263 1509 2484 1702 4823 5520 706 6009 200 4878 2786 217 195 7914 232 4090 795
internal_value=0 -1.23543 3.66696 6.02013 2.72505 0.531555 8.08209 12.4046 6.42592 -0.136231 4.53192 -1.791 -2.06999 18.3031 1.69707 6.42587 3.73475 2.31914 3.29047 0.541566 3.17459 11.165 -2.07554 -0.364496 2.16269 3.705 1.41778 -2.80747 4.65874 7.31111
internal_weight=0 120114 40696 11633 29063 28732 6126 1679 4447 23142 10517 91382 71640 766 18546 4375 1891 14246 5590 17148 6142 1239 5994 4300 884 5507 9423 5110 4285 913
internal_count=160810 120114 40696 11633 29063 28732 6126 1679 4447 23142 10517 91382 71640 766 18546 4375 1891 14246 5590 17148 6142 1239 5994 4300 884 5507 9423 5110 4285 913
cat_boundaries=0 1 2 3 4 5 6 7 8 9 10 11 12 13 14 15
cat_threshold=52 1021952 384 6154 235520 12544 33 480 2562 624 256 512 7182 546 4096
is_linear=0
shrinkage=0.1


Tree=31
num_leaves=31
num_cat=15
split_feature=4 4 0 0 0 8 4 6 1 8 0 4 1 3 3 0 0 3 3 3 2 3 6 5 9 0 9 6 2 8
split_gain=5.94239e+07 1.28282e+07 6.11761e+06 4.43376e+06 3.98213e+06 3.8308e+06 2.86128e+06 2.79067e+06 2.73905e+06 2.55338e+06 2.28068e+06 2.0325e+06 2.02864e+06 3.14085e+06 2.98945e+06 2.39854e+06 1.98098e+06 2.03206e+06 1.76505e+06 1.75378e+06 1.63421e+06 1.47392e+06 1.40886e+06 3.50024e+06 1.38667e+06 1.34579e+06 1.33641e+06 1.31388e+06 1.28903e+06 1.21239e+06
threshold=501.50000000000006 1105.5000000000002 0 1 2 764.93750000000011 2492.5000000000005 983.50000000000011 3.5000000000000004 616.52083333333337 3 30.500000000000004 23.500000000000004 4 5 6 7 8 9 10 11 12 93.500000000000014 219.50000000000003 408.70238095238102 13 293.38095238095246 579.50000000000011 14 900.77083333333337
decision_type=2 2 1 1 1 2 2 2 2 2 1 2 2 1 1 1 1 1 1 1 1 1 2 2 2 1 2 2 1 2
left_child=4 2 10 5 11 7 8 -3 -5 21 -2 -1 13 15 16 -10 -14 -18 -12 -9 -15 -4 23 -13 -25 -8 -24 -11 -21 -7
right_child=1 3 9 6 -6 29 25 19 12 27 18 22 14 20 -16 -17 17 -19 -20 28 -22 -23 26 24 -26 -27 -28 -29 -30 -31
leaf_value=-1.1359266050959007 4.8751046050135223 20.67240609205686 -1.3154234866289318 6.8995792633287856 -1.7199355795355598 13.851343495369733 2.8869626035135258 8.8094926747639288 -0.20765272522649025 -3.6063919788114371 5.0819615053134104 0.079106075696799227 5.3057596765748336 -1.2618569403108182 6.1874208441300169 10.995499151693565 0.66753355931233749 -10.458106811944541 1.5620855322580622 6.7751753752532284 2.3615336867429018 0.87625357648647173 -1.3451355487787882 13.309146005312602 37.169642504250128 13.998584464138487 1.6343995910603351 -19.5392508842327 2.2025797899894224 27.737693320044986
leaf_weight=7997 3693 130 4066 2065 86141 308 179 1280 272 1246 1643 196 530 1411 3734 689 570 221 10663 1110 10405 12411 2039 60 41 377 5752 54 1448 79
leaf_count=7997 3693 130 4066 2065 86141 308 179 1280 272 1246 1643 196 530 1411 3734 689 570 221 10663 1110 10405 12411 2039 60 41 377 5752 54 1448 79
internal_value=0 2.54421 1.27602 4.27085 -1.45033 7.17267 3.64768 6.26291 3.45174 -0.00148448 2.69381 -0.00544648 3.05247 2.38159 4.7482 7.85509 0.628443 -2.53265 2.03578 5.77483 1.92815 0.335151 1.11231 7.87208 22.9951 10.725 0.854619 -4.26822 4.20544 16.686
internal_weight=0 58584 33776 24808 102226 4355 20453 3968 19897 17777 15999 16085 17832 12777 5055 961 1321 791 12306 3838 11816 16477 8088 297 101 556 7791 1300 2558 387
internal_count=160810 58584 33776 24808 102226 4355 20453 3968 19897 17777 15999 16085 17832 12777 5055 961 1321 791 12306 3838 11816 16477 8088 297 101 556 7791 1300 2558 387
cat_boundaries=0 1 2 3 4 5 6 7 8 9 10 11 12 13 14 15
cat_threshold=14208 8960 448 384 4096 4226 36864 50176 130 5120 6414 72 672 196608 33
is_linear=0
shrinkage=0.1


Tree=32
num_leaves=31
num_cat=15
split_feature=4 4 4 0 0 2 3 0 3 9 5 0 8 3 0 1 9 3 0 3 3 1 1 1 6 0 6 5 8 0
split_gain=4.88356e+07 7.89126e+06 6.55186e+06 4.25818e+06 3.8048e+06 2.68967e+06 3.4021e+06 2.94595e+06 5.57256e+06 2.6086e+06 2.69617e+06 2.51836e+06 2.12973e+06 1.96514e+06 2.85116e+06 1.961e+06 1.93449e+06 1.89076e+06 1.82226e+06 1.72479e+06 1.66317e+06 2.16126e+06 1.86726e+06 1.66059e+06 1.55983e+06 1.51743e+06 1.97195e+06 1.512e+06 1.483e+06 1.43341e+06
threshold=826.50000000000011 213.50000000000003 1672.5000000000002 0 1 2 3 4 5 357.44345238095246 904.50000000000011 6 730.56250000000011 7 8 23.500000000000004 555.89583333333337 9 10 11 12 26.500000000000004 28.500000000000004 2.5000000000000004 860.50000000000011 13 1315.5000000000002 339.50000000000006 925.06250000000011 14
decision_type=2 2 2 1 1 1 1 1 1 2 2 1 2 1 1 2 2 1 1 1 1 2 2 2 2 1 2 2 2 1
left_child=1 18 3 5 20 13 15 8 -8 10 -6 -4 17 14 -2 29 -15 -5 27 25 21 -3 23 -22 -21 -9 -27 -1 -17 -7
right_child=2 4 11 12 9 6 7 19 -10 -11 -12 -13 -14 16 -16 28 -18 -19 -20 24 22 -23 -24 -25 -26 26 -28 -29 -30 -31
leaf_value=-1.0872726527499175 9.752497066745482 10.833775558017686 11.783835122197928 2.9309575497469789 -0.048382736515199226 6.1925162425732196 6.7821852887041123 2.7299486759456251 -6.486592377253861 -2.3152861311260664 7.9317042560781239 5.3574911280883706 -3.4053867084416218 8.1730909471867683 0.38685222845236722 6.7186091027098485 21.803919169149903 0.71628513679785177 -1.7564442052358289 12.136210857917156 5.3956343527956703 -8.3528336020878395 5.2887874254117229 0.72838675891285465 3.4669175659006677 0.46676805316641623 -8.8382830731593938 1.0530477826888101 27.189989313814376 2.6378132828136271
leaf_weight=20555 505 364 713 6556 9560 1528 444 1389 1043 6126 443 4797 887 1201 896 2079 114 9390 65034 224 812 70 1107 12461 2825 784 321 3932 36 4614
leaf_count=20555 505 364 713 6556 9560 1528 444 1389 1043 6126 443 4797 887 1201 896 2079 114 9390 65034 224 812 70 1107 12461 2825 784 321 3932 36 4614
internal_value=0 -1.00375 3.01597 2.50916 0.372909 3.57809 3.05795 1.43599 -2.50586 -0.689772 0.305029 6.22018 1.36301 6.4837 3.80795 4.43549 9.28417 1.62911 -1.47959 2.49606 1.52936 7.56486 1.34207 1.01391 4.09041 0.538361 -2.21627 -0.743287 7.06706 3.53653
internal_weight=0 120464 40346 34836 30943 18003 15287 7030 1487 16129 10003 5510 16833 2716 1401 8257 1315 15946 89521 5543 14814 434 14380 13273 3049 2494 1105 24487 2115 6142
internal_count=160810 120464 40346 34836 30943 18003 15287 7030 1487 16129 10003 5510 16833 2716 1401 8257 1315 15946 89521 5543 14814 434 14380 13273 3049 2494 1105 24487 2115 6142
cat_boundaries=0 1 2 3 4 5 6 7 8 9 10 11 12 13 14 15
cat_threshold=30592 45952 32 5584 4096 544 8704 496 4352 4188 240 544 4096 9472 4352
is_linear=0
shrinkage=0.1


Tree=33
num_leaves=31
num_cat=13
split_feature=4 4 5 0 2 3 0 6 9 5 2 0 8 3 8 0 0 6 0 0 6 3 4 5 7 6 6 1 3 1
split_gain=3.99766e+07 7.53236e+06 4.96678e+06 3.71949e+06 3.29397e+06 3.29334e+06 3.19039e+06 2.82722e+06 2.19801e+06 1.96412e+06 1.7176e+06 2.05807e+06 1.71545e+06 1.69812e+06 1.76345e+06 1.6366e+06 1.62727e+06 1.5986e+06 2.22749e+06 1.55513e+06 3.2535e+06 1.48232e+06 1.6681e+06 1.45483e+06 1.39209e+06 1.35105e+06 1.34465e+06 1.24674e+06 1.24344e+06 1.23914e+06
threshold=904.50000000000011 293.50000000000006 1274.5000000000002 0 1 2 3 867.50000000000011 402.3005952380953 2228.5000000000005 4 5 832.64583333333337 6 428.97916666666669 7 8 47.500000000000007 9 10 165.50000000000003 11 2228.5000000000005 560.50000000000011 1521.5000000000002 319.50000000000006 867.50000000000011 25.500000000000004 12 28.500000000000004
decision_type=2 2 2 1 1 1 1 2 2 2 1 1 2 1 2 1 1 2 1 1 2 1 2 2 2 2 2 2 1 2
left_child=1 19 6 25 5 16 7 -2 17 26 11 -9 24 -13 -15 28 -4 18 -5 -1 -21 22 -16 27 29 -3 -7 -12 -10 -8
right_child=2 3 4 8 -6 9 12 10 15 -11 23 13 -14 14 21 -17 -18 -19 -20 20 -22 -23 -24 -25 -26 -27 -28 -29 -30 -31
leaf_value=-0.66466183286711755 9.5972309873800068 17.21141204815358 9.919424410451029 -0.71227469727760406 2.8597514727489877 27.425262989868987 0.75552524605911553 12.8796310595657 4.7809669570359468 26.076819059665389 6.5796418216114958 2.0102481710789215 -4.3396352919439476 3.3078023818480613 1.7974689664463259 -2.4874530533751318 2.8043233008750552 0.34349307974782795 10.992887564126546 -1.4943478318326306 -8.0290150543829437 11.719648925584785 27.596900067506017 1.7225228596884818 4.3978532724324726 2.6012016606746839 8.2325737885306634 28.372917479106363 -0.71512079822985752 4.4897885322431828
leaf_weight=26704 692 64 374 318 4760 37 11225 267 574 65 105 2337 543 1206 349 5107 2209 18866 329 64621 771 667 27 6366 1384 5731 2721 35 1391 965
leaf_count=26704 692 64 374 318 4760 37 11225 267 574 65 105 2337 543 1206 349 5107 2209 18866 329 64621 771 667 27 6366 1384 5731 2721 35 1391 965
internal_value=0 -0.847297 2.92287 0.464615 4.79868 6.48863 2.19413 3.3888 -0.0362773 8.86359 3.01356 4.43791 1.17106 3.91947 5.88572 -1.54668 3.86882 0.511111 5.39871 -1.30855 -1.57115 8.92295 3.55553 1.9413 1.39237 2.7578 8.49005 12.028 0.906431 1.05114
internal_weight=0 124476 36334 32380 10166 5406 26168 12051 26585 2823 11359 4853 14117 4586 2249 7072 2583 19513 647 92096 65392 1043 376 6506 13574 5795 2758 140 1965 12190
internal_count=160810 124476 36334 32380 10166 5406 26168 12051 26585 2823 11359 4853 14117 4586 2249 7072 2583 19513 647 92096 65392 1043 376 6506 13574 5795 2758 140 1965 12190
cat_boundaries=0 1 2 3 4 5 6 7 8 9 10 11 12 13
cat_threshold=384 52 432 59264 33 256 1648 45568 4352 1691648 496 384 7172
is_linear=0
shrinkage=0.1


Tree=34
num_leaves=31
num_cat=12
split_feature=4 4 5 0 0 6 2 3 1 1 6 8 2 7 3 1 1 3 6 0 8 9 5 3 2 0 9 3 6 4
split_gain=3.24674e+07 6.6876e+06 3.98949e+06 3.64999e+06 2.61304e+06 2.61772e+06 2.27343e+06 2.17674e+06 2.29578e+06 2.05476e+06 1.97419e+06 1.95281e+06 1.7877e+06 1.76125e+06 1.7353e+06 1.65664e+06 1.64763e+06 1.56398e+06 1.52417e+06 1.48939e+06 1.4889e+06 1.46659e+06 1.39854e+06 1.3888e+06 4.70482e+06 1.65642e+06 1.6121e+06 1.38612e+06 1.37049e+06 1.77571e+06
